//Numpy array shape [32, 5]
//Min -1.675953149796
//Max 1.460852384567
//Number of zeros 120

#ifndef W11_H_
#define W11_H_

#ifndef __SYNTHESIS__
model_default_t w11[160];
#else
model_default_t w11[160] = {0.0000000000, -0.0000000000, 0.0000000000, -0.0000000000, -0.0000000000, 0.0000000000, -0.0000000000, 0.0000000000, 0.5028262734, -1.6751661301, -0.0000000000, 0.0000000000, 0.0000000000, -0.0000000000, 0.0000000000, 0.0000000000, 0.0000000000, -0.0000000000, 0.0000000000, -0.0000000000, 0.0000000000, 0.0000000000, -0.0000000000, -0.0000000000, -0.0000000000, 0.7676795721, -0.0000000000, 0.0000000000, -0.0000000000, 0.0000000000, 0.0000000000, -0.0000000000, -1.6648010015, -0.0000000000, -0.0000000000, -1.5357075930, -0.0000000000, 1.0122344494, 1.0278503895, -0.1524832696, 0.0000000000, -0.0000000000, 0.0000000000, -0.0000000000, -0.0000000000, 0.0000000000, -0.0000000000, 0.0000000000, -0.0000000000, -0.0000000000, -0.0000000000, -0.7668950558, 0.0000000000, -0.0000000000, -0.0000000000, -0.0000000000, -0.0000000000, -0.0000000000, -0.0000000000, 0.0000000000, -0.7714399695, -0.0000000000, 0.9402098060, -0.0000000000, -0.0000000000, 0.0000000000, -0.0000000000, 0.0000000000, -1.6759531498, -0.0000000000, 0.0000000000, -0.0000000000, 0.0000000000, 0.4841324389, -1.4086410999, 0.0000000000, -0.8199750185, 0.0000000000, -0.0061137481, -0.0000000000, -0.0000000000, 0.7769658566, 0.0000000000, -0.6466534138, 0.0000000000, 1.2130225897, -0.0000000000, 0.5847923160, -1.0619016886, -0.0000000000, 0.4782461226, -0.0000000000, 0.0000000000, -0.0000000000, -1.3520976305, 0.0000000000, 0.2404541671, 0.0000000000, -1.3591506481, 0.2392312288, 0.0000000000, -0.0000000000, 0.0000000000, -0.0000000000, -0.0000000000, 0.0000000000, -0.0000000000, 0.0000000000, -0.7407151461, 1.4608523846, 0.0000000000, -0.0000000000, 0.0000000000, -0.0000000000, -0.0000000000, -0.8950438499, -0.0000000000, 0.0000000000, -0.0000000000, -0.0000000000, 0.0000000000, -0.0000000000, 0.0000000000, 0.0000000000, -1.4516607523, -0.0054653063, -0.0000000000, -0.0000000000, 0.9898505211, -1.5719513893, -0.6319515109, -0.0000000000, 0.0000000000, -0.0000000000, 0.6280704737, -0.0000000000, -0.0000000000, -0.0000000000, 0.0000000000, 0.0000000000, 0.0000000000, -0.0000000000, -0.0000000000, 0.0000000000, -0.0000000000, 0.9229993820, -0.0000000000, 0.0000000000, -0.0000000000, -0.5531232357, -0.0000000000, 0.0000000000, -0.5061870813, 0.7940111160, 0.0000000000, 0.0000000000, 1.1738204956, 0.0000000000, -0.0000000000, 0.0000000000};
#endif

#endif
