//Numpy array shape [16, 64]
//Min -1.458646774292
//Max 2.096036434174
//Number of zeros 768

#ifndef W2_H_
#define W2_H_

#ifndef __SYNTHESIS__
model_default_t w2[1024];
#else
model_default_t w2[1024] = {0.0000000000, -0.3766764700, -0.0088995760, -0.0000000000, 0.0000000000, -0.0000000000, 0.0126499077, -0.2396601588, -0.4774676561, 0.0000000000, -0.0000000000, 0.0630004555, -0.0000000000, 0.0000000000, 0.0000000000, 0.0000000000, -0.0000000000, 0.0000000000, 0.0000000000, 0.0000000000, -0.0000000000, 0.0000000000, 0.0000000000, -0.0000000000, 0.0000000000, 0.0000000000, -0.0000000000, -0.0000000000, -0.0000000000, 0.0000000000, -0.0000000000, 0.0000000000, -0.0000000000, -0.0000000000, 0.9457654357, 0.0000000000, 0.0000000000, 0.0000000000, -0.0000000000, -0.0000000000, -0.0000000000, -0.0000000000, -0.0000000000, 0.0000000000, 0.5780886412, 0.0000000000, -0.0000000000, -0.0000000000, -0.0000000000, -0.0000000000, -0.0000000000, 0.0000000000, -0.5239267349, 0.0000000000, -0.0000000000, -0.0000000000, -0.6261959076, -0.0111704050, 0.0000000000, 0.1061621234, -0.0000000000, -0.0000000000, -0.0000000000, -0.0000000000, -0.0000000000, -0.0150200352, 0.0000000000, 0.0000000000, -0.0000000000, 0.0000000000, 0.0000000000, -0.0000000000, -0.0000000000, -0.0000000000, 0.0000000000, -0.0070617134, 0.0000000000, -0.0000000000, 0.0000000000, -0.0000000000, 0.0000000000, 0.0877543911, -0.0000000000, -0.0000000000, 0.6811405420, -0.0000000000, 0.8257889152, 0.0000000000, 0.0000000000, -0.0000000000, 0.0000000000, -0.0000000000, 0.3939566016, -0.0000000000, 0.2295871377, -0.0000000000, 0.0000000000, 0.0000000000, 0.0000000000, -0.0000000000, -0.0000000000, 0.0000000000, 0.0000000000, 0.0000000000, -0.0000000000, 0.4684443176, 0.0000000000, 0.0117456252, 0.0000000000, -0.0643140301, 0.0000000000, 0.0000000000, 0.2090422213, 0.0000000000, 0.0000000000, -0.0000000000, -0.1306711286, -0.0446247533, -0.2511172295, 0.1649812311, -0.5540649891, 0.0000000000, 0.0000000000, -0.0000000000, 0.0000000000, 0.0000000000, 0.0000000000, 0.1630462408, 0.0000000000, -0.0000000000, 0.0000000000, 0.0000000000, -0.2437220067, 0.0000000000, -0.7989757657, 0.0000000000, -0.0000000000, 0.2901750803, 0.0000000000, -0.0000000000, 0.2865705192, -0.9677392244, 0.3085263371, -0.6360881329, -0.5805959105, -0.0000000000, -0.0000000000, 0.0865235925, 0.0000000000, 0.0000000000, -0.0000000000, -0.6678860784, 0.0000000000, 0.0000000000, 0.0000000000, 0.0000000000, 0.0000000000, -0.0000000000, 0.0000000000, 0.0000000000, -0.3936453462, 0.0000000000, 0.0000000000, 0.4070169926, 0.0000000000, -0.0000000000, 0.0000000000, -0.0000000000, 0.0000000000, 0.0000000000, 0.0000000000, -0.0000000000, -0.0000000000, -0.6421109438, 0.0000000000, 0.0000000000, -0.0000000000, -0.0000000000, -0.6360675097, 0.0000000000, 0.0000000000, 0.5776163340, 0.0000000000, 0.0000000000, -0.0000000000, -0.0000000000, 0.0000000000, -0.0000000000, 0.0000000000, 0.0000000000, 0.0000000000, 0.0000000000, 0.2769508958, -0.0000000000, 0.0000000000, 0.0000000000, 0.0000000000, 0.0000000000, -0.4872254729, -0.3326626420, -0.2974083126, -0.6475885510, 0.0000000000, -0.1580890566, 0.0000000000, 0.0000000000, -0.0000000000, 0.0000000000, 0.0000000000, -0.0000000000, -0.0000000000, 0.3799386024, -0.1680769324, 0.0000000000, -0.6434628963, -1.2205727100, 0.0000000000, 0.0000000000, 0.0000000000, 0.0000000000, 0.4530934989, -0.0000000000, 0.0000000000, -0.2912439704, -1.2519615889, -0.0000000000, 0.0000000000, 0.7827613950, 0.0000000000, -0.0000000000, -0.0000000000, -0.0000000000, 0.2654624581, 0.0000000000, 0.0000000000, -0.0331035666, -0.0000000000, 0.0000000000, -0.1724421084, 0.0000000000, 0.0000000000, -0.2371415198, -0.4703879952, 0.7000176311, 0.0000000000, -0.0000000000, -0.0000000000, -0.0080475975, -0.8826326132, -0.2694474161, 0.0000000000, -0.0000000000, 0.0000000000, -0.0000000000, -0.0000000000, -0.0000000000, -0.0000000000, 0.0000000000, 0.3298652768, 0.0000000000, 0.0000000000, 0.0000000000, 0.0000000000, -0.0000000000, 0.2753597200, 0.4639987648, 0.0000000000, 0.0000000000, 0.0000000000, -0.0000000000, -0.0000000000, 0.0000000000, 0.0000000000, -0.0000000000, 0.6734520793, -0.0000000000, 0.0000000000, -0.0000000000, 0.1999985427, 0.0000000000, 0.5518452525, -0.0000000000, -0.2270066142, -0.0000000000, 0.0000000000, -0.0000000000, 0.0000000000, -0.3090297580, 0.0000000000, 0.0040575205, 0.0000000000, 0.4874624610, -0.5283278823, 0.0000000000, 0.0000000000, -0.0000000000, -0.0000000000, 0.0000000000, 0.0000000000, 0.0000000000, -0.0000000000, 0.0000000000, 0.0000000000, 0.0000000000, 0.0000000000, 0.5095069408, -0.3327224851, -0.0000000000, 0.0000000000, 0.3641752899, 0.0482446328, -0.1544955820, -0.0000000000, -0.0000000000, 0.0000000000, 0.0000000000, 0.0000000000, -0.0000000000, -0.0000000000, -0.0882719532, -0.0000000000, 0.0000000000, -0.0000000000, 0.0000000000, 0.0000000000, -0.0000000000, -0.0395878702, -0.0990980044, -0.0000000000, 0.0000000000, 0.0000000000, -0.2520264685, 0.0000000000, -0.0592191517, 0.0000000000, 0.0000000000, 0.0000000000, 0.0289257914, -0.1724272668, 0.1423909515, 0.0000000000, 0.0000000000, -0.0000000000, 0.0000000000, -0.5363948345, -0.0000000000, 0.0000000000, 0.0000000000, -0.0000000000, -0.0000000000, 0.0000000000, 0.0000000000, -0.2399126142, -0.0922796503, -0.0000000000, 0.0000000000, 0.0000000000, 0.0000000000, -0.0000000000, -0.0000000000, 0.1159455627, 0.0000000000, 0.0000000000, -0.0000000000, -0.0000000000, 0.0000000000, 0.0000000000, -0.1035192013, -0.6689157486, -0.0000000000, 0.0000000000, -0.0000000000, 0.5198233128, -0.0000000000, 0.0000000000, -0.0016497539, 0.0000000000, -0.0000000000, 0.0000000000, -0.0000000000, -0.0000000000, -0.0000000000, 0.0000000000, -0.0000000000, -0.0000000000, 0.0000000000, 0.0000000000, 0.0000000000, -0.0000000000, -0.0000000000, 0.0000000000, 0.2936094701, -0.0000000000, 0.0000000000, -0.0000000000, 0.0000000000, 0.0000000000, -0.0000000000, -0.0000000000, 0.0193222240, 0.0000000000, -0.0123396059, 0.0000000000, -0.0000000000, 0.0000000000, -0.0000000000, 0.0000000000, 0.0000000000, -0.0000000000, -0.0000000000, 0.0000000000, -0.0000000000, -0.0000000000, -0.0000000000, 0.0000000000, -0.1491033435, 0.0000000000, 0.0640828684, -0.0000000000, -0.0000000000, -0.0000000000, 0.0000000000, 0.0000000000, -0.0000000000, -0.0000000000, 0.0000000000, 0.0175059680, 0.0000000000, -0.0000000000, 0.0000000000, -0.0000000000, -0.0000000000, 0.0000000000, 0.0000000000, -0.0000000000, 0.4583764672, 0.0000000000, 0.0000000000, 0.0000000000, -0.0000000000, -0.0000000000, 0.0341003798, 0.0000000000, 0.0000000000, 0.0000000000, -0.0000000000, -0.0000000000, -0.0000000000, -0.0000000000, 0.2832238078, -0.0000000000, 0.0000000000, -0.0000000000, -0.0000000000, -0.0507663265, -0.0000000000, 0.0000000000, -0.1820808053, -0.0000000000, -0.0075526945, -0.0000000000, -0.0000000000, -0.5942171812, -0.0000000000, 0.0000000000, 0.0000000000, 0.0000000000, -0.0000000000, 0.0000000000, 0.0000000000, -0.0000000000, -0.0000000000, 0.0000000000, -0.0000000000, -0.0000000000, 0.0000000000, 0.0000000000, -0.0000000000, 0.2334809750, 0.0000000000, 0.0000000000, -0.0000000000, -0.0000000000, -0.0000000000, -0.0000000000, 0.0000000000, 0.0134519842, -0.0000000000, -0.0000000000, 0.0000000000, 0.0000000000, 0.0000000000, 0.0000000000, 0.0000000000, 0.3385518789, -0.0000000000, 0.0000000000, 0.0000000000, -0.0000000000, -0.0000000000, 0.0284473896, -0.1189988777, 0.0000000000, -0.0000000000, 0.0410792343, -0.1754695177, -0.0000000000, -0.0000000000, 0.0000000000, -0.0000000000, -0.0000000000, -0.0000000000, -0.0000000000, 0.0232644398, 0.0000000000, 0.0000000000, -0.2465464026, -0.0000000000, -0.4633128643, -0.0000000000, -0.0000000000, 0.0000000000, -0.0000000000, 0.0000000000, 0.0000000000, -0.0000000000, -0.0000000000, -0.0000000000, 0.0000000000, -0.0123396059, 0.0000000000, 0.0452795699, 0.0000000000, -0.0000000000, 0.0000000000, 0.0000000000, -0.0000000000, -0.0000000000, 0.0195199735, -0.0000000000, -0.0000000000, -0.0000000000, -0.2404588759, 0.0000000000, 0.0000000000, -0.0000000000, -0.0000000000, -0.0000000000, -0.0000000000, 0.0000000000, 0.0000000000, -0.0000000000, -0.0000000000, 0.0000000000, 0.0175059680, 0.0000000000, -0.0000000000, 0.2452126443, -0.0000000000, -0.0000000000, 0.0000000000, 0.0000000000, -0.0000000000, -0.0000000000, 0.0000000000, 0.0000000000, 0.0000000000, 0.0430687182, -0.1143814400, 0.0000000000, -0.0000000000, 0.0000000000, 0.0000000000, -0.0000000000, -0.0000000000, -0.0000000000, -0.0000000000, -0.1472928375, -0.0000000000, 0.0752317309, -0.0000000000, -0.2925391793, -0.0000000000, 0.0000000000, 0.0000000000, 0.0000000000, 0.3859068155, -0.0094672125, 0.0000000000, -0.0000000000, 0.0000000000, -0.0000000000, 0.0000000000, -0.0000000000, 0.0000000000, -0.0000000000, 0.0000000000, -0.0000000000, -0.0000000000, 0.0341364667, -0.0000000000, -0.0000000000, 0.5651035905, 0.0000000000, -0.0000000000, -0.0000000000, 0.1389428526, -0.0000000000, 0.0000000000, -0.0000000000, -0.0000000000, -0.2361421138, -0.0003883814, -0.9600992203, 0.0000000000, -0.0000000000, -0.0000000000, -0.0000000000, 0.0000000000, -0.0000000000, 0.0000000000, 0.4003214836, -0.0000000000, 0.0000000000, 0.0000000000, 0.0000000000, -0.0000000000, -0.0000000000, 0.0000000000, -0.0275353510, 0.0000000000, -0.0000000000, -0.0000000000, 0.0000000000, -0.0000000000, -0.1300784051, 0.0000000000, -0.0000000000, 0.0000000000, 0.0740466416, -0.0000000000, -0.5646331310, -0.3287540674, 0.4413338900, -0.0000000000, -0.0000000000, -0.0000000000, 0.0000000000, 0.0000000000, 0.0000000000, -0.0000000000, 0.4164789915, -0.2215965241, -0.1126828194, 0.0000000000, -0.0000000000, -0.0000000000, -0.0000000000, 0.0000000000, -0.2289086431, 0.0000000000, -0.0000000000, 0.1558976322, -0.0000000000, -0.2606003582, -0.0000000000, -0.0000000000, 0.0000000000, -0.0000000000, -0.0000000000, 0.0000000000, -0.0000000000, 0.0000000000, -0.0000000000, -0.0000000000, -0.0000000000, -0.0000000000, -0.0000000000, 0.0000000000, 0.0000000000, -0.0000000000, -0.0000000000, 0.1173776537, -0.0000000000, 0.0000000000, -0.0000000000, -0.0000000000, 0.0000000000, 0.0068316744, 0.0000000000, 0.0711037591, -0.0000000000, 0.0000000000, -0.2361092865, 0.0000000000, -0.0000000000, -0.0000000000, 0.0000000000, -0.0000000000, -0.0000000000, 0.0000000000, 0.0000000000, 0.0000000000, -0.0000000000, -0.1355355978, 0.0000000000, -0.0000000000, 0.0000000000, -0.0000000000, -0.0000000000, -0.0000000000, 0.0000000000, 0.0000000000, 0.2800911665, -0.0000000000, 0.0000000000, 0.1036789790, -0.0000000000, 0.0000000000, -0.0000000000, -0.2610875666, -0.0000000000, 0.0000000000, -0.0000000000, -0.2670667470, 0.0000000000, -0.0830651075, -0.0000000000, -0.0000000000, 0.0000000000, -0.0000000000, 0.0000000000, -0.3938786387, -0.0000000000, 0.0000000000, -0.0000000000, -0.0000000000, -0.0000000000, -0.0000000000, -0.0000000000, -0.1713807136, -0.1222028807, -0.7555219531, -0.0000000000, -0.0000000000, -0.0000000000, -0.0000000000, -0.0000000000, 0.0000000000, -0.0000000000, -0.0000000000, 0.0000000000, 0.0000000000, -0.0790183991, -0.0000000000, -0.0000000000, 0.0000000000, 0.0000000000, 0.0000000000, -0.0000000000, 0.0000000000, 0.0000000000, 0.0000000000, -0.0000000000, -0.0000000000, 0.0000000000, 0.0000000000, -0.0000000000, -0.0000000000, -0.1948551685, -0.0866293982, 0.0000000000, -0.0000000000, -0.0000000000, -0.0000000000, -0.0000000000, 0.0000000000, 0.0000000000, -0.0000000000, 0.0000000000, 0.0000000000, -0.0000000000, 0.0000000000, -0.0000000000, 0.0000000000, 0.1599330902, 0.0000000000, -0.0000000000, 0.1989517361, -0.0000000000, 0.1559617221, -0.0589334443, -0.0000000000, -0.0000000000, -0.0000000000, 0.0000000000, -0.1474278122, -0.0000000000, 0.0000000000, -0.0000000000, 0.0000000000, -0.0000000000, -0.0000000000, -0.0000000000, -0.0027324473, 0.0000000000, 0.0000000000, -0.0000000000, -0.0000000000, 0.4801338911, 0.3384531140, 0.0000000000, 0.0000000000, -0.0341781229, -0.0000000000, -0.0000000000, 0.0000000000, 0.0000000000, -0.0000000000, -0.0000000000, 0.0407624915, -0.3205705881, -0.1825437844, -0.0000000000, -0.0000000000, 0.0000000000, -0.0000000000, -0.0000000000, -0.0000000000, -0.0000000000, -0.0000000000, -0.0000000000, -0.0000000000, 0.0000000000, -0.0000000000, 0.0000000000, -0.0000000000, -0.0000000000, -0.0000000000, 0.0000000000, 0.0000000000, 0.0000000000, -0.0000000000, 0.0000000000, 0.0000000000, -0.0000000000, -0.1181754693, -0.1682562679, 0.0050672982, 0.0000000000, 0.0025249447, -0.0000000000, 0.0000000000, 0.0000000000, -0.1680911779, -0.0000000000, -0.0000000000, -0.0000000000, -0.0000000000, 0.0000000000, -0.0000000000, -0.0000000000, 0.0000000000, -0.0000000000, 0.0000000000, -0.0000000000, -0.0000000000, -0.0000000000, -0.0000000000, 0.0000000000, 0.0000000000, -0.0000000000, -0.0000000000, -0.0656455457, -0.0000000000, -0.0000000000, 0.0000000000, -0.2383981645, -0.0000000000, -0.0000000000, -0.4378544688, -0.1816675067, -0.0000000000, -0.0000000000, 0.0000000000, 0.0468088202, 0.0000000000, -0.0000000000, 0.0000000000, 0.0000000000, -0.0000000000, -0.0665511265, -0.0000000000, -0.0000000000, 0.0000000000, -0.0000000000, 0.2000249773, -0.5465787649, 0.0000000000, -0.4297820330, -0.1738612056, 0.0000000000, 0.0000000000, 0.5042703152, -0.6626833081, 0.4663805962, 0.0000000000, -0.9357875586, 0.2956086993, 0.7572507262, 0.3871898353, -0.6854568720, 0.0000000000, -0.8404483795, -0.4441067576, 0.9464244843, 0.2332006693, 0.0000000000, 0.0000000000, 0.0000000000, 0.0813722834, 0.9265930653, 0.0000000000, -0.0000000000, -0.2809824347, 0.3554972410, 0.0000000000, 0.0000000000, 0.0000000000, 2.0960364342, 0.0000000000, 0.0000000000, 0.1804887205, 0.4677638113, 0.0000000000, 0.0000000000, 1.0624740124, 0.0000000000, 0.4802869856, -1.4586467743, -0.0000000000, 0.7303493023, -0.0009017426, 0.0000000000, -0.0000000000, -1.3561780453, 1.5295487642, 0.0000000000, 0.0000000000, -0.2898819745, -0.4706047177, 0.0000000000, -0.0000000000, -0.0000000000, 0.0000000000, 0.0000000000, 0.0000000000, 1.0903764963, 0.8388894796, 1.5047242641, 0.0000000000, 0.1139881387, 0.1237374395, 0.0000000000, 0.2444986999, 0.2882393301, 0.1287058294, -0.1716672778, -0.4469153285, -0.2027967274, 0.0000000000, -0.2301068157, -0.4576940536, -0.0000000000, -0.0000000000, -0.0000000000, 0.3105041385, -0.5273267031, -0.0000000000, 0.0000000000, 0.0325057097, -0.0000000000, 0.0000000000, 0.0000000000, -0.1473091394, 0.0000000000, 0.4101460278, 0.0000000000, 0.0000000000, -0.0000000000, -0.2833295166, 0.4318424761, -0.0000000000, -0.0000000000, 0.4310971498, 0.0000000000, -0.0000000000, 0.0000000000, 0.0000000000, -0.0000000000, 0.0000000000, 0.4590638578, 0.0000000000, 0.0000000000, -0.4408645928, -0.0167410001, 0.0000000000, -0.0000000000, -0.0540923029, 0.0000000000, 0.0000000000, -0.0000000000, 0.0000000000, 0.2819031179, 0.0000000000, 0.0000000000, -0.1941059381, -0.6175668836, -0.0000000000, 0.0000000000, -0.7476934195, -0.0000000000, -0.5195584297, -0.0000000000};
#endif

#endif
