//Numpy array shape [16, 64]
//Min -1.336910724640
//Max 2.226289033890
//Number of zeros 767

#ifndef W2_H_
#define W2_H_

#ifndef __SYNTHESIS__
model_default_t w2[1024];
#else
model_default_t w2[1024] = {-0.0000000000, -0.1301923394, 0.0000000000, 0.0000000000, 0.2723249197, -0.0279526319, -0.0000000000, -0.0000000000, -0.0000000000, 0.0000000000, 0.0351040736, -0.0000000000, -0.0000000000, 0.0000000000, -0.0000000000, 0.0000000000, -0.0000000000, 0.0000000000, 0.0000000000, -0.0000000000, 0.5898614526, -0.2159803957, 0.0000000000, -0.0000000000, -0.0000000000, -0.0000000000, -0.0000000000, -0.0087715713, -0.0162213407, -0.0000000000, 0.0000000000, 0.0000000000, -0.0634476095, -0.1764021814, -0.0000000000, -0.7442448735, -0.0000000000, -0.0000000000, 0.6600968838, -0.0000000000, -0.0299548395, 0.0973055959, 0.5830960870, 0.0000000000, 0.0000000000, -0.2799721062, 0.0000000000, -0.0000000000, -0.0000000000, -0.0000000000, 0.0000000000, -0.3699293435, 0.0000000000, -0.7738549113, 0.0000000000, 0.1525936723, 0.0000000000, 0.0000000000, -0.0000000000, -0.0000000000, 0.0000000000, -0.2047247291, 0.0000000000, 0.0000000000, 0.0000000000, 0.0000000000, -0.0000000000, -0.0000000000, 0.0000000000, 0.0000000000, -0.0000000000, 0.0000000000, 0.0000000000, -0.0000000000, 0.0000000000, -0.0000000000, 0.0000000000, 0.1050641164, 0.0000000000, -0.0000000000, 0.0000000000, -0.0000000000, -0.0000000000, 0.0000000000, 0.9636401534, 0.0000000000, -0.0000000000, 0.0000000000, 0.5074649453, -0.1661991477, 0.2699463964, 0.0000000000, -0.0000000000, 0.0000000000, -0.0509515032, -0.0000000000, 0.0000000000, 0.3705467880, 0.0000000000, -0.3764457107, 0.8861100078, 0.0000000000, 0.4888094664, -0.0000000000, -0.0000000000, 0.0000000000, -0.3088856339, 0.0000000000, 0.1176031902, 0.0000000000, 0.0000000000, 0.0000000000, 0.1035271063, 0.0000000000, 0.0000000000, -0.0824102908, 0.7989702225, -0.4527421296, -0.0567699447, 0.0000000000, -0.0000000000, -0.0000000000, 0.0000000000, 0.0000000000, 0.0000000000, 0.0000000000, -0.0000000000, 0.0000000000, -0.0000000000, 0.0000000000, -0.0000000000, 0.0000000000, -0.0000000000, 0.0000000000, -0.8121624589, -0.5597769618, -0.3122734129, -0.1287174523, -0.2189680934, -0.0000000000, 0.0000000000, -0.0000000000, 0.0000000000, -0.0000000000, -0.0000000000, -0.0000000000, 0.0000000000, 0.6191720366, -0.0864960104, -0.3556463420, -0.0000000000, -0.2136693746, 0.0000000000, -0.0000000000, -0.8595197201, 0.0000000000, -0.0000000000, -0.0000000000, 0.1652240753, -0.5471567512, 0.0000000000, -0.0000000000, -0.0000000000, -0.4110965729, 0.0000000000, 0.0000000000, -0.0000000000, 0.0000000000, 0.0000000000, -0.4703850746, 0.2823049724, 0.6235359907, 0.0052741729, -0.0000000000, -0.5520349741, 0.0000000000, -0.0000000000, 0.0000000000, 0.3905947208, 0.2548273206, -0.0000000000, -0.0000000000, -0.0000000000, 0.0000000000, 0.0059016310, 0.2523166239, 0.1091809124, -0.0000000000, 0.0000000000, 0.0000000000, 0.3380639553, 0.1883635670, 0.0000000000, -0.3951506615, -0.4635296166, 0.0000000000, -0.0000000000, 0.0000000000, -1.3369107246, -0.1966436654, 0.0000000000, -0.0000000000, -0.6118936539, -0.5684540272, 0.0000000000, 0.3330883384, -0.3444807529, -0.1467561871, 0.1693690717, 0.0000000000, 0.0000000000, 0.0000000000, 0.0000000000, 0.2781382799, -0.0000000000, 0.0000000000, 0.2082760483, -0.0000000000, 0.0000000000, 0.0000000000, 0.3242689967, -0.7985152006, 1.6256322861, -0.8441682458, 0.0000000000, -0.0000000000, -0.6400759816, 0.0000000000, 0.0000000000, 0.0000000000, -0.0000000000, 0.0000000000, 0.0000000000, 0.0000000000, -0.0000000000, -0.0000000000, 0.4562065303, -0.0000000000, -0.7141650319, 0.0000000000, -1.1135511398, 0.2486970723, -0.0000000000, -0.0000000000, -0.0000000000, 0.0000000000, -0.0000000000, -0.4166035354, -0.0000000000, 0.0000000000, -0.0000000000, -0.0000000000, 0.0000000000, 0.0000000000, -0.7693127990, 0.0000000000, -0.0000000000, -0.0000000000, 0.0000000000, 0.0000000000, -0.0000000000, -0.0000000000, -0.0400822759, 0.0000000000, 0.0000000000, -0.0000000000, 0.0000000000, -0.0000000000, 0.0000000000, 0.2604516745, 0.0000000000, 0.4910494983, -0.0000000000, 0.0000000000, -0.0000000000, 0.0314877816, 0.0000000000, 0.0000000000, -0.0000000000, 0.0000000000, 0.0000000000, -0.0000000000, -0.2802178860, 0.0000000000, -0.2981098890, 0.0000000000, 0.5806996822, -0.4584251344, 0.0000000000, -0.0000000000, 0.1909216344, 0.0000000000, -0.0000000000, 0.0000000000, -0.0015264179, 0.0000000000, -0.0000000000, -0.4760109484, -0.0000000000, 0.2158282846, 0.2487491965, -0.0000000000, -0.2533077002, -0.0000000000, 0.0000000000, 0.0000000000, -0.0000000000, 0.1897983104, 0.1875695288, -0.1475334018, -0.0000000000, -0.5096104145, -0.0000000000, -0.0000000000, 0.3806267381, 0.0000000000, 0.0000000000, 0.0000000000, -0.0000000000, 0.0000000000, -0.0000000000, -0.0000000000, 0.0000000000, 0.0000000000, -0.0000000000, -0.0000000000, -0.0000000000, 0.0465508960, 0.0000000000, -0.0000000000, 0.0000000000, -0.0000000000, 0.3231525123, -0.0000000000, 0.0000000000, -0.0000000000, -0.0000000000, 0.0000000000, 0.2055439800, 0.2925260961, 0.0000000000, 0.0000000000, -0.0000000000, 0.0000000000, 0.0000000000, -0.0940147042, 0.0000000000, 0.0000000000, -0.0000000000, 0.0000000000, -0.0000000000, 0.0000000000, 0.0132968547, -0.0000000000, -0.0000000000, 0.0000000000, 0.0000000000, 0.0000000000, -0.0000000000, 0.0000000000, -0.0000000000, 0.0000000000, -0.0000000000, -0.0000000000, 0.0000000000, 0.0000000000, -0.0000000000, -0.2165923417, 0.0000000000, 0.0000000000, -0.0000000000, -0.0000000000, -0.0000000000, 0.0000000000, -0.0000000000, -0.2055094540, -0.0000000000, -0.1510787606, -0.0000000000, -0.0000000000, 0.0000000000, 0.0000000000, 0.0000000000, 0.1785702258, 0.0000000000, 0.3017818034, 0.0000000000, -0.0000000000, 0.0000000000, -0.2737452090, -0.0027251858, -0.0000000000, -0.0000000000, 0.2440615445, 0.0000000000, -0.0120462375, -0.0000000000, 0.0000000000, 0.0000000000, -0.0085700816, -0.0000000000, 0.0000000000, -0.0000000000, -0.0000000000, 0.0000000000, -0.0000000000, -0.0000000000, 0.0000000000, 0.0190464351, 0.0000000000, -0.0000000000, 0.0000000000, -0.0000000000, 0.0000000000, -0.1826025099, -0.2072530389, 0.0000000000, 0.1720608771, 0.0000000000, -0.0098623587, -0.0000000000, 0.0000000000, 0.0000000000, -0.0000000000, -0.2953439057, 0.0000000000, -0.0000000000, 0.0000000000, 0.0000000000, 0.0000000000, 0.3692716956, -0.0000000000, 0.0000000000, 0.0000000000, 0.0000000000, 0.0000000000, 0.0000000000, 0.0000000000, -0.0000000000, 0.0000000000, 0.0000000000, -0.2089522779, 0.0000000000, 0.0000000000, 0.0000000000, -0.0000000000, -0.0000000000, 0.0000000000, 0.0000000000, -0.0000000000, -0.2830663323, -0.0000000000, -0.0000000000, -0.0000000000, -0.0000000000, -0.0000000000, 0.0000000000, -0.0000000000, -0.3411191106, 0.0000000000, -0.0000000000, -0.0000000000, 0.0000000000, -0.0000000000, -0.5603201389, 0.0000000000, -0.1877684146, -0.0000000000, 0.0000000000, -0.0000000000, -0.0000000000, 0.0000000000, 0.0403470211, 0.0000000000, -0.0000000000, 0.0000000000, 0.2017474473, 0.0000000000, -0.0000000000, -0.0000000000, 0.0000000000, 0.0000000000, 0.0000000000, -0.1216952801, 0.0000000000, 0.0000000000, -0.0742358491, -0.0000000000, -0.0000000000, 0.0000000000, -0.0300737061, -0.4632347226, 0.0211700387, 0.0000000000, -0.0000000000, -0.0000000000, 0.0000000000, 0.0000000000, 0.0000000000, -0.0000000000, -0.0873360783, 0.0000000000, 0.0000000000, -0.0000000000, -0.3764156997, -0.0000000000, 0.0000000000, 0.0000000000, -0.0000000000, -0.0000000000, -0.0000000000, 0.0000000000, 0.0000000000, -0.0000000000, 0.0000000000, -0.0000000000, 0.0000000000, 0.2609611452, -0.0027251858, -0.0000000000, -0.0000000000, -0.0000000000, 0.0000000000, 0.0000000000, -0.0000000000, 0.0000000000, 0.0000000000, -0.0085700816, -0.0000000000, 0.0000000000, -0.0000000000, -0.0000000000, 0.0000000000, -0.0000000000, -0.0000000000, 0.0000000000, -0.0000000000, 0.0000000000, -0.0000000000, 0.0000000000, -0.0000000000, 0.0000000000, -0.0000000000, -0.2322191000, 0.1186233833, 0.0000000000, 0.0036125816, 0.2885166109, -0.0000000000, 0.0000000000, 0.0000000000, -0.0000000000, -0.2422824055, 0.0000000000, 0.2001825720, 0.2006327361, 0.0000000000, 0.0000000000, -0.2420291305, -0.0000000000, -0.1748035103, 0.0000000000, 0.0000000000, 0.0000000000, 0.0000000000, 0.0000000000, -0.0000000000, 0.0000000000, 0.0000000000, 0.0816845670, 0.0000000000, 0.0000000000, 0.0000000000, -0.0000000000, -0.0000000000, 0.0000000000, 0.0000000000, -0.2064327002, -0.0000000000, -0.0000000000, 0.0000000000, -0.0000000000, -0.0000000000, -0.0000000000, 0.0000000000, -0.0000000000, 0.0000000000, 0.0000000000, 0.0000000000, -0.0000000000, 0.0000000000, -0.0000000000, 0.0000000000, -0.0000000000, -0.2253252566, -0.0000000000, 0.0000000000, -0.0000000000, -0.0715122521, 0.0000000000, 0.0000000000, -0.3551145494, -0.0000000000, -0.0000000000, 0.0000000000, 0.0000000000, -0.0000000000, -0.0000000000, -0.0000000000, -0.2238378227, 0.0000000000, 0.0000000000, 0.0000000000, 0.3958935440, -0.0000000000, -0.0000000000, -0.0000000000, 0.4161677659, -0.0000000000, -0.4965369999, -0.0000000000, 0.0000000000, -0.0000000000, 0.0000000000, 0.0000000000, 0.0000000000, 0.0000000000, -0.0470170043, 0.0000000000, 0.0000000000, 0.0000000000, -0.0000000000, 0.0000000000, -0.0000000000, 0.0000000000, 0.0000000000, -0.0000000000, 0.0949425325, 0.0000000000, 0.0000000000, -0.0000000000, -0.0295320414, -0.0000000000, -0.0000000000, 0.0000000000, -0.0000000000, -0.0000000000, -0.0000000000, 0.0000000000, -0.2385295033, 0.0000000000, 0.0000000000, 0.0000000000, 0.0651565939, 0.0000000000, -0.0000000000, -0.3182074130, -0.0000000000, -0.0000000000, -0.0000000000, 0.2692477405, -0.0004660725, -0.0000000000, 0.0000000000, 0.0000000000, 0.0000000000, -0.0000000000, -0.4118814468, -0.1081904098, 0.0000000000, -0.0000000000, -0.0000000000, -0.0000000000, 0.0000000000, 0.0000000000, 0.0000000000, 0.0000000000, 0.0000000000, -0.0000000000, -0.0000000000, -0.0000000000, -0.0000000000, -0.0000000000, -0.0000000000, -0.6961399913, -0.2949163020, -0.0000000000, 0.0000000000, 0.0000000000, 0.0000000000, 0.0000000000, 0.0000000000, 0.0158982966, 0.0000000000, 0.0000000000, -0.0000000000, 0.0000000000, -0.1836836487, 0.0000000000, 0.0000000000, -0.0000000000, -0.0521979369, 0.0000000000, -0.0000000000, 0.0000000000, -0.0000000000, 0.0000000000, -0.0000000000, 0.0000000000, -0.0000000000, -0.0000000000, -0.0000000000, 0.0375693366, -0.0000000000, 0.1705958694, 0.0000000000, 0.0000000000, -0.0925099924, -0.0000000000, 0.3411682248, 0.0000000000, 0.0000000000, -0.0000000000, -0.0000000000, -0.3393185735, -0.0000000000, -0.0000000000, -0.4774924517, -0.0000000000, 0.0000000000, 0.0777889043, -0.0000000000, -0.0000000000, 0.0000000000, -0.1069249734, -0.0000000000, 0.0843089670, 0.0000000000, 0.0000000000, -0.0000000000, 0.0000000000, -0.0000000000, -0.0000000000, -0.0000000000, -0.0000000000, -0.2532697320, -0.0000000000, 0.0000000000, -0.0000000000, -0.2966447175, -0.0000000000, 0.0000000000, -0.0897589996, 0.0000000000, 0.0000000000, -0.0376592912, 0.0000000000, 0.0000000000, 0.0000000000, -0.0000000000, 0.0000000000, -0.0000000000, 0.0000000000, -0.0000000000, -0.0000000000, -0.0000000000, 0.0000000000, 0.2747708857, 0.0000000000, 0.6423698664, 0.0000000000, -0.0000000000, 0.0000000000, -0.0000000000, -0.0000000000, -0.2851690650, 0.0000000000, -0.0000000000, -0.0136910519, 0.0000000000, -0.0000000000, 0.1887988448, 0.0000000000, -0.5146697164, 0.0000000000, 0.0000000000, -0.0000000000, -0.0000000000, 0.0000000000, -0.0000000000, -0.0000000000, 0.0000000000, 0.0000000000, -0.0120973410, -0.0000000000, 0.0000000000, 0.0000000000, 0.0000000000, -0.0000000000, -0.0000000000, -0.0000000000, 0.0000000000, 0.0000000000, 0.0000000000, 0.0000000000, 0.0000000000, 0.0000000000, -0.0000000000, -0.2871549129, -0.0000000000, -0.0000000000, 0.0766050890, -0.0000000000, 0.0000000000, -0.0000000000, 0.0000000000, 0.0000000000, 0.0000000000, 0.0000000000, 0.0000000000, 0.0000000000, 0.0000000000, 0.0000000000, -0.0000000000, 0.0000000000, -0.0000000000, 0.0000000000, 0.0000000000, -0.0000000000, -0.0000000000, -0.0000000000, 0.0000000000, 0.0000000000, -0.3723330200, -0.0000000000, -0.0000000000, 0.0000000000, -0.0000000000, -0.0000000000, -0.0000000000, 0.0226074550, -0.0000000000, 0.0000000000, 0.0000000000, -0.0000000000, -0.0000000000, -0.2472363263, -0.0000000000, 0.0000000000, 0.0000000000, -0.0000000000, -0.0000000000, 0.0000000000, -0.0000000000, -0.0000000000, -0.0000000000, 0.0000000000, 0.0000000000, -0.0000000000, -0.2316927910, -0.0000000000, 0.0000000000, -0.0000000000, -0.0000000000, -0.0000000000, 0.0640326142, 0.0000000000, -0.0000000000, 0.0000000000, -0.0000000000, -0.0000000000, -0.0000000000, -0.0000000000, -0.0000000000, -0.0000000000, 0.0000000000, -0.0000000000, 0.0000000000, -0.0000000000, -0.0000000000, 0.0000000000, 0.0000000000, 0.0000000000, 0.0000000000, 0.0000000000, -0.1116048917, 0.0000000000, -0.0000000000, -0.0316323489, -0.0000000000, 0.0000000000, 0.0000000000, -0.0000000000, -0.0000000000, 0.0000000000, -0.1555402875, 0.0000000000, 0.3258115351, -0.0000000000, 0.0000000000, -0.0000000000, 1.8460985422, 0.0000000000, 0.0000000000, 0.0000000000, 0.3248243630, -0.8964481950, -0.0000000000, 0.0000000000, -0.2001993060, -0.8549790978, -0.0000000000, 0.3579422235, -0.0000000000, 1.0222992897, 0.8705141544, 0.0000000000, 0.0000000000, -0.0000000000, 0.3083839715, 0.0000000000, -0.3765336871, 0.7217468023, -0.7114371657, 0.5965065956, -0.9022716880, -0.0166485440, 0.0000000000, 0.0000000000, -1.2242488861, -0.3622119427, 0.0000000000, 0.0000000000, 0.0000000000, -0.0325984582, 0.0000000000, 0.0000000000, 0.0000000000, -0.0000000000, -0.0000000000, 0.0000000000, -0.9030874968, 1.4576280117, 0.8745076060, -0.2849347889, -0.0000000000, -0.0000000000, -0.0000000000, -0.0000000000, -0.2423177958, -0.0000000000, 0.0000000000, -0.0000000000, 0.3919416368, -1.1413657665, -0.0000000000, 0.0000000000, 0.0000000000, 2.2262890339, 0.6125103235, -0.0000000000, -0.0000000000, -0.0000000000, 0.0000000000, -0.0000000000, -0.0000000000, 0.0000000000, 0.6943641305, 0.5974755883, -0.0000000000, 0.0000000000, -0.2961379588, 0.0000000000, -0.0000000000, 0.0000000000, -0.0000000000, -0.3637460768, -0.0000000000, 0.0000000000, 0.0000000000, 0.3610359728, 0.0000000000, -0.0000000000, 0.0000000000, 0.0000000000, 0.0000000000, -0.1314677149, 0.0000000000, 0.0384488478, -0.1004498973, -0.0000000000, -0.0000000000, -0.7853964567, -0.0008000369, -0.4515732229, 0.0000000000, 0.0000000000, 0.4051322043, 0.1028060541, 0.0000000000, -0.0000000000, 0.1917316020, -0.0000000000, -0.0000000000, 0.0000000000, 0.0000000000, -0.0000000000, 0.0000000000, -0.1654341519, 0.0000000000, -0.1908959150, -0.0000000000, -0.5370565057, -0.5206606388, -0.0000000000, 0.3621615767, -0.1488765180, -0.0000000000, 0.0000000000, 0.0000000000, -0.0000000000, 0.0000000000, -0.3016324937, -0.7055107951};
#endif

#endif
