//Numpy array shape [64, 32]
//Min -1.603356003761
//Max 0.964492619038
//Number of zeros 1536

#ifndef W5_H_
#define W5_H_

#ifndef __SYNTHESIS__
model_default_t w5[2048];
#else
model_default_t w5[2048] = {0.0000000000, -0.0000000000, 0.0000000000, 0.0000000000, 0.0000000000, 0.0000000000, 0.0000000000, -0.0000000000, -0.0000000000, 0.0000000000, -0.0000000000, 0.0000000000, -0.0000000000, -0.0000000000, -0.0000000000, -0.0000000000, 0.0000000000, -0.0000000000, 0.0000000000, -0.0000000000, 0.0000000000, 0.0000000000, 0.0000000000, 0.0000000000, -0.0000000000, -0.0000000000, -0.0000000000, -0.0000000000, 0.0000000000, -0.0000000000, 0.0000000000, 0.0000000000, 0.6560435891, -0.0000000000, 0.0000000000, 0.0000000000, -0.0000000000, 0.0000000000, 0.0000000000, -0.0000000000, -0.0000000000, 0.0073375143, 0.0000000000, 0.0875384659, 0.0000000000, 0.0000000000, 0.2377544343, -0.0000000000, -0.0000000000, 0.0000000000, 0.0685919002, 0.0000000000, 0.0520293042, 0.2597295046, 0.0000000000, 0.0000000000, 0.4378838837, 0.0000000000, 0.0000000000, 0.2640716136, 0.0549396202, 0.0153358644, 0.0000000000, 0.0379854180, 0.0000000000, 0.0000000000, 0.0000000000, -0.2369729877, -0.0000000000, 0.0208079014, -0.0000000000, -0.0000000000, -0.0000000000, 0.1772797108, 0.0000000000, 0.0236580018, -0.0000000000, 0.0000000000, 0.1036820263, -0.0000000000, 0.0000000000, -0.0433681384, 0.0076762494, 0.0000000000, -0.0000000000, 0.0000000000, -0.0000000000, -0.0000000000, 0.0000000000, 0.0000000000, -0.0000000000, 0.0000000000, -0.0000000000, -0.0000000000, 0.0000000000, 0.0000000000, -0.0000000000, -0.0000000000, 0.0000000000, 0.0000000000, -0.0000000000, -0.0000000000, 0.0000000000, -0.0000000000, -0.0000000000, -0.0000000000, 0.0000000000, -0.0000000000, 0.0000000000, 0.0000000000, -0.0000000000, -0.0000000000, 0.0000000000, 0.0000000000, -0.0000000000, 0.0000000000, -0.0000000000, -0.0000000000, 0.0000000000, 0.0000000000, -0.0000000000, 0.0000000000, 0.0000000000, -0.0000000000, 0.0000000000, 0.0000000000, 0.0000000000, 0.0000000000, -0.0000000000, 0.0000000000, 0.0000000000, 0.0000000000, -0.0000000000, -0.0000000000, -0.2390949130, -0.0000000000, -0.0000000000, -0.0000000000, 0.0000000000, -0.0000000000, -0.0000000000, 0.0000000000, 0.1813715100, -0.0000000000, 0.0000000000, 0.0000000000, -0.0000000000, 0.0000000000, -0.0000000000, -0.0000000000, 0.0000000000, 0.0000000000, -0.0000000000, 0.0000000000, 0.0000000000, 0.0000000000, 0.0000000000, 0.0000000000, -0.0000000000, 0.0000000000, 0.0000000000, -0.0000000000, 0.4625008702, -0.0000000000, 0.0000000000, -0.3311946988, 0.0000000000, -0.0000000000, -0.0000000000, -1.5069742203, 0.0055281557, 0.0000000000, 0.0000000000, 0.0000000000, -0.7658206820, -0.0000000000, -0.1279175580, 0.0000000000, 0.0000000000, -0.3356530070, -0.0000000000, 0.2209473848, 0.0000000000, -0.1889159232, -0.0000000000, -0.0000000000, 0.0000000000, -0.0000000000, 0.3425925076, -0.0590337850, 0.0000000000, 0.0000000000, -0.0000000000, 0.0000000000, 0.0000000000, -0.5444712043, 0.2390897125, -0.0000000000, 0.0000000000, -0.0000000000, -0.0000000000, -0.0000000000, 0.1362109929, -0.0000000000, -0.0000000000, -0.2258295417, -0.3937553167, -0.0000000000, -0.6694481373, 0.0000000000, -0.0000000000, 0.0000000000, -0.5146154761, -0.1663769484, 0.0778426379, -0.0000000000, -0.0017568232, 0.0000000000, -0.1754519492, 0.0000000000, 0.1352802664, -0.3622859716, 0.0000000000, 0.0000000000, -0.0529967137, -0.1192857847, 0.0000000000, -0.1101294830, -0.0000000000, -0.0000000000, -0.0000000000, -0.2350619435, 0.0000000000, -0.0000000000, 0.4275670350, 0.0889175013, 0.0000000000, -0.0034351929, -0.0641341656, -0.0000000000, -0.0000000000, 0.0000000000, -0.0000000000, 0.0000000000, -0.5936552286, -0.0000000000, 0.1531877816, 0.0000000000, -0.0000000000, -0.0553901047, -0.0000162836, -0.0707540587, 0.5361157060, -0.1294900328, 0.0000000000, -0.0040433896, 0.0000000000, -0.4486166239, 0.0000000000, 0.0633193031, 0.0000000000, -0.0398308598, 0.0000000000, -0.2768847048, 0.0000000000, -0.0049170214, 0.0000000000, -0.0000000000, 0.0000000000, -0.0012466324, -0.0000000000, -0.0000000000, -0.0000000000, 0.0000000000, -0.0000000000, 0.0630730167, -0.0000000000, 0.0000000000, 0.0000000000, 0.0306767710, -0.0168216359, 0.0000000000, -0.1987046450, -0.0000000000, -0.0013882490, 0.0000000000, 0.0000000000, 0.0000000000, -0.0000000000, -0.0000000000, 0.0000000000, 0.0000000000, 0.0000000000, -0.0844273493, -0.0148039507, -0.0000000000, -0.0000000000, 0.0770240203, 0.1255099475, 0.0000000000, 0.0000000000, 0.0000000000, -0.4006158412, -0.0000000000, 0.0000000000, 0.0000000000, -0.0000000000, 0.0000000000, 0.0465128571, -0.0000000000, 0.0000000000, 0.0000000000, 0.0193442740, 0.0000000000, 0.0000000000, -0.0000000000, 0.0000000000, 0.0000000000, 0.0000000000, 0.0031040704, -0.0000000000, 0.0000000000, -0.3660858572, -0.0000000000, -0.0000000000, 0.2203741819, -0.2465167195, -0.0000000000, -0.0000000000, -0.0000000000, 0.0000000000, -0.0000000000, -0.0000000000, 0.0000000000, 0.4169925153, -0.0000000000, -0.4260244668, 0.0000000000, -0.0000000000, 0.0000000000, -0.2645854354, -0.0000000000, -0.0000000000, -0.0000000000, -0.0000000000, 0.1560449749, 0.0000000000, 0.0000000000, 0.0000000000, -0.0000000000, 0.0000000000, 0.0000000000, 0.0000000000, 0.1168684736, 0.0000000000, 0.0000000000, -0.0000000000, -0.0000000000, 0.0000000000, 0.1476533562, -0.0000000000, -0.0000000000, -0.2380490899, 0.0094508482, -0.0000000000, 0.0000000000, 0.2776444554, -0.0000000000, -0.0297821648, 0.0000000000, -0.0000000000, 0.0000000000, -0.1606432796, -0.0000000000, -0.0000000000, -0.0000000000, 0.0071139117, 0.0000000000, -0.0177476946, 0.0000000000, -0.1474797279, 0.0000000000, 0.0000000000, 0.0000000000, 0.0000000000, -0.0000000000, 0.0000000000, -0.2380622923, 0.0000000000, -0.0003265555, 0.0000000000, -0.0000000000, 0.0000000000, -0.0000000000, 0.0000000000, 0.0000000000, 0.0000000000, 0.0000000000, -0.0000000000, -0.0000000000, 0.0034666634, 0.0000000000, 0.0000000000, 0.0000000000, -0.0000000000, 0.0000000000, 0.0000000000, -0.0000000000, -0.0000000000, -0.0000000000, -0.0000000000, -0.0000000000, -0.0000000000, 0.0004577301, 0.0000000000, -0.0000000000, -0.0000000000, -0.0000000000, 0.0000000000, 0.0000000000, 0.1485871077, 0.0000000000, 0.0000000000, -0.0000000000, 0.0000000000, -0.0000000000, 0.0000000000, 0.0000000000, 0.0000000000, 0.0000000000, -0.0000000000, -0.0000000000, -0.0000000000, 0.0000000000, -0.0000000000, 0.0000000000, 0.0903624892, 0.0000000000, 0.0000000000, 0.0000000000, -0.0000000000, 0.0000000000, 0.0000000000, 0.1755725294, -0.3660862446, 0.0000000000, 0.0000000000, 0.0000000000, -0.0000000000, 0.0000000000, 0.0000000000, 0.0881638601, -0.0000000000, -0.0000000000, -0.0022894985, 0.1527557671, -0.0000000000, 0.3091473877, 0.0000000000, -0.0000000000, -0.0000000000, 0.0000000000, 0.0000000000, -0.0000000000, -0.2501275241, 0.1525414139, -0.0000000000, 0.4818692803, -0.1300879270, -0.0000000000, 0.0000000000, 0.1236434206, -0.0000000000, 0.0000000000, -0.0183326825, 0.0000000000, -0.0000000000, 0.1801717877, 0.0000000000, 0.0000000000, -0.0637969300, 0.2668600678, 0.0000000000, 0.0015546160, -0.3162563741, -0.0997759923, 0.0088771135, -0.0000000000, -0.0000000000, -0.0000000000, 0.0000000000, 0.0000000000, 0.0000000000, 0.0000000000, -0.0000000000, -0.0000000000, 0.4752670228, 0.0000000000, -0.0000000000, 0.0000000000, -0.0000000000, -0.0000000000, 0.0000000000, -0.0462372862, -0.0000000000, -0.0000000000, 0.1748197079, -0.0000000000, 0.2547517419, 0.0000000000, 0.0000000000, 0.0000000000, 0.1562129855, 0.1390678883, 0.0000000000, 0.0622032210, 0.0419746190, -0.0000000000, -0.0000000000, -0.0000000000, -0.0000000000, -0.0890754014, -0.0000000000, 0.0000000000, 0.0000000000, 0.0000000000, 0.0859275013, -0.0000000000, 0.0163281653, -0.0000000000, -0.0000000000, -0.0000000000, 0.4058403373, 0.4855158329, 0.0000000000, 0.0000000000, 0.0000000000, -0.0000000000, 0.0000000000, -0.0000000000, -0.0000000000, 0.0000000000, 0.0000000000, -0.0067307027, -0.0000000000, -0.0000000000, 0.0000000000, 0.0000000000, -0.0000000000, -0.0000000000, 0.0000000000, -0.0000000000, -0.0000000000, -0.0000000000, 0.0000000000, -0.0000000000, 0.0000000000, 0.0000000000, -0.0000000000, -0.0000000000, 0.0000000000, 0.0000000000, -0.0000000000, 0.0000000000, -0.0000000000, -0.0000000000, 0.0000000000, 0.0000000000, -0.0000000000, 0.0000000000, 0.0000000000, -0.0000000000, 0.0000000000, 0.0000000000, 0.0000000000, 0.0000000000, 0.0000000000, -0.0000000000, 0.0000000000, -0.0000000000, 0.0000000000, -0.0000000000, 0.0000000000, -0.0000000000, -0.0000000000, -0.3516920805, 0.0126488823, 0.0000000000, 0.0000000000, 0.0000000000, -0.5363587141, -0.0000000000, -0.0032022193, 0.0000000000, -0.4349691570, 0.0000000000, -0.0000000000, 0.0000000000, 0.0000000000, 0.0000000000, -0.0000000000, -0.0000000000, -0.0108239297, -0.0000000000, -0.0000000000, 0.1243700311, 0.0000000000, 0.0000000000, 0.0000000000, -0.0000000000, 0.0000000000, -0.0000000000, 0.0000000000, -0.0000000000, 0.3216006756, -0.0000000000, -0.0000000000, -0.0000000000, -0.0000000000, 0.2040965408, 0.0000000000, 0.1922540069, -0.2380749434, -0.0000000000, 0.0035631193, 0.2665753067, -0.0000000000, 0.0000000000, 0.1004413813, 0.0000000000, 0.0000000000, 0.0000000000, -0.0000000000, -0.0000000000, 0.0197868403, -0.1851186305, 0.2227868140, 0.0014336859, 0.0000000000, 0.0000000000, 0.3348844647, -0.1077511311, 0.0000000000, 0.1175355911, 0.0000000000, -0.0000000000, 0.0000000000, -0.0799131766, 0.0000000000, -0.1444529295, 0.0000000000, -0.0128838997, 0.0000000000, 0.0000000000, -0.0000000000, -0.0000000000, 0.0000000000, -0.0031486084, -0.0000000000, 0.0000000000, -0.0000000000, 0.0000000000, 0.5380457640, 0.4148596823, -0.0000000000, -0.2538567781, 0.0000000000, -0.0000000000, -0.0000000000, 0.0000000000, 0.0000000000, 0.8008348346, 0.0000000000, -0.0050155842, 0.0000000000, -0.0000000000, 0.0000000000, -0.0000000000, 0.0000000000, -0.0000000000, -0.0000000000, -0.0000000000, -0.0000000000, 0.2108766586, 0.0000000000, 0.0000000000, 0.0000000000, -0.0000000000, 0.0044554756, 0.0000000000, 0.0017257606, 0.0000000000, -0.0000000000, 0.0025010332, 0.0000000000, 0.0012805682, 0.0000000000, 0.0000000000, -0.0000000000, -0.0000000000, -0.0000000000, 0.0000000000, 0.0000000000, 0.0000000000, -0.0000000000, -0.0000000000, 0.0000000000, 0.0000000000, -0.0000000000, -0.0000000000, 0.0000000000, -0.0000000000, -0.0000000000, -0.0000000000, 0.0000000000, 0.0000000000, 0.0000000000, 0.0000000000, -0.0000000000, -0.0000000000, 0.2129775435, 0.0000000000, -0.0000000000, 0.0000000000, -0.0000000000, -0.0000000000, 0.0000000000, 0.0000000000, -0.0000000000, 0.0000000000, 0.0050993506, 0.0698784515, 0.0000000000, 0.0000000000, 0.0000000000, 0.0000000000, 0.1076194569, -0.0660837963, 0.0000000000, 0.0000000000, 0.0000000000, -0.0000000000, -0.0000000000, -0.0072649778, 0.0000000000, -0.0000000000, 0.0650029406, 0.2695286572, 0.0000000000, 0.0257329848, -0.0000000000, -0.0000000000, -0.0942047909, 0.0000000000, -0.0000000000, 0.0000000000, -0.0000000000, 0.2910259962, 0.0000000000, 0.3774492741, -0.0000000000, -0.0000000000, 0.0000000000, -0.0955312178, -0.0000000000, 0.2869935334, 0.0000000000, 0.0026170809, 0.0000000000, -0.2677617371, 0.0000000000, -0.0000000000, 0.0000000000, 0.0000000000, 0.0000000000, -0.0000000000, -0.0000000000, -0.0000000000, -0.0000000000, 0.0000000000, 0.0000000000, 0.0000000000, -0.0000000000, -0.0000000000, 0.0056415014, 0.0000000000, -0.0000000000, 0.0000000000, -0.0000000000, 0.0000000000, 0.0000000000, 0.0172533765, -0.0000000000, -0.2874690890, 0.0000000000, -0.0000000000, -0.0000000000, 0.0000000000, 0.0000000000, 0.1765564978, 0.0000000000, 0.0000000000, 0.0000000000, -0.0000000000, 0.1133980155, -0.0000000000, -0.0363666676, -0.0000000000, -0.0000000000, -0.0000000000, 0.0000000000, -0.0000000000, -0.0000000000, -0.0000000000, 0.2347478867, -0.0000000000, 0.0000000000, 0.0000000000, -0.0747160316, 0.0000000000, -0.1960006803, -0.0000000000, 0.0000000000, -0.0473523960, 0.0000000000, 0.0000000000, -0.0000000000, 0.0000000000, -0.0000000000, 0.2293583155, -0.0000000000, -0.0245390777, 0.0000000000, 0.0000000000, 0.0000000000, -0.3161229789, -0.0000000000, 0.0000000000, -0.0000000000, -0.0000000000, 0.0000000000, -0.0000000000, 0.0000000000, 0.8437625170, -0.0000000000, 0.0000000000, -0.0000000000, -0.0000000000, 0.0000000000, -0.3143172860, -0.0000000000, 0.0000000000, -0.0000000000, -0.0000000000, -0.0000000000, -0.0000000000, 0.0000000000, -0.1138396859, 0.0000000000, -0.0229949895, 0.0000000000, 0.0000000000, -0.0000000000, 0.0000000000, -0.4032400846, 0.0107473573, 0.0000000000, -0.0150102461, -0.0000000000, -0.0000000000, -0.0000000000, -0.0000000000, -0.0000000000, 0.0827548653, 0.0000000000, 0.0000000000, -0.0000000000, 0.0477110445, -0.0000000000, -0.0000000000, 0.0000000000, 0.1438206434, -0.0135071566, 0.0000000000, -0.0000000000, -0.4544442594, 0.0000000000, 0.0000000000, 0.0000000000, -0.0000000000, 0.0316580944, 0.1212814152, -0.0000000000, 0.1953477263, 0.0000000000, 0.0069531091, -0.0000000000, -0.0000000000, 0.0000000000, -0.3667586744, 0.0066090408, 0.0000000000, 0.0000000000, -0.0000000000, -0.0000000000, 0.0000000000, -0.0000000000, 0.0000000000, 0.0000000000, 0.0000000000, -0.0000000000, -0.0000000000, 0.0000000000, -0.7220743895, -0.0000000000, -0.0000000000, -0.0000000000, 0.6337760091, 0.0000000000, -0.0000000000, 0.9644926190, 0.0000000000, -1.6033560038, -0.0000000000, 0.0000000000, 0.0000000000, 0.0000000000, -0.0000000000, -0.0000000000, 0.0000000000, 0.0000000000, 0.0000000000, 0.2071921825, 0.3161213398, 0.1274214685, 0.3193345368, -0.0000000000, -0.0000000000, 0.0000000000, -0.2372674644, -0.0000000000, 0.0000000000, 0.5160721540, -0.0000000000, -0.2708105147, 0.0000000000, 0.2751514614, 0.4822191000, -0.0000000000, -0.0624541566, -0.0006688788, 0.1845483184, -0.0000000000, 0.0000000000, -0.0162189323, 0.0000000000, 0.0000000000, 0.0000000000, -0.0000000000, 0.0709855184, 0.0000000000, -0.0000000000, 0.1218233705, -0.0000000000, 0.1901393533, -1.2622704506, 0.0000000000, -0.0000000000, 0.0000000000, -0.0000000000, 0.0185296014, 0.0000000000, 0.0000000000, -0.0432508215, -0.0134278135, -0.0000000000, 0.0780949667, 0.1927431971, -0.1330657154, -0.9966104031, -0.0000000000, 0.0000000000, 0.0000000000, -0.0011467773, -0.0000000000, -0.1312891245, 0.0000000000, 0.2947533131, -0.0000000000, 0.0000000000, 0.0000000000, 0.4176666737, 0.0000000000, -0.0021417018, 0.0000000000, -0.2695295513, 0.1247959062, -0.0000000000, -0.0000000000, 0.0000000000, -0.0000000000, -0.0000000000, 0.0154394694, 0.2864400744, -0.0000000000, 0.0000000000, 0.0000000000, -0.0000000000, -0.5153062940, -0.1142508015, 0.2256024331, 0.0000000000, -0.1073465571, -0.1114440709, -0.0000000000, 0.2127620876, 0.0000000000, 0.0000000000, -0.0378700718, 0.0000000000, -0.0000000000, -0.2917155623, 0.0000000000, 0.0000000000, 0.0000000000, 0.5549591184, 0.0000000000, -0.0205470156, 0.0000000000, -0.0000000000, 0.0000000000, 0.0000000000, -0.0000000000, 0.0000000000, -0.0000000000, 0.0000000000, -0.0000000000, -0.0000000000, 0.0000000000, -0.0000000000, 0.0000000000, 0.0000000000, -0.0000000000, -0.0000000000, 0.0000000000, -0.0000000000, -0.0000000000, -0.0000000000, 0.3682098687, 0.0000000000, 0.0000000000, 0.3149846792, -0.0054010199, -0.0243307352, 0.0000000000, -0.1749788970, -0.0000000000, 0.2390710562, -0.0000000000, 0.1830722690, -0.0000000000, -0.0000000000, 0.0000000000, -0.0000000000, 0.0000000000, -0.0000000000, 0.0651092529, -0.5593107343, 0.0000000000, -0.0135438936, 0.0000000000, -0.0000000000, -0.0000000000, 0.1490401328, -0.0000000000, 0.1966718733, 0.1091272533, -0.0000000000, 0.0000000000, 0.1489932835, -0.0000000000, 0.1237194762, 0.0000000000, 0.0000000000, 0.0000000000, 0.0000000000, 0.0000000000, 0.0000000000, -0.0000000000, 0.0000000000, -0.3269942403, -0.0000000000, -0.0000000000, 0.3928309679, 0.0000000000, 0.3870548308, 0.0000000000, -0.0000000000, -0.2836359441, -0.0000000000, -0.0000000000, 0.0000000000, 0.0410643071, -0.0000000000, 0.0000000000, 0.0000000000, -0.0000000000, 0.2808627486, -0.2202087790, -0.0000000000, -0.0000000000, -0.0000000000, -0.0000000000, 0.1330452561, 0.0000000000, 0.1367986053, -0.0000000000, -0.0080725010, -0.0000000000, 0.1797067672, 0.0320084505, 0.0000000000, 0.0331168883, 0.0000000000, -0.0000000000, 0.0000000000, 0.0000000000, -0.0000000000, -0.0000000000, -0.0000000000, 0.0000000000, -0.0000000000, 0.0000000000, 0.0000000000, 0.0000000000, -0.0000000000, -0.0000000000, 0.0000000000, 0.3545617759, 0.0000000000, -0.0000000000, 0.2161650956, 0.0191881172, 0.0000000000, -0.0000000000, 0.0000000000, 0.0000000000, -0.5712661147, -0.0000000000, 0.0000000000, 0.0000000000, 0.0000000000, 0.0000000000, -0.0000000000, 0.0945044309, 0.0000000000, 0.0000000000, 0.0000000000, 0.0000000000, -0.0000000000, -0.0000000000, -0.0178941637, 0.0000000000, 0.1399107277, 0.0000000000, 0.0000000000, -0.0000000000, -0.0000000000, 0.0000000000, 0.0000000000, -0.0000000000, 0.0000000000, 0.1703485548, 0.2655473351, 0.0000000000, 0.0000000000, -0.1091368198, -0.0000000000, 0.0000000000, -0.0000000000, -0.0000000000, 0.0000000000, 0.0000000000, 0.5824372172, 0.0000000000, -0.0000000000, 0.0000000000, 0.0000000000, 0.0000000000, 0.1408259273, 0.0451102965, -0.0000000000, 0.0000000000, 0.0013743204, 0.0000000000, -0.0000000000, 0.0000000000, 0.0000000000, 0.0000000000, -0.0000000000, 0.0072750300, 0.0000000000, -0.0000000000, 0.0000000000, 0.0075997254, 0.0000000000, 0.4015697241, 0.1874206811, -0.0000000000, 0.0000000000, 0.0000000000, -0.0000000000, -0.0061611957, 0.0000000000, 0.0000000000, 0.0000000000, 0.0137064680, 0.0000000000, 0.0000000000, 0.2172164172, 0.0000000000, -0.0238100942, -0.2893561423, -0.0000000000, 0.0000000000, -0.0198371485, 0.0000000000, -0.0549800508, -0.0000000000, 0.0000000000, 0.0321531817, -0.0000000000, 0.0000000000, 0.0000000000, -0.0000000000, 0.0150567451, -0.0000000000, -0.0000000000, -0.0000000000, 0.0000000000, 0.0379607268, 0.0000000000, -0.0358343869, 0.2973923683, -0.4651849866, 0.0000000000, 0.0000000000, 0.0032367974, -0.0000000000, -0.0000000000, 0.0000000000, 0.0000000000, -0.0000000000, -0.0000000000, 0.0000000000, -0.0000000000, -0.0000000000, -0.0000000000, 0.0000000000, -0.0000000000, 0.0000000000, 0.0000000000, -0.0000000000, -0.0000000000, 0.0000000000, 0.0000000000, -0.0000000000, 0.0000000000, -0.0000000000, -0.0000000000, 0.0000000000, 0.0000000000, -0.0000000000, 0.0000000000, 0.0000000000, -0.0000000000, 0.0000000000, 0.0000000000, -0.0000000000, 0.0000000000, 0.0000000000, -0.0000000000, 0.1050015241, 0.0000000000, 0.0000000000, -0.0000000000, -0.0000000000, -0.0000000000, -0.0000000000, 0.1145251244, 0.0000000000, 0.0000000000, 0.0000000000, 0.0000000000, -0.0000000000, -0.0000000000, 0.4161977172, -0.0000000000, 0.0656471476, 0.0000000000, -0.0000000000, 0.0000000000, 0.2709942162, 0.0000000000, 0.0825209692, -0.0204039104, 0.0000000000, -0.0000000000, -0.0000000000, 0.0572582483, 0.0000000000, 0.0000000000, -0.0000000000, 0.0000000000, 0.0000000000, 0.0000000000, 0.0275041554, -0.0000000000, 0.0000000000, -0.0000000000, -0.0000000000, -0.0036209431, 0.0000000000, 0.4751825035, -0.0000000000, -0.0001122000, 0.0000000000, -0.0000000000, 0.0007514217, 0.0000000000, -0.0000000000, 0.0000000000, -0.0000000000, -0.0000000000, 0.0004971937, 0.3406456709, -0.1400861293, 0.0000000000, 0.0000000000, -0.1231460199, 0.0000000000, -0.0060466938, 0.0000000000, 0.0000000000, 0.0120821400, 0.0000000000, -0.0171438213, 0.0000000000, -0.0000000000, -0.0000000000, -0.0218677409, -0.0000000000, -0.0000000000, -0.0000000000, 0.0000000000, -0.0000000000, -0.0000000000, -0.0000000000, -0.0000000000, -0.0000000000, 0.0000000000, 0.0000000000, -0.0000000000, 0.0000000000, -0.0000000000, -0.0000000000, 0.0000000000, 0.0000000000, 0.1564030647, 0.0000000000, 0.0000000000, 0.3964336216, -0.2714084983, -0.0004344390, 0.0000000000, 0.0000000000, 0.2840650380, 0.2422995120, 0.0000000000, 0.4007478952, 0.0000000000, -0.0000000000, 0.0000000000, -0.0000000000, -0.0000000000, -0.0000000000, -0.0000000000, 0.0000000000, 0.0000000000, 0.0000000000, 0.3857125044, -0.0000000000, 0.2849215269, 0.0000000000, 0.0052471976, 0.0000000000, 0.3098087907, -0.0000000000, 0.0885745063, 0.0000000000, -0.0000000000, 0.2514342070, 0.0838147774, 0.3137173057, -0.0000000000, 0.0000000000, 0.0000000000, 0.0000000000, 0.2093627602, -0.0000000000, 0.0000000000, 0.4309203327, 0.0000000000, -0.0000000000, 0.0000000000, -0.0000000000, 0.0000000000, -0.0000000000, 0.1583856940, 0.0000000000, 0.0000000000, 0.0000000000, -0.0018620454, -0.0000000000, 0.2090331763, 0.1325031072, -0.0000000000, -0.0528891906, 0.1272164434, -0.0000000000, 0.0000000000, 0.0000000000, -0.0000000000, -0.0000000000, 0.0000000000, -0.2248039693, 0.0000000000, 0.0000000000, 0.0000000000, -0.0913195238, -0.4326563776, 0.0000000000, -0.3987137675, 0.0591427386, -0.0181631427, 0.0544209518, 0.3820146322, -0.0000000000, -0.0000000000, 0.0125949821, 0.0000000000, -0.0000000000, -0.0000000000, 0.0000000000, -0.0000000000, -0.0000000000, 0.0000000000, 0.1766440123, -0.0000000000, 0.0000000000, -0.0000000000, -0.3887457252, 0.0000000000, -0.0000000000, -0.0000000000, 0.2904711664, 0.3496880531, -0.0169452541, -0.0000000000, 0.0000000000, 0.0000000000, 0.0019208469, -0.0000000000, -0.0000000000, 0.0000000000, -1.3898600340, -0.1024445966, -0.3024731278, 0.4262619317, -0.0000000000, -0.0000000000, -0.0000000000, -0.0063228626, 0.9243381619, 0.0000000000, 0.0000000000, -0.0000000000, -0.0000000000, 0.0000000000, -0.4331130683, 0.4839929342, 0.0000000000, -0.0000000000, -0.0000000000, 0.0000000000, 0.0000000000, -0.0000000000, 0.0000000000, 0.2599010468, 0.0000000000, 0.8704110384, -0.0523859486, 0.0000000000, 0.1100381240, -0.0008013423, -0.0000000000, 0.4724153578, -0.6250355244, -0.2826233506, -0.0000000000, 0.2322968841, -0.0000000000, 0.0000000000, -0.0000000000, 0.0000000000, 0.1827493161, 0.0000000000, 0.0000000000, -0.0000000000, -0.0000000000, 0.0000000000, 0.0000000000, -0.0000000000, 0.0000000000, -0.0000000000, 0.3932831883, 0.0000000000, 0.0000000000, 0.1578750014, 0.0024892658, 0.0000000000, -0.0000000000, -0.0000000000, 0.0000000000, 0.0000000000, -0.0191358328, 0.0000000000, 0.0000000000, -0.0845169201, -0.0000000000, -0.0000000000, 0.1467700750, 0.0000000000, -0.0000000000, -0.0000000000, 0.1325179935, 0.0000000000, -0.0000000000, -0.0000000000, 0.0000000000, 0.4513706565, -0.0000000000, -0.2926085889, 0.0000000000, -0.0000000000, 0.0000000000, -0.4837516248, -0.0000000000, 0.0000000000, 0.0678492188, -0.0000000000, 0.0000000000, -0.1853180230, 0.0387914702, -0.0000000000, -0.0000000000, 0.0000000000, 0.1649508178, 0.0000000000, -0.0000000000, 0.0000000000, -0.0000000000, 0.0000000000, 0.0000000000, 0.0000000000, -0.0000000000, -0.0000000000, -0.0000000000, -0.0000000000, 0.0000000000, 0.0000000000, 0.0000000000, -0.0000000000, -0.0000000000, 0.0000000000, 0.0000000000, 0.0000000000, -0.0000000000, -0.0000000000, 0.0000000000, 0.0000000000, -0.0000000000, -0.0000000000, -0.0000000000, -0.1621162593, -0.0000000000, -0.0000000000, 0.0000000000, 0.0000000000, 0.0000000000, -0.0000000000, -0.0000000000, 0.0000000000, 0.1834180653, 0.0000000000, -0.0000000000, 0.0102334796, -0.0000000000, -0.0000000000, -0.0000000000, 0.0000000000, -0.1523729861, 0.0000000000, 0.0574853644, -0.0000000000, -0.0000000000, 0.0000000000, 0.0000000000, -0.0000000000, 0.0000000000, 0.1599390507, -0.0000000000, 0.0000000000, 0.0000000000, -0.0000000000, 0.0000000000, 0.0000000000, 0.0325359702, 0.0000000000, 0.0000000000, 0.0000000000, 0.0000000000, 0.0000000000, 0.4231259823, 0.0000000000, 0.0000000000, 0.0000000000, 0.0013542324, 0.0000000000, -0.0000000000, -0.0000000000, -0.0000000000, 0.0000000000, 0.0000000000, 0.0000000000, 0.0000000000, 0.2537100017, -0.0000000000, 0.0000000000, 0.0000000000, -0.0000000000, 0.0000000000, 0.0199322905, 0.0000000000, 0.0000000000, -0.4148053825, -0.0000000000, 0.0000000000, 0.0000000000, -0.0000000000, -0.0000000000, 0.0000000000, 0.0000000000, -0.2450734973, 0.0000000000, 0.1225210875, 0.0000000000, -0.0000000000, 0.0000000000, 0.0000000000, 0.0440622270, 0.0000000000, -0.0000000000, -0.0022117989, 0.0045375875, -0.0943119526, 0.0000000000, 0.0647949949, -0.0000000000, -0.0000000000, 0.0000000000, 0.1384459138, -0.0000000000, 0.0000000000, -0.0000000000, 0.0000000000, 0.0000000000, -0.0000000000, -0.1375910342, -0.0000000000, -0.0000000000, 0.4877993762, -0.0000000000, 0.0000000000, 0.0000000000, 0.5650877953, -0.4001077414, 0.0000000000, 0.0000000000, -0.0000000000, -0.0000000000, 0.2501532733, 0.0000000000, 0.0000000000, -0.0000000000, -0.0000000000, -0.0000000000, -0.0000000000, -0.0000000000, 0.0000000000, 0.0000000000, -0.0000000000, 0.0000000000, 0.0000000000, -0.0000000000, 0.0453219637, 0.0325040258, 0.0000000000, -0.0000000000, -0.4974389970, 0.0000000000, 0.0000000000, -0.0000000000, -0.0060720243, -0.0000000000, -0.0838038176, 0.0000000000, -0.6625100970, -0.0000000000, 0.0407977663, 0.0000000000, 0.0000000000, -0.0000000000, -0.0000000000, 0.0000000000, -0.0000000000, -0.0000000000, -0.0000000000, 0.0000000000, -0.0000000000, 0.0000000000, 0.0000000000, -0.0000000000, -0.0000000000, 0.0000000000, 0.0000000000, -0.0000000000, 0.0000000000, -0.0000000000, -0.0000000000, 0.0000000000, 0.0000000000, -0.0000000000, 0.0000000000, 0.0000000000, 0.0000000000, 0.0000000000, 0.0000000000, 0.0000000000, -0.1506342888, -0.0000000000, -0.1389877796, 0.0022695425, -0.0000000000, -0.0000000000, -0.0000000000, 0.0000000000, -0.0000000000, -0.0000000000, -0.0000000000, 0.0000000000, 0.2379260659, -0.0000000000, 0.0000000000, -0.0388685279, -0.0000000000, -0.1935989708, 0.0000000000, -0.0000000000, 0.0000000000, -0.0000000000, -0.0000000000, 0.0024009829, 0.3118999004, 0.0026158639, -0.1830522269, -0.0425074175, 0.0000000000, 0.0000000000, -0.0000000000, -0.0000000000, 0.0000000000, 0.0000000000, -0.0000000000, 0.0000000000, -0.0000000000, 0.0000000000, -0.0000000000, -0.0000000000, 0.0302803256, -0.0000000000, -0.0000000000, -0.1257411242, 0.0000000000, -0.0000000000, 0.0000000000, -0.0000000000, -0.0000000000, 0.0000000000, -0.0000000000, -0.0000000000, 0.0000000000, -0.0000000000, 0.0000000000, 0.0000000000, 0.0000000000, 0.0163720120, -0.0000000000, -0.0000000000, 0.2841847539, -0.0000000000, 0.0000000000, -0.0000000000, -0.0088742431, 0.0000000000, -0.0000000000, 0.0000000000, 0.0000000000, 0.0000000000, -0.1657546312, 0.0000000000, -0.0000000000, 0.0000000000, -0.0000000000, 0.0647940561, 0.0000000000, 0.0000000000, 0.0000000000, -0.3642846942, -0.0000000000, 0.0000000000, 0.0000000000, -0.0000000000, 0.0000000000, -0.0000000000, -0.0000000000, 0.0000000000, 0.0000000000, -0.0000000000, -0.0000000000, 0.2596782744, -0.0000000000, -0.0000000000, 0.0000000000, 0.0000000000, -0.0318568721, -0.0000000000, 0.0000000000, -0.4602556825, 0.8707709908, -0.0000000000, -0.0000000000, -0.2472616136, -0.0000000000, -0.0000000000, -0.0000000000, 0.0000000000, -0.5528656840, -0.0000000000, 0.0000000000, 0.0000000000, -0.0000000000, 0.2116488665, 0.0000000000, -0.0817043185, 0.0643335283, 0.0467197672, -0.3922786117, -0.0002977559, 0.1915639341, -0.0093528815, 0.0000000000, 0.0000000000, 0.3224418163, 0.0000000000, 0.0000000000, 0.0000000000, 0.0000000000, 0.0000000000, -0.0000000000, 0.0000000000, 0.0000000000, 0.0000000000, 0.0000000000, -0.0000000000, -0.0000000000, -0.0000000000, -0.0000000000, -0.0000000000, 0.0000000000, 0.0000000000, 0.0000000000, 0.0000000000, 0.0000000000, -0.0000000000, -0.0000000000, -0.0000000000, -0.0000000000, -0.0000000000, 0.0000000000, 0.0000000000, 0.0000000000, 0.0000000000, -0.0000000000, -0.0000000000, -0.0000000000, -0.0000000000, 0.0000000000, 0.0000000000, 0.0000000000, 0.0000000000, 0.0000000000, 0.0000000000, -0.0000000000, 0.0000000000, 0.0000000000, 0.0000000000, 0.0000000000, -0.0000000000, 0.0000000000, -0.0000000000, 0.0000000000, 0.0000000000, -0.0000000000, 0.0000000000, 0.0000000000, 0.0000000000, -0.0000000000, 0.0000000000, -0.0000000000, 0.0000000000, 0.0000000000, -0.0000000000, -0.0000000000, 0.0000000000, 0.0000000000, -0.0000000000, -0.0000000000, 0.0000000000, -0.0000000000, -0.0000000000, -0.0000000000, 0.0000000000, -0.0000000000, 0.0721990168, -0.0181705561, 0.0000000000, 0.0000000000, 0.0000000000, -0.0000000000, -0.0000000000, -0.0000000000, 0.0000000000, 0.1719750911, 0.0000000000, 0.0000000000, -0.0000000000, -0.0000000000, -0.0000000000, 0.0000000000, -0.0000000000, 0.0000000000, 0.0062422985, 0.0000000000, 0.0000000000, 0.0000000000, -0.0000000000, 0.0000000000, 0.0000000000, -0.0000000000, 0.0294118710, 0.0000000000, 0.0000000000, 0.0000000000, 0.0000000000, 0.5212860703, 0.4564274251, -0.0000000000, 0.0000000000, -0.3853500485, 0.7425323129, 0.3070381880, -0.0000000000, -0.6400043964, 0.0191228297, 0.0000000000, 0.1154618487, 0.0000000000, -0.0000000000, -0.0000000000, -0.0267632920, 0.0000000000, -0.0035882259, -0.3159169555, 0.2311863154, 0.4320092499, 0.0000000000, -0.3966588974, -0.0000000000, 0.5792013407, 0.0000000000, -0.5438768268, 0.4239291847, 0.0000000000, 0.0000000000, -0.3604780734, -0.2438879013, -0.0000000000, 0.0658852980, -0.0000000000, -0.0000000000, -0.0000000000, 0.2286961824, 0.0000000000, -0.0000000000, 0.0000000000, -0.0000000000, 0.0000000000, 0.0000000000, 0.2827393711, -0.0000000000, -0.0000000000, 0.0000000000, 0.0000000000, -0.0000000000, -0.0000000000, -0.0000000000, -0.0000000000, -0.0000000000, -0.0000000000, -0.0000000000, 0.4360297322, 0.0000000000, -0.0171200410, 0.0000000000, -0.0000000000, 0.0000000000, -0.0060794442};
#endif

#endif
