//Numpy array shape [64]
//Min -0.283332586288
//Max 0.496007144451
//Number of zeros 0

#ifndef B2_H_
#define B2_H_

#ifndef __SYNTHESIS__
model_default_t b2[64];
#else
model_default_t b2[64] = {0.0014423714, -0.0290606674, 0.0233011935, 0.3256999850, 0.2755500078, -0.2329085618, 0.3952677250, 0.0357842669, 0.1361981183, -0.2104609162, -0.2833325863, -0.0348491780, -0.0662016422, 0.1742403805, -0.2125224322, 0.2046214491, 0.2965417206, 0.0050064288, 0.0690642968, 0.0006439554, 0.2773050666, 0.2916811109, -0.0937144905, 0.4869998693, -0.0733703971, 0.2695862949, 0.3572972417, 0.1191991866, -0.0040713064, 0.1068641394, -0.0305218548, 0.1983113736, 0.3974620402, 0.2483758479, 0.3122578859, -0.1509679854, -0.2342848182, 0.1665811241, 0.0298333243, 0.2585988343, -0.1603379101, -0.0987148434, -0.1307480931, -0.1526084989, 0.1902171075, 0.4096379876, -0.0901532546, 0.4960071445, 0.1615201831, -0.2592170537, 0.4883482158, 0.2447654903, -0.1180990487, 0.2285545915, 0.1346824020, -0.0584332235, 0.1205446199, 0.2214450389, 0.4190711379, -0.0936326534, -0.0561676323, 0.3718541265, -0.1801667809, -0.1046088189};
#endif

#endif
