//Numpy array shape [64]
//Min -0.473084151745
//Max 0.727479755878
//Number of zeros 0

#ifndef B2_H_
#define B2_H_

#ifndef __SYNTHESIS__
model_default_t b2[64];
#else
model_default_t b2[64] = {0.0407227054, -0.2382178158, 0.1283383518, 0.2917441428, 0.1258694977, 0.2911799550, 0.1759323478, -0.0130224787, 0.3388859034, 0.0150964130, 0.3331914544, 0.0441708751, 0.1741582155, -0.1272293031, 0.0912254006, 0.0306696594, 0.1540107131, -0.0662293062, -0.2440173626, -0.1259954721, -0.0239825416, 0.0780365095, 0.2593565881, 0.2203768343, 0.2089389563, -0.0730614811, 0.2878262997, 0.3584381640, -0.0447083786, 0.1513152719, -0.1559173912, 0.3862168491, 0.1174479797, -0.4730841517, 0.1818427742, -0.0337899812, -0.1181414649, 0.2334780544, -0.3062369823, 0.1123300046, 0.1789730787, 0.3314434886, 0.0816104412, 0.4993089139, 0.2730119526, 0.1062951311, -0.0760554820, 0.4071659744, 0.1790793091, 0.0909962654, 0.3605713844, 0.1735089868, 0.3852900565, -0.0133815594, 0.7274797559, -0.0079876930, -0.2516159117, 0.2666276097, 0.2199908942, 0.1711292863, 0.2928790748, 0.2935314775, -0.2699806094, 0.1918110847};
#endif

#endif
