//Numpy array shape [32, 5]
//Min -1.989582300186
//Max 1.175741910934
//Number of zeros 0

#ifndef W11_H_
#define W11_H_

#ifndef __SYNTHESIS__
model_default_t w11[160];
#else
model_default_t w11[160] = {0.0003988153, -0.0013074984, 0.1033514291, -1.2164615393, 1.0343689919, 0.0000379955, -0.1224117801, -0.0002268963, -0.0016266191, -0.1822854429, -0.9834479690, -0.4261545539, 0.7142729163, 0.4694998264, 0.0611752011, 0.2071807086, -0.2246992141, 0.2592508197, -0.0371414684, 0.0016223871, -0.7469457388, -0.2635219991, 0.0824852809, 0.3902336657, 0.2981689870, 0.1202104390, 0.0017672924, -0.0005059933, 0.1872598529, -0.6157497764, -0.5983343124, -0.7619119883, 0.1317038238, 0.2588973641, 0.1832907945, 0.0000248860, -0.3834901452, -0.6314677596, 0.6879125834, 0.0919744372, -0.5429972410, 0.6732535362, 0.1454242617, -0.3613159060, -0.0069226171, -0.6718373895, 0.0463274680, 0.0040068650, 0.1651448160, 0.1066503376, 0.6573477387, -0.2611941993, -0.0012313880, -0.3558188975, 0.0066214474, -0.0005535920, 0.1780209541, -0.1700148880, 0.5232179165, -1.9895823002, 0.0001695152, -0.0003601038, -0.0000579085, 0.0001381253, 0.0001875520, -1.0233379602, -0.2258754820, 0.0008311108, 0.4253526032, 0.3924754858, 0.0773298219, 0.2673557401, -1.3526548147, 0.3832184076, 0.0026033395, -0.0013457011, 0.0014212104, -0.7735444307, 0.4639492035, 0.0010984051, -0.1126683950, 0.0148130944, 0.0426541381, -1.1245055199, 0.6923128366, -0.2044689655, 0.1123749241, 0.0644206032, 0.2511260808, -0.5407392979, -0.1121948808, 0.1399145871, 0.6815007925, -0.0055319294, -1.6478531361, 0.4274517894, 0.2925563753, -1.1816836596, -0.4202624559, 1.0354070663, 0.4316850603, -0.5253062844, -0.0003788371, -0.0028720861, -0.0540938079, -0.1154807210, 0.2553656697, -0.3931557238, -0.5891364217, 0.3861450553, 1.0859586000, -0.5905479789, 0.7603652477, -1.4553498030, -1.1659644842, 0.2776740491, 0.0006243573, 0.0972373635, -0.4478894174, -0.7343577743, 0.1959002018, 0.6057484150, -0.3371842206, -0.4552647471, -0.5254124403, 0.2538788021, 0.1035409346, -0.0001788216, -0.3486412764, -0.0445414111, 0.6170549393, 0.6399759650, -0.0535468794, -0.6400041580, -0.6984786391, 0.3905435503, -0.4858853221, 0.3213229179, -0.3512502015, -0.4638902843, 0.1561404914, 0.0013523187, -0.4876678884, -0.3013003767, 0.3840760589, -0.0001529818, 0.0002523305, -0.0000715305, -0.0001228600, 0.0002241867, -0.2024601549, -0.0165510792, 0.1320126206, 1.1757419109, -0.7277808189, -0.0000656996, 0.0003284411, 0.0000591013, -0.0000698886, 0.0001795812};
#endif

#endif
