//Numpy array shape [64, 32]
//Min -1.038957595825
//Max 0.620128691196
//Number of zeros 0

#ifndef W5_H_
#define W5_H_

#ifndef __SYNTHESIS__
model_default_t w5[2048];
#else
model_default_t w5[2048] = {0.0318020582, -0.0056782407, 0.0004008970, 0.0004611041, -0.0016403187, 0.0004117705, 0.0014326011, 0.0005627849, -0.0021409320, -0.0027473834, -0.0000466106, 0.0002330215, -0.0009856198, 0.0027586059, 0.0127073051, -0.0000046862, 0.0017226828, 0.0009851829, -0.0058931811, 0.0003291252, -0.0011676267, -0.0008749998, -0.0013081001, 0.3157545924, -0.0004454866, -0.0030632212, 0.0014625468, 0.0036505722, -0.0000911761, 0.0000563150, 0.0317884758, 0.0011119470, 0.1191302761, 0.0037064806, 0.0012439588, 0.0006296329, -0.0001355420, 0.0010558860, 0.0003960828, -0.8312554359, 0.0013890417, -0.1481191665, -0.0001102818, 0.0038887132, 0.0003304029, 0.0068106246, 0.0061727185, 0.0000221364, 0.0007877405, 0.0005142143, -0.0050207092, 0.0039109127, 0.1496070772, -0.3865324557, -0.0063555087, -0.0005775552, -0.0002679282, -0.0009748770, -0.0024232273, 0.0021474925, -0.0001504006, 0.0015919281, -0.1330922246, 0.0008932928, 0.0591326803, 0.0005458283, 0.0020299042, 0.0031318571, -0.0011377529, 0.0013132098, 0.0007103992, -0.3456625640, 0.0662655234, 0.0383020937, -0.0001204474, 0.1721290499, 0.0010978358, 0.0044222688, 0.0037125596, -0.0000515710, -0.0008071593, -0.0034859735, -0.0043423981, -0.0029718317, -0.0031347536, -0.2977630496, -0.0028816396, 0.1136914492, 0.0004532207, -0.0028802149, -0.0431498140, -0.0014574379, -0.0000492498, 0.0013693958, -0.0009045985, 0.0045451396, -0.1643334180, 0.1129189581, 0.0903830230, 0.0086785806, -0.0001846079, 0.0024099399, 0.4703304768, 0.1986137331, 0.0422137231, 0.1123964638, 0.0000898520, -0.0009975731, -0.0001283066, 0.0000337097, -0.3183087707, 0.0000398500, 0.0593872070, 0.2102986574, -0.2212423682, 0.0895311385, 0.0009389152, -0.0015813549, 0.0018954133, -0.1913798749, 0.0009588011, -0.1685318500, -0.0019794435, -0.3206588626, 0.0000121415, 0.0010845262, 0.0875273198, -0.0034407675, -0.6880584359, 0.0033577411, -0.1193407625, -0.0086693894, 0.1104871929, -0.0268656928, -0.0267460141, 0.0574427806, 0.0253053568, -1.0389575958, 0.0000671415, -0.0051538493, -0.0046685445, 0.0007361303, 0.2037848085, -0.0000122534, 0.1724657565, 0.0044837878, 0.0362201519, -0.0001660406, -0.0003083967, 0.2404770106, 0.0541272238, 0.0404630788, -0.0025961904, 0.1528527141, 0.2093899250, 0.1045541242, -0.0000229213, -0.0125185009, 0.0016521174, -0.0163668375, 0.0265605487, 0.0677516833, 0.0003198654, 0.0030905735, 0.0358876437, -0.0008370907, -0.0009694042, -0.0002324336, 0.0751661360, 0.1398036629, -0.0000474332, 0.0009746653, 0.0000686747, 0.0018885918, -0.0051820814, -0.0000168791, 0.0319869258, 0.1936113685, -0.0007007315, -0.0002326708, -0.0048094331, -0.0005465747, 0.0005537742, 0.0261358041, -0.0006268400, -0.0010407883, 0.0244670101, -0.0016881222, 0.0001269051, 0.0030496784, 0.0036611950, 0.0022293872, 0.2979328930, -0.0000104350, 0.0020653305, 0.0031983468, 0.3561028838, 0.0009108725, -0.0002318693, -0.2174091339, 0.0149299428, -0.1462123245, 0.0000703906, 0.0352755748, 0.0007394959, 0.0058961487, 0.0018177046, 0.0000772495, -0.0008054180, -0.0016653709, 0.0005770960, -0.0039826715, -0.0018041104, -0.3115237653, -0.0011274368, -0.0012113722, 0.0008333465, 0.0656274483, -0.0082368189, -0.0019772029, 0.0003251084, 0.0027536042, -0.0170814190, 0.0086064599, 0.0011946238, 0.0006861023, 0.1355739683, 0.0014775441, 0.0268558338, -0.0016271549, -0.0016000415, 0.0329454914, 0.0885091498, -0.0786297247, -0.0001283892, -0.0151146213, -0.0001023083, -0.0894178078, 0.0954746678, -0.0000582441, -0.0003094969, 0.0016056156, 0.2687296867, -0.0008649608, -0.0002583123, 0.0020516717, -0.0034433545, -0.0005919211, -0.0009329902, 0.0517157726, 0.0020028094, -0.0013668821, 0.0001575693, -0.2165723145, 0.0001435869, 0.0190048628, 0.0033107998, -0.0003069862, 0.0000908365, 0.0388805494, 0.0031278753, 0.0015208259, 0.0017880164, 0.0614324585, 0.0038276298, 0.0905070752, 0.0000757373, 0.0013895155, 0.0010638583, 0.0003759669, -0.0022317097, 0.0000373546, -0.0006473037, 0.0179314539, -0.0009286382, 0.0003185105, -0.3864080310, 0.1662911624, -0.0019640378, 0.0002253178, -0.0003305508, -0.0035910038, 0.0006478321, -0.0038497895, 0.0000526060, 0.0076817698, 0.1380757242, 0.0053530438, -0.0073718615, 0.0028378419, 0.0007344079, -0.0036403520, 0.0008227614, -0.0603196099, 0.0009593065, 0.0004647409, 0.1339071393, -0.0014440850, 0.0001299870, -0.0025488818, 0.0003538911, 0.0016832943, 0.0393070392, 0.0000181577, -0.0007087330, 0.0012314846, 0.1011457294, -0.0013938725, 0.0001004020, -0.1938353181, 0.0766509622, 0.0005475674, -0.0011402052, 0.0166618265, -0.1887780726, 0.0173562467, -0.0001350441, 0.0007798015, -0.0013880596, 0.0483817831, 0.0028389222, 0.0279150456, -0.1882842630, -0.0359183848, 0.1505005658, -0.0006876881, 0.0010803996, -0.1414282173, 0.4686269462, -0.4356370568, 0.0000463351, -0.0031719878, 0.0011688399, 0.0007620221, 0.0017228322, 0.0000016653, 0.0000553723, 0.0505165905, 0.4360244572, 0.0934851766, 0.0008363029, 0.1185256019, -0.0089201201, 0.1692536324, -0.0003219847, 0.0872258395, -0.0011828529, 0.1561843008, -0.0000622907, 0.0050447942, -0.0018358306, 0.0920111388, -0.1684245616, 0.0083970521, 0.0575685240, -0.0025311681, -0.0122714369, -0.1456964016, -0.0002023886, -0.2215796411, 0.0040503745, 0.1044402197, 0.0000620433, 0.0890905857, -0.0264041089, 0.3002366126, 0.0441771448, 0.0000646910, -0.6184624434, -0.0802411139, -0.0844331905, -0.4959896803, 0.0569028109, -0.6555922031, 0.0385369658, -0.1747177541, -0.0532810725, 0.2270595133, -0.8947434425, -0.1477416456, -0.0000831610, 0.0955113322, -0.0001307832, 0.0020377738, -0.0065594669, -0.0425228179, 0.2292016894, 0.0017570952, 0.0142400647, 0.0002295338, 0.0012784039, 0.0082098469, 0.0720969066, -0.5529951453, 0.0000188767, -0.0026557646, 0.0000658007, -0.1966879666, 0.0020878816, -0.0000845338, -0.0008093696, -0.0133597571, 0.0169820152, -0.0021014772, 0.0000536785, -0.1632642001, 0.0064877472, 0.0005814375, -0.0018297577, 0.0173597503, -0.0005688790, -0.0013859515, 0.0000326309, -0.0336071886, -0.0009755678, 0.0273863152, 0.1394541860, 0.0029551089, 0.0010560865, -0.0003861873, 0.2085695118, -0.0184782725, 0.0000857897, -0.3424381614, -0.0860432982, -0.2739023566, 0.0001284928, 0.0035402286, 0.0007924266, 0.0051034214, 0.0107751079, -0.0000336351, -0.2253099531, -0.1607077569, -0.0184292346, -0.0029957979, 0.1524418294, -0.5724735260, -0.0025818134, -0.0012455820, 0.0006502561, -0.0005910257, -0.0046243272, 0.0012903364, 0.0000227425, 0.0366772413, -0.3022016585, 0.0018968040, 0.0023613116, 0.1627743393, -0.0013739029, 0.0006720899, 0.0007690346, -0.0008488627, 0.0003842097, 0.1113915220, 0.0042346590, -0.0058677183, -0.0000007962, -0.0023637274, -0.0001696308, 0.0012331319, -0.0950291306, -0.0000131186, 0.0029769675, 0.0084951473, -0.0014374250, 0.0075917682, 0.0006926245, -0.0672538579, 0.0003444116, -0.2431233972, -0.0009480529, -0.0588768907, 0.1913909465, 0.0003006973, -0.0001896558, 0.0006200171, -0.0006371646, 0.0001479547, -0.1538567990, 0.0031122346, 0.1294848770, -0.0017135022, 0.0004026635, -0.0008625725, 0.0009709005, 0.0006666231, 0.2214515656, -0.0037964957, -0.0000525997, -0.0022326959, 0.0004442649, 0.0020220887, 0.0193020944, 0.0001721346, -0.0015328188, -0.0002255966, 0.1559551656, -0.0018540639, -0.0001267672, -0.0016142853, -0.0001229577, 0.0007977932, -0.0013923752, 0.2687408328, -0.1739372313, 0.0297454670, 0.0000084298, 0.0009156264, -0.0001401183, 0.2752883434, 0.0030841441, -0.0062352875, -0.0002467879, 0.0011678673, -0.0009161191, 0.0021600691, 0.0010352251, -0.0477130674, 0.0018910614, 0.0456124246, 0.0001031407, 0.0014516613, 0.0000107917, 0.0013503120, 0.0056340536, -0.0001426799, 0.0016024556, -0.0034879509, 0.0145971905, -0.0008989649, -0.0295219831, 0.0004831591, -0.1908984035, 0.2458237708, -0.0010184549, -0.0018753088, 0.0023239509, 0.0037208505, -0.0000565743, 0.0047029043, -0.0006831329, -0.0013628518, -0.0017957746, -0.0604784153, -0.0062283417, 0.0001510537, 0.1338707507, -0.0012123539, -0.0111301653, -0.0034688148, 0.0389191620, -0.2510406375, -0.0000679720, -0.0022097088, -0.0005696098, -0.0023171904, -0.1157715321, -0.0000730328, 0.0168087035, 0.0881445110, 0.1720710397, 0.0007332526, -0.0003921855, 0.0050558113, -0.0018241329, 0.0013979748, -0.0007065855, 0.1789698452, 0.0642445236, 0.0091636162, 0.0000799991, -0.0008154226, 0.0265161265, 0.0473615900, 0.0014508152, -0.1356983483, 0.1544760019, 0.0021636656, 0.1831780970, -0.0012152425, 0.0004510205, 0.0017415081, 0.0388491191, 0.0010138229, 0.0000519171, -0.0000544988, 0.0005986839, -0.0001472960, -0.0116682854, 0.0001471792, 0.0004628826, -0.0005117090, 0.1119815707, -0.0000286901, -0.0001589549, -0.0148156239, -0.0023868931, -0.0009454506, -0.0010408667, 0.1697149426, 0.0021280791, -0.0007218226, -0.0000210659, 0.0015538149, 0.0031389506, 0.1324205846, -0.0015309867, 0.0364549495, 0.0011457512, -0.0030570566, -0.0303828735, -0.0030803075, 0.0008589666, -0.1799342483, -0.0006907830, 0.0015229543, -0.0000907497, 0.0023280056, -0.0000297140, 0.4054347873, -0.2264160961, 0.0001727137, 0.0026160725, 0.0318479128, -0.4232415259, 0.0464155897, 0.0895090476, 0.2485610694, -0.0125757083, 0.0003579615, -0.0002855597, 0.0012702686, 0.0028787863, 0.0008571974, -0.0001352388, 0.6201286912, -0.0013416510, 0.0032779835, -0.0006993241, 0.0021173460, -0.1263323873, -0.0008199582, -0.0484215803, 0.0011135712, 0.0013614404, 0.1184730455, -0.0366085768, -0.0593062751, -0.0000829788, -0.0007013732, 0.0003351269, -0.0000471851, -0.0072391219, -0.0001270062, 0.1022444963, 0.0422009267, -0.1011161879, 0.0058678780, 0.0014914301, 0.0021109520, 0.0016116829, -0.0557344556, -0.0009749836, -0.0004817530, 0.2772580683, 0.0002569985, 0.0000594222, 0.0009655486, 0.0021404671, -0.1189959124, -0.0112246228, -0.0392099135, 0.1417550594, 0.0016850291, 0.2147352248, 0.0043844935, 0.0009623879, 0.0157340709, 0.3074531555, -0.0141187580, 0.0001423908, -0.0043668901, 0.0004959414, -0.0594844110, -0.0830664933, 0.0001992795, 0.0028037436, 0.0496765524, 0.0013415226, 0.3494381011, 0.0000095260, 0.0014465442, -0.0034720125, -0.0179893970, -0.0016034258, -0.0034275542, 0.0044263890, -0.0012041735, 0.0000002408, 0.0032758196, 0.1740282923, 0.2258572280, -0.2136198133, 0.0003163506, 0.0184283741, 0.1191397905, -0.2020651102, 0.0039194999, -0.0011874584, 0.0698614344, -0.3275662959, 0.1622226238, 0.0000534352, -0.0013323068, 0.0008380883, -0.0027203974, 0.0098710367, 0.0000863384, 0.0890683606, 0.0023608098, -0.2495412081, -0.0030641861, 0.0024679101, 0.0468088910, 0.1404473484, -0.0163682215, -0.0002415132, -0.1012839749, 0.1985211968, 0.0010536396, -0.0001006639, 0.0006922942, -0.5983239412, -0.3270740211, 0.4111100137, -0.0008152245, -0.0310828313, -0.1942401379, 0.1408773810, -0.0097482260, -0.0019335786, -0.5962142944, 0.0823937356, -0.0208705105, 0.0000754467, 0.0030122786, 0.0004773489, 0.0040155365, -0.1780955791, -0.0000026117, -0.0514040515, 0.3287306130, -0.0324874744, 0.1890922785, 0.3220251799, -0.0014381821, -0.1451094449, 0.2569114268, 0.0006041912, -0.0025470711, -0.0280045662, -0.0008556590, 0.0001291796, 0.1661128998, 0.2956121564, -0.1128458604, -0.0180328153, -0.3404212594, 0.2474385649, -0.0013451260, -0.0003352804, 0.0070644687, -0.0514164902, -0.0870297104, 0.0303111672, -0.0293191485, -0.0000597606, 0.2145251185, -0.0003244237, 0.0035610201, -0.0480693765, -0.0001364110, -0.0016101880, 0.1337001324, -0.0102258073, -0.0081874738, -0.1386685073, -0.0021328737, 0.4083612561, -0.0590490326, 0.1014783084, 0.2564001381, -0.0083102146, 0.0057695890, 0.0000228494, -0.0021830001, -0.0688536391, 0.1475333571, -0.0042239991, 0.1411205679, 0.0003498284, -0.0004142695, 0.0024646712, -0.0012183031, 0.0032612444, 0.0010673740, -0.0533418208, 0.1741202623, 0.0000286683, 0.0020915377, 0.0005510973, 0.1720477939, -0.0053851218, 0.0001573779, 0.0250618216, 0.2529674172, -0.0026432029, 0.0000588406, -0.0042188601, 0.1335185021, -0.0044046566, -0.0326404274, -0.0004428990, 0.0019317926, 0.0402100012, 0.0770537332, -0.0000817838, 0.1395186633, 0.1324237585, 0.0012848065, -0.5384925604, -0.0487068146, 0.0003269049, 0.1905693263, -0.7730717659, 0.0020944965, 0.0034034033, 0.0930143744, -0.8079775572, 0.3350590169, -0.0000267945, 0.0034802896, 0.0006340305, -0.0009511354, -0.0019809497, 0.0001098883, 0.1189693809, -0.0090590371, -0.5105157495, -0.0022347921, -0.2025725394, 0.1134189516, 0.0221334510, -0.1554359347, -0.0010916393, -0.2825916111, 0.0723427162, 0.0000774071, -0.0001478972, 0.0070295688, -0.0012624389, -0.8078026175, -0.0042846375, 0.0007103576, 0.0175936520, 0.1056075618, 0.0004575760, 0.0034730532, 0.0011955203, 0.2603269219, -0.1689853817, -0.0697902441, 0.0001243375, -0.0030928049, 0.0003971971, -0.1340159327, 0.0363840535, -0.0000117391, -0.0000587849, -0.8762705326, -0.0008661227, -0.2320562154, -0.0001038989, -0.2926634550, 0.0830740556, -0.0000554455, -0.0027476926, -0.0023098232, 0.0006034984, -0.0003449745, 0.0000504466, 0.0027276161, -0.3225897253, -0.0072896373, -0.0000570282, 0.0006140811, 0.0002795564, 0.0018889776, 0.0014877289, -0.0011970469, -0.0000404600, 0.0834487081, 0.0000645482, -0.0021903920, 0.0000512999, 0.0004258669, 0.0000638214, 0.0022945150, -0.0015252108, 0.0001121166, -0.0001657791, 0.0020421077, 0.0019548729, 0.0005371900, -0.0000956511, 0.0007856770, -0.0001440553, -0.0009649576, 0.0000299997, -0.0011929563, 0.0008732795, -0.0007737899, -0.0000457834, 0.0005933382, 0.0003686969, -0.0002326742, -0.0004557983, 0.0026375852, 0.0161231533, -0.0654059500, 0.1926427186, -0.4552600980, 0.0010020373, -0.0001356204, 0.1317877471, -0.7623634338, 0.0000004761, -0.0026312901, 0.0004069041, 0.0004387912, 0.0032486096, -0.0000118236, -0.0020418563, 0.0023812801, 0.1092582345, -0.0015166478, 0.0001024682, -0.0036446529, 0.1174623817, 0.0009016233, -0.0020864196, 0.2175654173, -0.0250990391, 0.1004198268, -0.0000785761, -0.0012289576, -0.0052410248, 0.0912684873, -0.1074123085, 0.0082462374, 0.0025074198, -0.0028767437, 0.0732267275, 0.0019762507, -0.0008282672, -0.0001206519, 0.0004573633, -0.3941906393, -0.0000649345, 0.0193528514, 0.0005657707, 0.0053209150, 0.0164119005, -0.0000094902, -0.0000445081, -0.3187579215, -0.0113811241, -0.1554644406, 0.0508132502, -0.7903973460, -0.0014604833, -0.0496386215, -0.0027669640, -0.0025025995, 0.0000853020, -0.0007197418, 0.0000521721, 0.0273888540, -0.2778460681, -0.0007766478, -0.0005005588, -0.0041537257, 0.0721830428, 0.0623120368, -0.0000747660, -0.0014618536, -0.0707486942, 0.3675628603, -0.2901016772, -0.2203857154, -0.0001938323, -0.0039361445, -0.0206978731, -0.0085425358, -0.0048266873, -0.0002086805, -0.0006513167, -0.4606433511, -0.4009618759, -0.6159560680, -0.0000417053, -0.3121992946, 0.1147418991, 0.0005115454, -0.0038419398, -0.0023329901, 0.1763870716, 0.0411054306, 0.0000631157, -0.0225607250, -0.0018683756, -0.1707558632, -0.0575608723, -0.3330092132, 0.0009355384, -0.0015586183, -0.2246614844, 0.0031890897, 0.0017365784, -0.0211204030, -0.0052185114, 0.1593233496, 0.0000893136, 0.0016138835, 0.0007021443, 0.0011667463, 0.0051745605, -0.0000468039, 0.0043520154, 0.0021077257, 0.0003518568, 0.0572396778, -0.0402000099, 0.0543389134, -0.0030772930, 0.4202656150, 0.0008927922, 0.0002867359, -0.0092635620, 0.0063329353, 0.0000694828, 0.0037418881, 0.0416061878, 0.0033790148, -0.0006869744, 0.3844385147, -0.0996564776, 0.0040647071, -0.0029504902, -0.0008706966, -0.0015662995, 0.0007350341, -0.1337937415, 0.0049079093, 0.0000729198, -0.0024842159, 0.0003605569, -0.0004620398, -0.1820604354, -0.0000146212, 0.1293767244, 0.0956501365, 0.0011206497, 0.0061349594, -0.0000261353, -0.1130604520, -0.5869889259, -0.0200782157, -0.0017773894, -0.0070969132, 0.1033860594, 0.1043659598, 0.0000045032, 0.0000806660, 0.0002844498, -0.0091231903, 0.0013964560, 0.1197000220, -0.0228087828, 0.0683237314, -0.0711256266, 0.0099349711, 0.0070752040, 0.1467908323, -0.0051748115, 0.0914151445, -0.0000493364, -0.0084744673, 0.0019802665, -0.0028539372, -0.0631159618, -0.0000282340, -0.0002057381, 0.0487382524, -0.0028058032, 0.1036763638, -0.0177817456, 0.0060377549, -0.1491622776, -0.2687217593, -0.0015743804, -0.1591786742, 0.0028903198, -0.0516115539, -0.0000250110, 0.0087691080, 0.1059961319, -0.0074497322, -0.0000984595, -0.0000751558, 0.0000485584, 0.0001589637, 0.0001290133, 0.0000902731, 0.0000074498, -0.0001876315, -0.0001155609, 0.0001197780, -0.0000338290, 0.0000180330, -0.0002348403, 0.0001392224, 0.0000565221, 0.0000936093, 0.0000179733, 0.0001355451, 0.0001316359, -0.0000859023, 0.0001063428, -0.0000484619, -0.0000470309, -0.0000431678, 0.0000895361, 0.0001535270, -0.0000563695, -0.0000657969, 0.0000299623, -0.0000030844, 0.0002199351, 0.0000689839, 0.0002374988, 0.0066092969, 0.0068598720, -0.0009799474, 0.0535347946, 0.0500703678, 0.2176670134, 0.0072045517, -0.1492293775, 0.0984546021, -0.0000532763, 0.0007817606, 0.0006273580, 0.0862192735, 0.4162220955, 0.0000185110, 0.0284871515, -0.1131403744, -0.1460878998, -0.0045114197, -0.4304087162, 0.0053124223, 0.0682009086, -0.2224294394, 0.0004862294, 0.0766742378, 0.0018890362, 0.0067928159, -0.0000031266, 0.2003163993, -0.0739740580, 0.0084832087, -0.0015933315, 0.0873957872, -0.0402618162, 0.0024708272, 0.0041696075, 0.0008872762, -0.0018448257, 0.0118693812, 0.0396519378, 0.0012216137, -0.0000951128, -0.0027634436, -0.0002355934, 0.0008981082, -0.0272741225, 0.0001054980, 0.0031807886, 0.3391667008, 0.0000727917, 0.0954342633, -0.0084149307, 0.0796114430, -0.0574407838, -0.0036565806, -0.0006686832, -0.0073589454, 0.0016169326, 0.0062816162, -0.0000105975, 0.0029495119, 0.0003681227, -0.0014462483, -0.0066895941, -0.0086417850, 0.3201555908, 0.0001266982, -0.0023506295, -0.0008403960, 0.0007438297, -0.0026975274, 0.0042328327, -0.0045967321, -0.0001312584, -0.0004980955, -0.0000937825, -0.0009251187, 0.0082490239, 0.0000329366, -0.0057937587, -0.0002022842, -0.0993525535, -0.0003969470, 0.0006979922, -0.0047129118, 0.0045811580, 0.0027273272, 0.0000700247, -0.0006455110, 0.0000626253, -0.2535034716, -0.0000798801, -0.0003601942, -0.0009018464, 0.0015089761, 0.0017180821, 0.1990337223, 0.0011311573, 0.0013252768, 0.0020633112, -0.0005612418, -0.0008896687, -0.0009899579, -0.0000879804, 0.0762397125, -0.0001703435, 0.0014889856, -0.0001305779, 0.0591649339, -0.0461914390, -0.0001614343, 0.0013611936, 0.0907826871, -0.0664605945, -0.0000336122, -0.0017264574, 0.0842923671, -0.0008057553, -0.0013656680, -0.0006471191, -0.0006485784, 0.0009127978, -0.0014900129, -0.0000609322, 0.0030591674, -0.0011515825, 0.0015000851, -0.0637775362, 0.0070600570, -0.0049737999, 0.0190230291, 0.0226517841, 0.0800494775, 0.0011835078, -0.0325640514, 0.0838477239, -0.0428081080, 0.0001936419, -0.0141609907, 0.0006463168, -0.0229800157, -0.0137983728, -0.0001505449, 0.2679159641, 0.0248314943, 0.1293295920, 0.0058986191, -0.0027098767, 0.0052180546, 0.0014902492, -0.1874678433, -0.0002305945, -0.0035714975, 0.0228447244, -0.0043658186, 0.0000676026, 0.0026679379, 0.0040234895, -0.0179499816, 0.0000392206, -0.1592528075, 0.0017652903, 0.0436472856, -0.1371464729, 0.0013399167, 0.0009609428, 0.1555781066, -0.3548350632, -0.0007216975, -0.0000548153, -0.0033338706, -0.0033091595, -0.0052703558, 0.0013844436, 0.0001593300, -0.0006531648, -1.0203471184, -0.2141189873, -0.7151347995, 0.0000874455, -0.0740649030, 0.0036674561, -0.0005286122, -0.0032486636, -0.0024371315, 0.0355984345, -0.0006446474, 0.0000248850, -0.0000996510, -0.3683619499, -0.0413310751, -0.3732232153, 0.0022621769, -0.1922439039, 0.0039929207, 0.0010787677, 0.0038172149, 0.0008035075, 0.1855493039, -0.1546273082, -0.0004684917, -0.0000741573, -0.0071335067, 0.0005224390, -0.0008044583, -0.0159346592, -0.0001372182, 0.0581168830, 0.0444247797, 0.0067426558, 0.0048673721, 0.0000610145, -0.0318759158, -0.1527443677, 0.1189974695, -0.0012186063, -0.0531260520, 0.2778956592, 0.1006751955, 0.0000596007, 0.0027442961, 0.0077162338, 0.0001692823, -0.2450261861, -0.1149794310, -0.0563129261, 0.0027532207, -0.3320717514, 0.0014098894, -0.0002132722, 0.4086358249, -0.5339050293, 0.0006060461, 0.0002190667, 0.0006445428, 0.0002939883, -0.0084040258, 0.0802661404, 0.0000952749, 0.1401421428, -0.2334392667, 0.0007661803, -0.1426203251, 0.0015838871, 0.0368296020, 0.1060439348, 0.2319520563, -0.0019562724, -0.0841881782, 0.0080178706, 0.1441852450, 0.0000877535, 0.0030420735, -0.6024920344, -0.2259690017, 0.0010741558, -0.0006123260, 0.0002747126, 0.0026917553, 0.0031546864, 0.0013388585, 0.0005617683, -0.0005340715, -0.0011394622, 0.0009799007, 0.0000465806, 0.0003189986, 0.0004557146, 0.0009506675, 0.0006134479, -0.0001004175, -0.0003321771, 0.0013697828, -0.0000778371, 0.0002189598, -0.0072676232, 0.0217443053, 0.0002251948, 0.0456763208, -0.0004720576, -0.0008342470, -0.0013761079, -0.0017067753, -0.0001888169, 0.0053172489, -0.0007571696, 0.1701980084, 0.0335182138, -0.0050078859, -0.1136823073, -0.0004324268, 0.3252639174, 0.0110039888, -0.0021858856, -0.0012619712, 0.0655684918, -0.1122935489, 0.0001527585, -0.0079164905, 0.0005232109, -0.0260914434, -0.3892692626, 0.0001540711, 0.0230682548, 0.2895226479, 0.0751054212, 0.0047655459, 0.2749845684, 0.0049259574, -0.0004097989, -0.1207556725, -0.0004427515, -0.0037002037, -0.0058256923, 0.0009287194, -0.0000066820, -0.0086681256, -0.0113004278, 0.0028707751, -0.0024380127, 0.1209594607, 0.0882028341, 0.0001613012, 0.0198698603, -0.0008610099, 0.0018538621, 0.1271360517, 0.1408351660, -0.0012390912, -0.0001432769, 0.0006964250, -0.0009119323, -0.0003307735, 0.0025382037, 0.0001650542, -0.0003173912, 0.0034864510, -0.0099113574, -0.0009074814, 0.0001833706, -0.0012355788, 0.2596392334, -0.0031521188, -0.0001825220, -0.0002436896, -0.0002663403, -0.0003431223, 0.0002928654, 0.0021901522, -0.0023419596, 0.0000437685, 0.2696888447, 0.0556955747, 0.0325743146, 0.0021371951, 0.2497582138, 0.0011590051, 0.0004036063, 0.1374250948, 0.3184457719, -0.0743775517, 0.0000159157, -0.0002046662, -0.0002422748, -0.0016090957, -0.0552899651, 0.0000806952, 0.0007483261, 0.1739694923, 0.0010713481, 0.3982599080, -0.2340589464, -0.0008978911, 0.0205965620, -0.0437646993, 0.0007572406, -0.0063184081, -0.0022609327, -0.2577491999, -0.0000199198, -0.0005442576, 0.0357207470, 0.2152066976, -0.0021009624, 0.0275250636, 0.0016187837, 0.0928297415, 0.0026803964, 0.0060802069, 0.0013171805, -0.0001341567, 0.0565503612, -0.0017857368, 0.0001191761, -0.0012584373, 0.0003879154, 0.0017324238, 0.0023080909, 0.0000065268, 0.0867233351, 0.1364649385, -0.0011952389, 0.0011141701, -0.0067293877, 0.0032408440, 0.0011703512, -0.0043716584, -0.0006677313, -0.0007899104, -0.0049607949, -0.0010805200, -0.0001243400, 0.0055766567, -0.1770066619, 0.0020295405, -0.0012577458, 0.0020061275, 0.0000867421, -0.0001616150, 0.0007900322, 0.0001021656, 0.0002184398, -0.0009506482, -0.0091121541, 0.0002957960, -0.0000031449, -0.0008131625, 0.0003739033, -0.0006576494, 0.0037325630, 0.0001909333, 0.0280409921, 0.0066502863, -0.0002223476, 0.0006150604, 0.0006000141, 0.0933381245, 0.0009762704, 0.0049940175, -0.0001431867, 0.0003914787, -0.0009124721, 0.0008726776, 0.0000010805, -0.0003763225, 0.0653775632, 0.0013324738, 0.1261844039, 0.0001330782, 0.0008546538, 0.0012217965, 0.3475658298, 0.0029363499, 0.0002508173, -0.0012702438, 0.1978139579, 0.0009225234, -0.0001967015, 0.0025095146, 0.0007220486, 0.0046008574, 0.0007205210, 0.0001099380, -0.0003568032, 0.0021737227, 0.3915052712, -0.0022436201, -0.0021941527, -0.0052383975, 0.0015854362, 0.1665013134, 0.0013589956, 0.0001311239, -0.0084768161, 0.0000855309, 0.0001594149, 0.0009232525, 0.0012851595, 0.0850420967, 0.0000232319, -0.0062264078, 0.1026420444, 0.2612691820, -0.1924194545, 0.0070637572, 0.0024493886, 0.3270905614, -0.0312634148, 0.0026983183, 0.0001097258, 0.0003928014, 0.0007405115, -0.0009751176, -0.0038278117, 0.0000303874, -0.0010753802, -0.0006996217, -0.1086705774, 0.0014071742, -0.0013449629, -0.0015417815, 0.1959976852, -0.0006650100, -0.0016788899, -0.1512981951, -0.0013215058, -0.5731024742, -0.0001031748, 0.0040179924, -0.0040409155, -0.0129288547, 0.1159199774, 0.1749301404, 0.0019812756, 0.0014941761, 0.1458741426, -0.1071155444, -0.0003702488, -0.0237618443, 0.1091959551, -0.1614926904, -0.0002261360, 0.0010003719, -0.0004053140, 0.0024515481, 0.0016244003, 0.0002987071, -0.0002521589, 0.0006603278, 0.3457742035, 0.1268280894, 0.0032828993, 0.1381272823, 0.0013655639, 0.1738769561, 0.0004491876, 0.0362539366, -0.0040803151, 0.1455620676, 0.0000130173, 0.0025251708, -0.0019916061, 0.2354853302, 0.0048014848, 0.0004463360, -0.0001873204, 0.0043856972, 0.0587167069, -0.0016919542, 0.0003744323, -0.0002966182, 0.1513782144, -0.0014802922, -0.0001771835, 0.0004094234, -0.0003931469, 0.0000090974, -0.0010038276, 0.0000568011, 0.0006331647, 0.0006194240, 0.0375785381, -0.0016456984, 0.0001045789, -0.0006088455, -0.0001655162, -0.1861482412, -0.0007697921, -0.0035903761, 0.0017636728, -0.0017379486, -0.0000372553, 0.0011529266, -0.0045566470, -0.0002617764, 0.0017229414, 0.0095315259, -0.0155724194, 0.3008738160, -0.0238170754, 0.1366360039, -0.0007983198, 0.3625588417, 0.0017605582, 0.5026260018, 0.0000453063, 0.0236505568, 0.0001181187, -0.0521555394, -0.2009632736, 0.0000476240, 0.1982231289, 0.0654952377, -0.0001456339, -0.0007517467, -0.2160548717, 0.3595980108, -0.0014950191, -0.0198518727, 0.0006260494, -0.1493755132, 0.0358088315, -0.0414388180, 0.0000199247, -0.0385991819, 0.4133764505, -0.1783546954, -0.0041248584, -0.0063401172, 0.2809509933, 0.0004853405, -0.0092155952, 0.0031552471, -0.0003742999, 0.0061403392, -0.0039227484, -0.0109286271, 0.0000205013, 0.0008395671, -0.0006943092, 0.0007496597, 0.0080171404, 0.0002095658, -0.0063883271, -0.0041886894, -0.0798132196, -0.0001901080, -0.0001738460, -0.0317974463, 0.0472344235, 0.2019721419, -0.0010022905, -0.0020671731, 0.0022328587, 0.0036847848, 0.0001295367, 0.0005423909, 0.0004309778, -0.0006713891, -0.0780406594, -0.0033425626, 0.4851497412, -0.0006197280, 0.0010760770, 0.0006177713, -0.0002336602, 0.0124799488, 0.0064937505, -0.0901070610, 0.0000235630, 0.0004078603, -0.0001147116, 0.0021034591, 0.4524541795, 0.0000224561, -0.0004117674, 0.1225421727, -0.1330387741, 0.0016607617, 0.0224622227, -0.0228255987, 0.4902235568, -0.1113819182, -0.0004664812, 0.0374098420, -0.0038656043, -0.0746959597, 0.0001221195, -0.0058926563, -0.0003114126, 0.0809722692, 0.0055768308, -0.0999701992, 0.1041623205, 0.0002809448, -0.0043415320, 0.0025638207, 0.0376134627, -0.2460239977, 0.0554103144, 0.1765158623, -0.0001100746, 0.0010022596, 0.0001352528, -0.0885058418, 0.2461984605, -0.0000021100, -0.0010612621, 0.0020521504, 0.0018931292, 0.0004825641, -0.0063507920, 0.1222428009, 0.0130300634, 0.5120747685, 0.0004258261, 0.0047241491, -0.0931437612, -0.0005700360, -0.0000865905, 0.0004350538, 0.2255097479, 0.1445575953, -0.0516091585, -0.0043611922, 0.0675571412, 0.0003008574, -0.2610132396, 0.0043296679, 0.2319466174, -0.0312216859, -0.0017161046, 0.3143097460, 0.0000352813, 0.0616440438, 0.0004289261, 0.0024513332, 0.0512212738, -0.0000980188, -0.0028710400, -0.0178663209, -0.1021904424, -0.0240191929, -0.0055621020, -0.0053057862, 0.0178447794, 0.2180481106, 0.0004664555, 0.0017237194, -0.0012948185, -0.0010526590, 0.0001320926, 0.0032388992, 0.0437594652, 0.0023311109, -0.0343532190, 0.0013831324, 0.0867142007, 0.0016096386, 0.0088779265, 0.0007843291, -0.0003577575, 0.3196076155, 0.2140683681, -0.2853775322, -0.0002374719, -0.0724262744, -0.0000282292, -0.1055975705, -0.0109501518, -0.0000085269, 0.0007980033, 0.0462669954, 0.0000061454, 0.0523984581, -0.0001042962, 0.0016126565, 0.0001137764, -0.0000185193, -0.0014391277, -0.0791257992, 0.1173376814, -0.0015493156, 0.0000583484, -0.0020447820, 0.0047374866, -0.0007521561, -0.0009118037, 0.0072261575, -0.0960605219, 0.0003041315, 0.0010897951, -0.0009635934, -0.0017832427, -0.0015418259, -0.0981627405, 0.0958013237, 0.0000454901, -0.0010470947, -0.0000532120, 0.0026085817, 0.0560011454, 0.0001712716, 0.1899434179, 0.0090240967, 0.1142830476, 0.0021754378, 0.0095477309, 0.2798241377, -0.2380276769, 0.3600012064, -0.0001521886, -0.0017187636, 0.0000748337, 0.1813910604, -0.0001391656, 0.0028944076, 0.0028692530, 0.0026167904, 0.2905490100, 0.0032195644, 0.0184503905, 0.0026015041, 0.3668985963, -0.0622086227, 0.0033694839, -0.1235157400, 0.3540298343, -0.4220047891, -0.0000017491, 0.0024099103, 0.0001826762, -0.0682273433, 0.2384414077, -0.0000124676, -0.0124079287, -0.0027020487, 0.0820541754, -0.0008498258, -0.0047633937, -0.0030644215, 0.0000623175, 0.0512047894, -0.0002559925, 0.1096600294, -0.2494058609, -0.0036898069, 0.0000688788, 0.0058889454, -0.1727982610, 0.2423820049, 0.0007303725, -0.0026386222, -0.0001681943, 0.0023160402, 0.0270774607, -0.0020170324, 0.0011567363, 0.0015993065, 0.0041960664, 0.0001893695, -0.0001502239, -0.0000418435, -0.0010497960, 0.0000711014, 0.0006119198, 0.0001031931, 0.0013334628, -0.0009732992, 0.3994909227, -0.0012329994, 0.0000432805, -0.0045469012, -0.0026006619, 0.0006823022, -0.0003102842, 0.1291223913, 0.0020283707, -0.0009925260, 0.0000506331, 0.0013700206, -0.0003870213, 0.0311592482, -0.0003371414, 0.0305377524, -0.1060538664, 0.0005449130, 0.1205466539, -0.0016679578, 0.0001992388, 0.1403249353, 0.1209165007, -0.1553470343, 0.0002577964, -0.0039954120, 0.0002866312, 0.0003861370, -0.0344209597, -0.0001717964, 0.0125635779, 0.0044763070, 0.2780079842, 0.0005366408, 0.0001993348, 0.3503821790, -0.0003443343, -0.0003155327, -0.0008755478, -0.0105496747, 0.0200038776, 0.2875258029, 0.0000949272, 0.0009201422, 0.0022864342, 0.0003156826};
#endif

#endif
