//Numpy array shape [32, 32]
//Min -1.898601055145
//Max 0.772830784321
//Number of zeros 0

#ifndef W8_H_
#define W8_H_

#ifndef __SYNTHESIS__
model_default_t w8[1024];
#else
model_default_t w8[1024] = {0.0004089992, -0.0002910563, -0.0509532355, 0.0024054397, 0.0003617199, 0.0012570049, -0.3036578596, -0.6531628966, -0.4250085950, -0.0016977102, 0.0003343162, 0.2755963206, -0.0001245643, -1.2338314056, -0.0058066915, -0.3570576012, 0.0000269551, -0.0004314925, -0.1619116366, -0.3136292696, 0.0004957701, -0.0001954847, -0.6519184113, 0.0007065517, 0.0147458045, 0.0000845165, -0.0008173961, 0.0023825718, 0.0078606298, -0.0000476604, -0.0020209777, 0.0001736868, 0.0923939869, -0.0019135852, -0.0008485231, -0.0011158016, 0.0007999534, 0.0006124870, -0.0041200342, -0.0088404678, 0.6171277761, 0.0022892682, -0.0156757366, 0.0300027281, 0.0000904093, 0.0029161361, 0.0018982192, -0.0004487924, 0.0011489040, 0.0032096615, -0.0021997599, -0.0007527035, -0.7152293921, 0.0016314317, -0.0200864617, 0.0003631677, 0.0641064867, 0.0003824175, 0.1285828054, -0.0057675242, -0.0074680471, 0.0001186898, 0.0025661064, -0.0000364932, 0.0007027950, -0.0002724633, 0.0505528338, 0.0013916995, -0.3280655742, -0.0068062185, -0.0030688515, 0.0015576220, 0.0141756358, 0.0010937748, 0.1680519879, -0.0009770449, -0.0000791950, -0.2119400799, -0.2446729541, -0.1577215791, -0.0003916832, -0.0063639050, 0.1153999269, 0.0892464444, 0.0267218426, 0.0050448375, 0.0561951846, 0.4435485005, -0.0008855507, 0.3955898285, -0.0015442863, 0.3173332512, 0.0091811502, -0.0001518885, 0.0012761283, 0.0001159776, -0.0002073103, -0.0016474978, 0.0859678984, 0.0000610119, 0.1245538071, -0.0011782990, -0.0021436152, 0.0029620356, 0.2633902729, 0.2480750084, -0.0004172903, -0.0002725999, 0.0000434534, 0.0011751530, -0.0005641503, -0.0445117950, -0.0018084375, 0.0000070353, -0.0012695193, -0.0013814939, -0.0003964568, 0.3264335692, 0.1916876882, 0.0003539920, 0.1401258111, 0.0016004470, 0.2430803329, -0.0726543814, 0.0674534515, 0.0000191410, 0.0004963863, -0.0000198276, -0.0368708074, 0.1544675231, -0.2895668447, 0.0001076841, 0.0731848255, 0.1028946564, -0.2919844389, -0.0363809057, -0.2509477139, -0.0000458744, 0.4053831100, 0.0052056606, -0.0001634841, -0.0003522125, 0.2301817685, 0.0122180143, -0.0158427265, -0.0053679948, -0.4626648128, -0.1090880036, 0.0185256153, 0.0273758192, -0.9769604206, -0.0101095773, 0.0517585799, 0.0024276073, 0.0023527404, 0.2529263198, 0.0068951640, 0.0002416585, 0.0611426309, -0.0000248037, 0.0005394063, -0.0010731191, -0.0001452922, -0.0018176554, 0.0009040188, -0.0014872827, 0.0001852118, 0.0005164742, -0.0001577658, -0.0012196818, -0.0047614388, -0.4754316509, -0.0000170579, 0.0004229534, 0.2514905334, 0.0024078928, -0.0009919289, -0.0008976700, 0.0006385093, -0.0025454757, -0.0012340822, 0.0000760591, 0.2738825381, -0.0005870886, -0.0000508871, -0.0014435989, 0.0001714947, -0.3822623491, -0.0005067172, -0.0001685101, 0.1956190616, 0.0002325764, 0.0021231086, -0.0008740377, 0.2298094928, 0.0005108229, -0.0002179806, -0.0006366889, -0.0001694619, -0.0003141042, -0.0014497536, -0.0004925154, 0.0012361066, 0.1161438674, 0.0000411295, -0.0040338445, 0.0033765084, 0.0018493609, -0.0238059964, 0.0006801795, -0.0000967959, 0.1110327467, 0.0167048406, 0.0981725454, 0.2387780249, 0.2944153547, 0.3037630022, -0.0014461804, -0.0017090124, 0.2421078086, -0.0016344925, 0.0000315622, 0.0036268402, 0.0000493199, -1.0904979706, -0.0017691802, -0.0582161509, -0.0386714675, -0.3593118191, 0.0933942348, -0.1129697934, -0.2061731070, 0.1262716800, 0.1945743114, -0.2386789024, -0.0009239269, 0.0000126338, -0.1586002856, 0.0335407034, -0.0293214116, -0.8427366018, 0.2513264716, -0.0118019283, -1.2669935226, -0.0554427318, 0.1306069791, 0.2123693675, 0.2354057580, 0.2422184050, 0.0013817520, 0.1970137209, -0.1070077121, 0.1725685149, 0.0000270789, -0.2661460936, 0.0000576933, 0.2569026947, -0.0006670791, -0.8936239481, -0.0008611197, -0.0021428023, 0.4013589621, -0.2029889971, -0.0268342122, -0.0511531718, -0.2463505417, 0.3145321310, 0.1551858485, 0.0002366049, -0.0040659923, -0.0019787441, 0.0020957803, 0.0003844940, -0.0026271231, -0.2561673522, 0.2030959278, 0.0010914349, 0.0089951502, -0.8926634192, 0.1263311505, 0.4252670705, 0.0017809301, 0.5309656262, 0.2608459592, 0.0061638919, 0.0000644834, 0.2323903143, -0.0000817976, 0.3124647439, -0.0012682872, -0.0285607930, 0.0002548151, 0.0001646284, -0.5330252051, -0.1420060992, -0.3594602644, 0.4568091333, -0.0049047000, -0.0037633865, -0.0147760641, 0.0000396855, -0.0068124980, -0.9635053873, 0.0022033644, 0.3582787216, -0.1276524961, 0.5066333413, 0.2920390069, 0.0009477552, -0.0037988275, 0.3376884460, 0.0053023873, 0.3044235706, -0.0008884032, 0.6205249429, 0.0001014330, -0.0034719612, 0.0001704671, -1.4871892929, 0.0000593398, -0.0002492632, -0.0000023279, -0.0000806983, 0.0000641697, 0.0000992879, 0.0002108769, 0.0002703304, 0.0000967111, 0.0001875858, 0.0001327872, -0.0001211555, -0.0000828916, -0.0003788470, 0.0001477573, -0.0000517595, 0.0003471249, 0.0001540069, 0.0001433763, 0.0001046166, -0.0000815459, -0.0000336049, 0.0000243936, -0.0001916088, 0.0001390646, -0.0001782129, 0.0000072876, -0.0000657219, -0.0002100203, -0.0002479132, -0.0000099919, -0.0000206961, 0.0003993770, 0.0006727830, 0.0007010500, -0.1609482467, 0.0005693497, 0.0002103348, -0.0016558552, -0.2092467248, 0.0003009986, 0.0255620386, 0.0034974872, 0.0000936853, -0.0017491978, 0.0000741162, -0.0041709724, 0.0001822140, -0.0003595756, 0.0006128653, -0.0373394117, 0.3704011738, -0.0669835210, 0.0451354347, -0.0002269862, 0.0107109696, 0.0023881414, 0.0017067074, 0.0018165947, -0.0009319818, 0.0010467733, 0.0049949759, -0.0001248566, -0.0008845225, -0.0001069944, 0.0001196250, -0.0006674616, 0.0913555175, -0.0011203201, -0.0001672239, -0.0013141425, -0.0002524960, -0.0003570318, 0.0009342753, 0.0002542022, 0.0003371852, 0.0008206466, 0.0001782019, -0.0004189637, 0.0016118864, -0.0001348555, 0.0001905614, -0.0022508504, -0.0013477913, 0.0009826373, -0.0013427739, 0.0012931873, 0.0002855391, -0.0001711993, 0.0004496610, 0.0001330812, 0.0016982920, -0.0002345978, 0.0005084784, 0.0000155880, -0.0004113859, -0.0002458483, 0.3497901559, -0.0000260368, -0.1266800463, 0.0010376556, 0.0003065532, -0.1186934635, -0.0034350816, -0.0256829169, 0.2314968705, -0.0008031431, -0.0001690907, 0.1344448179, -0.0001681487, -0.0223497543, 0.0086513488, -0.0191480555, 0.2575635314, 0.0002924349, 0.2001757026, -0.0023991666, 0.0008053271, -0.0047385232, 0.0143339299, 0.0013084839, 0.2852478325, 0.0011396826, -0.0052054720, 0.0016589244, -0.0044719079, -0.0000581306, -0.5064291954, -0.0001748185, -0.0080442205, -0.0011683289, 0.3522483706, 0.1609171480, 0.1254873723, 0.0011173852, 0.0632518008, -0.2959158123, -0.1281312853, 0.0011951964, 0.0065326975, 0.0036039383, -0.0000379833, 0.0028826541, -0.4660399556, -0.1499806345, -0.0064342325, 0.0015152295, 0.0055632535, -0.3874936104, 0.1827344000, -0.0001471328, 0.0045739859, 0.0252245776, -0.2466626465, -0.0001198505, -0.0045209443, 0.2154959440, -0.0023262159, -0.0000549052, -0.2261465937, -0.0000506535, 0.0000401674, 0.0000210085, 0.0000439490, 0.0001347094, -0.0000151344, -0.0000366978, 0.0001120476, 0.0000224696, 0.0000719349, -0.0000731881, 0.0001783530, 0.0002584131, -0.0000454006, 0.0001156605, -0.0000520426, 0.0000471431, -0.0001080452, 0.0000005267, -0.0000843561, 0.0001220621, -0.0000980248, 0.0001558052, -0.0000668288, -0.0000621233, -0.0000448376, -0.0000091788, 0.0000941254, -0.0001386657, -0.0001271705, 0.0000910046, -0.0000781016, -0.0001317150, -0.1195731387, -0.0013746481, 0.1486763954, -0.0281521343, 0.1182622612, 0.1575632542, 0.1558837444, 0.0219686851, -0.0116724558, 0.0969908759, 0.0012030739, -0.7515136003, -0.0000702943, 0.0028220490, 0.3668266237, 0.1685300171, -0.0011855930, 0.1423406601, -0.2965056598, 0.0355970524, 0.0001856618, 0.3396773040, 0.0029314698, -0.1261294037, 0.0000753362, 0.0013364595, 0.0440897457, -0.1499376446, 0.0799885616, 0.0000957563, 0.0010812547, 0.0000732522, 0.3922636509, -0.0017252848, 0.0854218900, -0.0014165897, 0.2401238680, 0.0425521620, 0.0014530065, 0.2613950372, 0.0027216366, 0.0056871492, -0.0015890804, 0.4904074967, -0.0000417762, 0.0120573677, -0.0002581877, 0.3473389149, 0.4006843269, -0.0012921060, -0.0295507889, 0.7537996173, -0.0008375003, -1.2222852707, -0.1812967807, -0.0479406193, -0.0729068592, -0.0111947823, -0.0236455780, -0.0346509852, -0.6499755979, 0.0000782676, 0.3575297892, -0.0000498092, -0.0018009817, -0.0016272673, -0.4498558640, -0.0016715314, 0.1222781092, -0.0051861503, -0.0094827926, -0.0181806330, -0.2176131904, -0.0023455811, 0.2213298827, 0.0139480708, 0.0000456444, 0.0366435088, 0.0405387469, 0.1337375641, -0.0012135025, -0.0425113030, -0.0020504305, -0.0091824215, -0.0011328349, 0.0089752600, -1.8986010551, -0.1084212661, -0.0027379321, 0.0021347729, 0.0040152604, 0.1371078193, 0.0400505550, 0.0002270269, -0.0076092742, 0.0000145967, 0.6196026206, 0.0000372628, 0.0032567785, 0.0018383982, 0.0008196463, 0.0049486202, 0.0024847137, 0.4141283631, -0.0029429938, 0.0006068213, -0.0006087468, 0.1041475832, 0.0001899999, 0.2426079214, 0.0471766554, 0.0024567167, 0.6195740104, 0.0004282009, -0.0580444001, 0.1245128810, 0.0018700123, -0.2165029049, 0.0031311798, 0.0006421328, -0.4045448005, -0.0017041452, -0.0346800461, -0.0012658477, -0.0024609752, -0.0000789483, 0.3649514914, -0.0000549011, -0.0005903607, 0.0004904656, 0.3447910845, 0.0031755394, 0.6768998504, 0.0011536124, 0.0007102223, 0.0009539754, -0.1069907770, -0.0036927343, -0.2027070522, -0.4202081561, 0.0000585739, -0.0045154854, 0.0013349433, -0.1664420366, 0.0000318223, -0.0000176550, 0.0030764719, -0.6143919230, 0.0024985257, -0.0000073869, 0.0028859896, 0.0010077424, -0.5926855803, 0.0003347692, -0.3399985731, 0.0042299093, -0.0001041048, -0.0001783831, -0.0003152930, 0.0001757443, 0.1552975178, -0.0006833685, 0.1018201858, 0.0001357179, 0.2928686440, 0.0014822206, 0.4957827926, 0.4638099372, -0.0036407788, 0.0033541746, -0.0527148731, -0.8157241940, -0.0000437431, 0.6874052882, 0.1592884958, 0.0015120901, 0.0010689243, 0.2374454439, -1.1923204660, 0.0573978610, -0.0014441055, 0.0765841752, -0.0025380973, 0.0002541670, -0.0445202552, -0.0284613781, 0.0006172505, -0.2184557468, -0.0026834689, -0.0000827579, 0.2528690398, -0.0001005476, -0.0061921813, -0.0001895981, -0.0019044958, 0.2252957076, -0.0311051179, 0.0164978672, -0.0030919788, 0.0768778473, -0.0927715600, -0.2030448318, 0.0233547930, -0.0000682028, -0.0000317914, -0.0321449116, -0.0024482959, 0.0085179564, -0.0058840932, -0.0045661093, 0.0016250225, 0.0368412249, 0.4855477512, -0.0002640010, 0.2397421151, 0.4761446118, 0.1186732128, 0.2449727058, 0.2533420026, 0.0014694941, 0.2667325735, -0.0000310768, -0.0100916000, 0.0002853504, 0.0841029733, -0.0021453158, 0.4735220671, 0.5697095394, 0.5275796652, -0.0044154422, -0.0008661252, 0.0014414383, -0.0561369248, 0.0029061462, 0.0032437518, -0.0930870846, 0.0000887795, 0.0988600031, 0.0000982218, -0.0058112494, 0.0010719690, -0.1073243916, 0.3804544508, -0.1238950118, 0.1819124967, 0.0066768709, 0.1879200786, -0.0009358526, -0.5718002915, 0.0010212909, -0.2185654640, 0.1952487230, 0.0972341970, 0.0001402461, -0.0006195818, -0.0000233614, -0.0000449121, -0.0004423232, 0.0008149789, 0.0001332511, 0.0335529149, -0.0005094138, -0.0010678057, 0.0008539783, -0.0012259777, -0.0002821298, 0.0017442486, 0.0002960683, 0.0001161276, -0.0004299061, 0.1064746827, 0.0002901471, -0.0003278948, -0.0015456903, -0.0015336281, 0.0009356095, 0.0251672361, 0.0009651260, 0.0015995675, 0.0002417356, 0.0000038959, 0.0008517355, 0.0016958721, 0.0186369941, 0.0008448367, -0.0001526370, -0.0005124462, -0.0001720450, 0.0010881473, -0.0009256603, -0.0471644215, 0.0304728635, -0.0984531790, -0.0046886248, -0.0057162317, -0.0175744388, -0.0024265379, 0.0003557928, 0.3337332308, -0.0003398229, -0.0000633044, -0.0002574376, 0.1178313717, -0.0022163519, 0.0014061769, -0.3963989019, 0.1044577286, -0.1739580631, 0.2590194345, -0.1844103634, -0.4143051207, -0.0025196301, -0.0002233517, 0.0022910933, -0.3351000845, 0.1474002600, 0.0045236289, -0.0001603908, -0.0085743163, 0.0000553994, -0.6999576688, 0.0334716253, 0.1703273058, -0.0295035671, -0.0028435332, 0.1192488894, -0.2392782718, 0.0054867920, 0.0885902643, 0.0017203826, -0.2399272323, 0.0000484256, -0.0002755398, -0.1110620499, 0.1253293902, 0.0077053639, -0.4702948034, 0.2329153866, -0.0142949866, -0.1257456243, 0.0028328842, 0.2390949428, 0.4145068526, -0.2137107402, 0.0257502608, -0.1175509840, -0.0138636800, -0.0932015032, 0.0011762525, -0.0001054700, 0.1845351607, -0.0000192799, -0.2855907083, -0.0019294383, 0.1188572496, -0.0002722116, 0.2961073816, -0.0943336934, -0.0039706263, 0.0005364100, -0.0301399976, 0.0009759857, 0.3406127095, 0.0007064961, -0.0000969542, 0.1790345758, 0.2559471726, 0.2084715217, -0.0796362609, -0.0696174949, -0.0168445706, -0.0075815930, 0.0035361238, 0.0031658884, -0.1043866202, -0.3125629127, -0.0697180703, -0.0244637709, -0.5280423164, 0.0870979205, 0.0040217848, -0.0001735965, -0.0017056223, 0.0000767446, -0.0000352879, 0.0000292325, 0.0001299557, 0.0000661405, 0.0000428749, -0.0000272217, 0.0001383519, 0.0001436631, 0.0001956684, -0.0000952131, -0.0001098682, 0.0001459714, -0.0003394447, 0.0000617587, -0.0000433754, -0.0001697371, -0.0000498903, -0.0000167846, 0.0000872298, 0.0001554398, -0.0001834265, 0.0000426447, 0.0000735325, -0.0001931473, 0.0000633304, -0.0000505437, -0.0000200378, 0.0000259401, 0.0001704676, -0.0000607000, 0.0000410957, 0.0003194587, 0.0260684285, 0.0003710447, 0.0542495586, 0.0013319573, 0.0715538785, 0.0013456999, 0.0038769259, -0.0188636072, 0.0061122514, 0.0015887722, -0.0479395203, 0.1324276626, 0.0000849912, -0.0078044394, 0.5050494075, -0.1234734133, 0.1958874315, 0.0026327674, 0.1721265763, -0.0394062661, 0.0013814670, -0.2060691863, 0.1880221665, 0.0027551795, 0.2344350219, -0.0010846443, -0.0060484121, 0.0032675182, -0.2468121350, -0.0000296322, 0.0049615470, 0.0001381655, 0.2306418270, -0.0008488263, 0.7728307843, -0.0011061496, 0.1140466556, 0.0112983789, 0.0025751884, -0.0006354138, 0.0033831268, 0.0046053906, -0.1521560252, 0.2375006527, -0.0001474625, 0.1207400635, -0.8717425466, 0.3287205696, 0.1403684616, 0.0014686574, 0.2694689929, 0.2911292315, -0.0011682977, -0.0034467531, 0.0109143564, 0.0001345975, -0.0792690665, -0.0025986454, -0.0002284324, -0.0022284165, -0.0034032282, -0.0000739583, 0.3722485900, -0.0001881403, 0.0002874513, -0.0008714164, -0.2110839486, 0.0016725621, -0.0016763653, 0.0173476208, -0.0042120665, 0.0004535838, -0.3394307792, -1.1178150177, 0.3473207355, 0.0024854306, 0.0000829777, -0.0020001605, -0.0018820404, -0.0872516707, -0.0005540710, -0.0035334162, 0.0010368972, -0.0007608797, 0.1271612048, 0.0064459480, 0.0001805902, 0.1192979068, 0.0015399902, 0.0018219590, 0.2210644633, 0.5425783396, 0.0012285594, -0.0000168807, -0.0028961131, -0.0003337776};
#endif

#endif
