//Numpy array shape [32, 5]
//Min -1.944919466972
//Max 1.132352113724
//Number of zeros 0

#ifndef W11_H_
#define W11_H_

#ifndef __SYNTHESIS__
model_default_t w11[160];
#else
model_default_t w11[160] = {-0.0008762816, -0.0009466977, 0.1033593863, -1.1719119549, 1.0239261389, 0.0015205337, -0.1614084840, -0.0311264805, -0.0001009386, -0.2509168684, -0.9622725844, -0.4275401235, 0.7128741741, 0.4592141807, 0.0678692758, 0.2073332518, -0.2251180112, 0.2631426454, -0.0489564985, 0.0002810001, -0.7311770320, -0.2479503155, 0.0746382251, 0.3823419213, 0.3011844754, 0.1342124641, -0.0008542712, 0.0033940764, 0.1957098544, -0.6129047275, -0.6225432158, -0.7372593284, 0.1535335928, 0.2711623609, 0.1702522188, -0.0037245753, -0.3591994941, -0.6294134855, 0.6772783399, 0.0917881057, -0.5126746297, 0.6538820267, 0.1332397163, -0.3648788035, -0.0005493080, -0.6386314631, 0.0503959693, 0.0037386357, 0.1785797477, 0.0947742239, 0.6498072147, -0.2506924272, -0.0033400413, -0.3738055825, 0.0028736512, 0.0001175776, 0.1931779683, -0.1987691224, 0.5565508008, -1.9449194670, -0.0000122051, 0.0001172478, -0.0000234914, 0.0001474849, -0.0000615558, -0.9960525036, -0.2268613428, 0.0001573494, 0.4197079241, 0.3937653899, 0.0794827789, 0.2657761574, -1.3040291071, 0.3850829303, 0.0007739824, 0.0011143783, -0.0020248010, -0.7488793731, 0.4557970762, 0.0004436380, -0.1278836727, 0.0272854008, 0.0420357734, -1.0784615278, 0.6949743629, -0.2072279602, 0.1142329574, 0.0839234367, 0.2582004964, -0.5439432263, -0.1078281701, 0.1378033459, 0.6688265800, 0.0399710760, -1.6049010754, 0.4358837605, 0.2948141396, -1.1638222933, -0.4086639285, 1.0205205679, 0.4120379090, -0.5221601129, -0.0017533158, -0.0041358424, -0.0630996674, -0.1276105195, 0.2555020750, -0.4002949893, -0.5781636238, 0.3833090365, 1.0508273840, -0.6049434543, 0.7451255322, -1.4054673910, -1.1217150688, 0.2645649612, 0.0005203614, 0.1106209680, -0.4326777756, -0.7244740129, 0.1837357283, 0.5882949233, -0.3255470991, -0.4586386085, -0.5069801807, 0.2560856044, 0.1118041500, -0.0005024573, -0.3439107239, -0.0700518191, 0.6040754914, 0.6141135693, -0.0513250083, -0.6380565763, -0.6768607497, 0.3850414753, -0.4734753668, 0.3157134950, -0.3524434865, -0.4818497300, 0.1522737741, 0.0001026714, -0.4762813747, -0.2983803749, 0.3911234438, 0.0000820930, 0.0001607127, -0.0000916966, -0.0001063768, -0.0000865128, -0.2170209587, -0.0175508540, 0.1388789713, 1.1323521137, -0.6976535916, -0.0001260719, -0.0002533743, -0.0000510894, -0.0000616046, -0.0000492313};
#endif

#endif
