//Numpy array shape [16, 64]
//Min -1.260292649269
//Max 1.949127674103
//Number of zeros 0

#ifndef W2_H_
#define W2_H_

#ifndef __SYNTHESIS__
model_default_t w2[1024];
#else
model_default_t w2[1024] = {0.0000450983, 0.5164144039, 0.1130097434, -0.0110065648, -0.2118303776, -0.1474130452, -0.0596538410, 0.0015546477, 0.3319948912, -0.0033756185, -0.1704299301, -0.3710358143, -0.0006577742, -0.1641843468, -0.0022190432, -0.0747685358, -0.6011583209, -0.0571703464, 0.0044709314, -0.0001228029, -0.0358004533, -0.0009842734, 0.0012172086, -0.2487368286, 0.0002915864, 0.4037494063, 0.1350197345, -0.1910800338, 0.0012925204, 0.0009578435, 0.0020073284, 0.1093329862, 0.2604753077, -0.1148622483, 0.0132506024, 0.0460212529, 0.0359933861, 0.1918419898, -0.1151085272, -0.0000001561, 0.0619914122, -0.0009594540, -0.3325261176, -0.1513400525, -0.0069151311, -0.0999227315, -0.0008776601, -0.1672556251, -0.0098728826, -0.0028695518, 0.5584256053, -0.0163386296, 0.3309810460, -0.1091737375, -0.0328747705, 0.0017478327, -0.0206632651, -0.2293061614, 0.0921869203, -0.0955189392, -0.0006937003, -0.0015392824, 0.0398786403, 0.0043690982, -0.0000332825, 0.1957013458, -0.0321530774, -0.1594711542, -0.0143604735, 0.0315597467, 0.0080464343, 0.0635959059, 0.2358081639, -0.0253101699, 0.0155691896, 0.0196679775, -0.0248431675, 0.0012521108, -0.0384144448, 0.0016690266, -0.3653543591, -0.0015290823, -0.0033837198, 0.0002992359, 0.0047463980, 0.0308187343, 0.1482847631, -0.0766796917, 0.0013705170, -0.3598186970, 0.1381279081, -0.1092099547, -0.0202539563, 0.0007423948, -0.0013771967, 0.4563346803, 0.6293805838, 0.1687043905, 0.0074559618, 0.0313880630, -0.0022123968, 0.0702899098, -0.0052240784, -0.0077570579, 0.7985469699, 0.0359318219, -0.3431933522, 0.0171443708, 0.1394023895, -0.0015400066, 0.1660324484, 0.0334871151, 0.1325911731, -0.0104003800, 0.3971630633, 0.0303424336, 1.0258655548, -0.2331605703, -0.0744988546, 0.0062758401, -0.1341719478, -0.0011291408, 0.1017405167, 0.0608398393, 0.0020466640, 0.0105432728, 0.0192071386, -0.3985630572, -0.0000349150, -0.0005470549, -0.5870022774, 0.0039723986, 0.0820001438, -0.2652071416, 0.2588802576, 0.2276428789, 0.4413682520, 0.0014806374, 0.0026389817, 0.0055996738, -0.3369911611, -0.0020910047, 0.0027155282, 0.4090147614, -0.1936783940, 0.2353439182, -0.0080708498, 0.0001048567, 0.0060295882, 0.4719453156, -0.2155769616, -0.0550931543, -0.2588702440, -0.1753755361, -0.6391567588, 0.2306563407, -0.2644232810, -0.0039917901, -0.0018296719, -0.0006778602, -0.0286495984, 0.3732039034, -0.7667276859, 0.1846624613, -0.1302893162, -0.0005475193, -0.1437878311, 0.1753859818, -0.0025898193, -0.0537942573, 0.0018448069, -0.0015607692, -0.0013588836, 0.0036925168, 0.1938020438, 0.2493957132, -0.3184320331, 0.0023139126, -0.1519788653, 0.1338959783, -0.0041637304, -0.0812032148, 0.5899245143, 0.0031120125, -0.4241096973, 0.0002060749, 0.5209775567, 0.1657653898, 0.0955396593, 0.5849546194, 0.0018405884, -0.0032397418, 0.0000292985, -0.0501685850, -0.0901400149, -0.6121898293, -0.0877355412, 0.3682361543, 0.1198604554, -0.0005563241, 0.2282257974, -0.1616105437, -0.6648663282, 0.0019921754, -0.2169053108, -0.0020359287, 0.0022526367, -0.2065538764, -0.7301542163, 0.2203557938, -0.0073423786, 0.0000647633, 0.0000668782, -0.0009414869, -0.1099567562, -0.8179488778, 0.0013286566, 0.3394004703, -0.4716427624, -0.0144462539, -0.5156461000, -0.2074805945, -0.0010758109, -0.0284641162, -0.4480392933, -0.0884460211, -1.1918054819, 0.6688452959, 0.4714056849, -0.0013249103, 0.1781190783, 0.0003907751, -0.0023951493, 0.4008084238, 0.0138484510, -0.0004227067, -0.1565372795, -0.2093474865, 0.0437116660, 0.0191278923, -0.7910664678, 0.0049185138, -0.0439513102, -0.1845512092, -0.0062739803, 0.0012519229, 0.9340006113, 0.2028469443, 0.2467762977, 0.0206989739, 0.0774519593, -0.1870917082, 0.0002786418, -0.1316861212, 0.1511700153, 0.0178556647, -0.0000003363, -0.1032328606, -0.4038200676, 0.3554676771, -0.0001912120, -0.2712629139, 0.2097286284, 0.4020481408, 0.4563430548, -0.0276298001, -0.0001887728, -0.0494556911, 0.0009943541, 0.0023405442, -0.1915841103, 0.0527865589, 0.0006796183, 0.0005058384, -0.0101280008, -0.0001418035, 0.4302321672, 0.0000049664, -0.0005157161, -0.0012104531, 0.0031910560, 0.0989659727, -0.4523438513, 0.2088142782, 0.0001004679, 0.0009536910, -0.0016077672, 0.0008527477, 0.1168121323, 0.3692115843, -0.4884912372, 0.0585714318, -0.0026723382, -0.1412949562, -0.2953381240, 0.1749648303, 0.0014247791, 0.0585220270, -0.0404536389, -0.0038423089, -0.0012449821, 0.0020642080, 0.2468910366, 0.4081372321, -0.5336807370, -0.0002490242, -0.0008435866, -0.0007387775, -0.0033199452, 0.0339434855, 0.4037784934, 0.0003145796, -0.5288810730, -0.2062140554, 0.4247076809, 0.0005830893, 0.0005055477, 0.5003964901, 0.0000473307, -0.1229868606, 0.0000274153, -0.2209049761, 0.0008003725, -0.0982234329, -0.0000212476, 0.0910791010, -0.0015584461, -0.1471806169, -0.3027097583, -0.0015158403, -0.0002414004, -0.0008247805, 0.0011056040, -0.3531495333, 0.0011148868, -0.0015500134, -0.1602169424, 0.0006329558, -0.0144227305, -0.0000895228, 0.0034983787, 0.0001661804, -0.0142716318, -0.2269389480, 0.0000904493, -0.2312184572, -0.1690989137, -0.0107843401, 0.0011071912, 0.0014587527, -0.0281577781, -0.0595084429, 0.0012502891, -0.0191431064, -0.0281680766, -0.0466728546, 0.2418469489, -0.0007442349, 0.0518315285, 0.0059357006, 0.0341101810, -0.0599411950, 0.1981610060, -0.0061041783, -0.0013753420, 0.0008577643, 0.0478999466, -0.2510432303, 0.0043009995, -0.0988579839, 0.0586625710, -0.0050648530, -0.0026068506, 0.0009217638, 0.0008689456, -0.0006097514, 0.1200671121, -0.0523235723, 0.0679076239, 0.0610863864, 0.0713848770, -0.2214793861, 0.1979088038, -0.0011004895, 0.0000204898, -0.0072907321, -0.0020495225, -0.0968292058, -0.0012110422, 0.0025519745, 0.2063143998, -0.0039769327, -0.0119462563, -0.0506863073, -0.2992456257, 0.0065950453, 0.0173944887, 0.1711288840, 0.0013755248, -0.1418419778, -0.0002062066, 0.1946274936, -0.0139334397, -0.0000618184, -0.0027160051, -0.0254965518, -0.0923581496, 0.0006004037, -0.0016215619, 0.1606103033, -0.1655920446, 0.0010882986, -0.1605426222, 0.0006003928, -0.0997298136, 0.0071033691, -0.0143908253, 0.1423164159, -0.0008302619, 0.1712451428, -0.0043342724, -0.0858684257, 0.1228053421, -0.0990485325, -0.0014671021, 0.0012737293, 0.2747499347, 0.0375453904, 0.0006851446, 0.0735387430, 0.1001468673, -0.0004366282, 0.0064921444, -0.0000118829, 0.0007148863, 0.0014166514, -0.0562000424, 0.0061078267, -0.0062479735, 0.0017431758, 0.0226395354, 0.1365977228, 0.0897497982, 0.0902426168, 0.0004899821, -0.3395298719, -0.0199203361, 0.0036662575, -0.0000469037, 0.0246389303, -0.1405582577, 0.0404229201, 0.1464341134, 0.0003863908, -0.0014425444, -0.0034223944, 0.0230226666, -0.0802864432, -0.0719807595, -0.1146552265, 0.0161902662, -0.3592807949, -0.0001633155, 0.0060865562, -0.0062779859, 0.0448535383, -0.4433086514, -0.0001089355, 0.0052532088, -0.0050115739, 0.0026513508, -0.0465199612, -0.0022523503, -0.0342767164, 0.2404658049, 0.2019712925, -0.0543380417, -0.0039367671, -0.0011746467, -0.0048767985, -0.0343217961, -0.0097485092, 0.1519230157, -0.3743822873, 0.0562308207, 0.0005042078, -0.1702853590, -0.0028365692, 0.0008836674, -0.0210450236, -0.0064604962, -0.3258179426, 0.0023759112, -0.1543910056, -0.0134840021, 0.1277213544, 0.0631863400, -0.5838249326, 0.0150908558, 0.0740799233, -0.0000915014, 0.0090764351, -0.0016034066, 0.0126459599, 0.0315600000, 0.0040063281, -0.1092264652, 0.0228173919, 0.0014354083, -0.0457155071, -0.0018337915, 0.0108002992, 0.0000089646, -0.0937224329, -0.0020561374, -0.0326473862, -0.0012149565, 0.1719289869, -0.1189656258, -0.0228317380, -0.0119363172, -0.3464707434, -0.0886732936, 0.1773345321, 0.0336026251, 0.1636391133, 0.0013387382, -0.0020295684, -0.0002108186, -0.0897389650, -0.0533209890, 0.0000136072, -0.0027021330, -0.0254447032, -0.0205073040, 0.1940515339, -0.0016025574, 0.0002095142, 0.2143270224, -0.0703796819, -0.0092601320, 0.0005932988, -0.1300891787, 0.0070954068, -0.0112540517, 0.0004848717, -0.1182741299, 0.0026431349, -0.0043270290, -0.0018948601, 0.1346827745, -0.1506866664, -0.0110606374, -0.0036758122, -0.0001998343, 0.0000093085, 0.0007100553, 0.0009846534, -0.0147974622, -0.1591175348, 0.0762466341, 0.0000140689, 0.0543962009, -0.0316608362, 0.0341045260, 0.0061233048, -0.0316315778, 0.0017476147, -0.2690587938, 0.0035915414, 0.0399415009, 0.0526383743, -0.0460830852, 0.2279187888, -0.0179865565, 0.0036685448, 0.0000082772, 0.0992388725, 0.2871572375, 0.1322649717, -0.0199913736, -0.2881048620, -0.0493909232, 0.1850410849, -0.0607044064, 0.1985734701, 0.1193856373, -0.0096516460, 0.0801726431, 0.0036605250, -0.0004818838, 0.0432659425, -0.0013762113, -0.2041880935, -0.0025226660, -0.0001028951, 0.2310858071, -0.0005668488, 0.4989455044, -0.0376912951, -0.0036645383, -0.0018251898, -0.0015028315, 0.2139806747, 0.0298641324, -0.1370812505, -0.0014830112, -0.0842787400, -0.0973511711, -0.1220448315, 0.0170280188, -0.2852811217, 0.1241547093, -0.2299044579, 0.2664976716, 0.0002439661, 0.1563595086, 0.0301375203, -0.1251829267, 0.0583086759, 0.0011566782, -0.1035127342, 0.0930554718, -0.2596135139, 0.0063459282, -0.0108745871, 0.1403976381, 0.1979749054, -0.1488739401, -0.0003678491, -0.1185202003, -0.0423067287, 0.3509276509, 0.1291501969, 0.0388877243, -0.0546770543, 0.0041996026, -0.2836131752, -0.0029726394, 0.1180382445, -0.0000073246, 0.0881311297, -0.1859502196, -0.1848137081, 0.0016110935, -0.1191736907, -0.0694218352, -0.0020691159, 0.2211070657, -0.0059739058, 0.0040233582, -0.0014037945, -0.0107065411, 0.0028033177, -0.0005765819, -0.4200856090, -0.0455317609, -0.3660655022, 0.0048248186, -0.0000144963, 0.0034354443, 0.0068224007, -0.1998212487, -0.1221068576, -0.0048104529, -0.3327688873, 0.2218062580, 0.0026935556, 0.0196972229, -0.0002164287, -0.0412311219, 0.2014565170, -0.0078843283, -0.2477965504, 0.0003699940, 0.0456952266, -0.0164959952, 0.0021480208, -0.0019652378, -0.0119876489, 0.1226867065, 0.0652227327, 0.0069188210, -0.0024790426, -0.1555405110, 0.1218652800, -0.0466302000, -0.0311955791, -0.0022544586, 0.0005241587, -0.0259845369, -0.0203746930, 0.0006054625, 0.2973572314, -0.1721328944, -0.0019174394, -0.1942761689, 0.0641804114, 0.1282588392, 0.0150695341, 0.0029424198, -0.0846602097, -0.0039801709, -0.0008801748, 0.0001040091, 0.0159625486, 0.0097684562, 0.0011232428, 0.0025945285, -0.2006658018, -0.3260955215, -0.1678670645, -0.0109373601, -0.0060215234, 0.1122460514, -0.0407952741, -0.0802801922, 0.0000658155, 0.1296508312, 0.1220869049, 0.0762586817, -0.0243617557, 0.0501477718, 0.0002009503, 0.0109974667, -0.0003895579, -0.5675221682, 0.0002494724, -0.1323697567, 0.1872526407, -0.0129136601, 0.0012623335, -0.1372497976, -0.0000227061, -0.0819853619, -0.0231379475, -0.0036524336, 0.0407016128, -0.0687571689, 0.0197610166, -0.0381893218, 0.0008963488, 0.0932942629, 0.0230003409, -0.4486689866, -0.2220449150, -0.2388331294, -0.0030222093, -0.0025940093, 0.0512854792, -0.0875135884, -0.0921223238, -0.1904865950, 0.0008378355, -0.0022623690, -0.0100965137, -0.0037177610, -0.0024661333, 0.1024277434, -0.6182973385, -0.0194675550, -0.0004810924, -0.0854691640, 0.2146961689, 0.0818229169, -0.0047438694, -0.0020258897, 0.1497913599, -0.0000166107, 0.1236888543, -0.0006590289, -0.0482655019, -0.1312117726, -0.0361202806, 0.2689503431, -0.2687395513, -0.0001049301, -0.1983653754, -0.1892865598, -0.0026217254, -0.0240581241, 0.0134085277, -0.0003278269, -0.0845536962, -0.0009312305, -0.0572201833, 0.0020591076, -0.0004443823, 0.0040092822, -0.0009032452, -0.1334676743, 0.1813715100, -0.0053479420, 0.0095406333, -0.0233731624, 0.0012271600, -0.3761712015, 0.0000054741, -0.0688782409, 0.0230114218, 0.0480224080, -0.1873873919, 0.2275411189, 0.2311481535, -0.1774455309, -0.0000992677, 0.2874535024, -0.1373696476, 0.1233961731, -0.0602808222, 0.0997257978, -0.0014946082, -0.0001466863, 0.1074729785, 0.1569441110, -0.0970565975, -0.0659666359, 0.0006969523, 0.4140349329, 0.0004775299, 0.1334813386, 0.0065236799, -0.0317152888, -0.2178958505, 0.0183970816, 0.0986934900, -0.0807548612, -0.1907459348, 0.0011896532, 0.0037066522, -0.1580235958, -0.0003764852, 0.0000211392, 0.0002229901, 0.0019929127, 0.0605242364, 0.0221582241, 0.0819589049, -0.0838127881, 0.1624554545, 0.0343068652, -0.0055327713, 0.0000882470, -0.0499487109, -0.1406054944, 0.0180749446, -0.0005369692, 0.1270943880, -0.0163865294, 0.0219877083, -0.1195381135, -0.0000713741, 0.0069525694, -0.0216860622, 0.1455382854, -0.0143706929, -0.0078211958, -0.0055141728, -0.0756477863, 0.0009433138, -0.0002193011, -0.0005455259, -0.0229854062, -0.0616673455, -0.0645202771, -0.1012901291, -0.0631712079, -0.2912585437, 0.0853629857, -0.0031853579, -0.2624054849, 0.1977679282, 0.0522441305, 0.2021742463, -0.1789677292, -0.0028627994, 0.0007134878, -0.0556169525, 0.0369425863, 0.2087730765, 0.1533050090, -0.0001921978, -0.1530811638, -0.0023183138, 0.0031802873, 0.0086169746, -0.0271869358, -0.1532911062, -0.0037975730, 0.0027694199, 0.0067950538, -0.0936810374, 0.0023038520, -0.0084504876, -0.0020866883, 0.0035198824, -0.0000728367, -0.2769240141, 0.3556130826, 0.6647791862, -0.5916541219, 0.2957520187, -1.2602926493, 0.5794957280, -0.8537107706, -0.4249938428, 0.0009619350, -0.0902882293, -0.5941699743, 0.7964180112, 0.0348899178, 0.4109879732, 0.0023624306, -0.1178139150, -0.0068876334, -0.0002438331, -0.0002806842, -0.5193608999, 0.1748021841, 0.9064970613, 0.0025024582, 0.0005928171, 0.0013852641, -0.6296355128, -0.3470355272, 0.0013834615, 0.1398923248, 0.4323380589, 0.0441848338, -0.6011580825, -0.0069299787, 0.3206741810, -0.4594389796, -0.1088220030, 0.5155526400, 0.0004061557, 0.1944865286, 1.7550390959, 0.0003390912, 0.5411288142, -0.0003653122, -1.2589695454, -0.9930809736, -1.0961952209, 0.9742902517, 0.0031132323, 0.6971013546, 0.4554694891, 0.0122152576, 0.0015690752, -0.4006744921, 0.0161505211, 0.5151378512, 0.0220946874, -0.6931363344, 1.9491276741, 0.0449200384, -0.1342238933, 0.2711797953, -0.0419156253, -0.0000534607, -0.0231490843, -0.1976574063, -0.0007902912, -0.3033076525, 0.1035752371, 0.0027381273, -0.2207407206, 0.0306655671, 0.2343967259, -0.2441847771, -0.3434374034, 0.0063147428, -0.1815560907, 0.0027371123, -0.1008706540, -0.4413298965, 0.3646586239, -0.0145689221, 0.0000045689, 0.0005683645, 0.3996698558, 0.0377468131, -0.0341689289, 0.1095817834, 0.1806597412, -0.0751410350, -0.2716309726, 0.3544882238, -0.0642886609, -0.0037228279, -0.4229516685, 0.1108726189, 0.0003275251, 0.1752165556, -0.0014585924, -0.2527131438, -0.4234177470, 0.2297077030, 0.2087013870, 0.0119477939, -0.0334358364, 0.1973092407, -0.0611735396, 0.0062260288, -0.2207365036, 0.2484245002, 0.0984681398, 0.1738192886, 0.0019565551, -0.0749236345, 0.0389180966, 0.0013637447, 0.4591025114, 0.1127801687, 0.1238834858, 0.1271108687, 0.3161430061, -0.3071625829, -0.1738072187, -0.1480213404, -0.0468914211, -0.3059172034, 0.3363381922};
#endif

#endif
