//Numpy array shape [16, 64]
//Min -1.631580233574
//Max 1.666012644768
//Number of zeros 0

#ifndef W2_H_
#define W2_H_

#ifndef __SYNTHESIS__
model_default_t w2[1024];
#else
model_default_t w2[1024] = {0.0001491806, -0.0222592708, -0.0044969996, 0.2207132280, -0.1677343845, 0.0011837624, -0.0870115757, -0.0141750071, 0.0419235677, -0.0026870107, -0.2067884356, -0.0329437181, 0.2016379088, -0.0861771330, 0.0223655477, -0.0190890934, 0.0038332490, 0.0075873174, -0.0013551720, 0.0076685976, -0.0046496280, 0.5641478300, -0.1903017014, 0.0345499963, -0.5271224976, 0.0022960815, 0.0638514683, 0.0375652686, -0.0005085780, 0.0003834366, -0.0010223940, 0.0805145279, 0.0844601542, 0.0980295986, 0.4540320337, 0.0000006818, -0.0046547800, -0.0001001639, 0.0135070207, -0.0093055097, 0.2040543705, -0.0060350318, -0.0018206373, -0.2774295509, 0.0003576622, 0.0780443922, -0.0005670530, 0.1708876789, -0.0003552244, -0.0753848925, -0.0944288447, 0.5085449219, -0.2520472109, -0.0000072232, -0.0049407617, -0.0000961561, -0.1316474676, -0.1406649202, -0.1500542462, 0.3994117081, -0.6263459325, -0.0134874610, 0.0058437996, -0.1258652806, 0.0021390822, 0.0185023956, 0.0037660412, 0.9316006303, -0.1249626949, -0.0061118142, 0.1152663827, 0.0027320602, -0.1850471497, 0.0080485921, -0.0619676448, -0.0140754832, 0.1483416706, -0.0025556434, 0.2006354779, 0.0051932978, -0.1238959506, -0.0095776077, -0.1226106137, -0.0049382602, 0.0014365597, 0.1518926769, 0.0356900245, 0.0124573335, -0.4421351254, -0.0022892444, 0.0499277376, 0.0029048268, 0.0014148226, 0.0013603515, 0.0129439440, 0.0144240772, 0.0754731894, -0.0071605118, -0.3967211545, 0.0000456009, 0.0036956768, -0.0019821743, -0.1307641566, 0.0219473578, 0.0531798303, -0.0021834434, -0.0016606072, -0.0772585347, 0.0020136142, 0.1117649823, 0.4465754330, 0.4160650373, 0.0071066529, -0.0073411423, -0.0034349652, 0.3333561122, -0.0036829673, -0.0361578278, 0.0221956186, -0.0028478254, 0.6619772315, 0.1211918592, 0.0424408317, 0.3326679766, -0.1763235927, 0.0023077806, -0.1252879500, -0.0787489340, 0.0057179793, -0.0019680287, 0.0046478226, 0.0771661326, -0.2209534198, -0.0018768614, -0.0009593565, -0.4253236651, 0.0663540661, -0.5833361745, -0.4875889719, 0.6568225622, -0.5236523747, -0.2276662290, -0.0014751316, -0.6306118369, 0.1697076112, -0.2951740026, -0.1190470606, 0.0038251057, 0.1381205320, -0.3536278009, 0.3360165954, 0.0521923751, -0.3640186191, 0.0009348164, 0.5963259935, 0.0013826784, 0.0002396447, -0.4512556791, 0.3224089146, 0.0314560309, 0.6003502011, 0.1194166094, 0.0030595448, 0.0002356092, 0.0022620291, 0.0009744699, -0.2348286062, 0.0005590661, -0.0024877328, 0.0230648685, 0.0013116901, 0.3226278126, 0.0010462890, -0.1893123984, -0.1375319213, -0.2774713039, -0.0009506763, 0.0011564583, 0.0037950680, 0.4176456332, -0.3250677288, 0.0003324471, 0.6800472736, 0.0032256488, 0.0909890607, 0.3975916207, 0.4144221842, -0.2371916175, -0.0011458546, -0.2647299767, -0.0672105849, -0.2567096949, -0.1265844256, -0.0017482826, -0.0037818099, 0.0007633718, -1.0261040926, -0.0047624633, -0.0016047664, 0.0000991429, -0.0036535549, -0.5369937420, -0.8233661652, 1.2337930202, -0.5027506351, 0.4024695754, -0.0041183368, -0.4352643788, -0.0016667685, -0.0468207039, -0.0018877307, 0.3987710476, 0.0175227597, -0.2081931680, 0.2661205530, -0.1418262422, 0.2279854417, 0.0028906364, 0.5535926819, -0.2348814011, 0.0000885427, -0.8739122152, 1.1983195543, -0.0000128183, -0.0470715128, 0.0499656536, 0.0130373929, 0.0002041218, 0.2683037519, -0.1538121700, -0.0009666309, 0.1289526522, 0.0002577071, 0.0002512506, 0.0012796321, 0.0279049538, -0.0009453747, 0.0090983119, -0.2282265723, -0.5197234154, -0.0001513149, 0.0008709737, -0.1601073742, 0.0007056703, -0.5774430037, -0.3430356681, -0.3331058323, 0.0045695133, -0.0009896803, -0.5429869890, -0.0007824404, -0.5945643783, -0.0133816106, -0.4032052755, -0.0017190255, -0.6266741753, 0.0033016740, -0.0012275027, 0.0991317928, 0.4531082511, -0.3096507192, -0.0015884731, -0.2815611064, -0.4377103150, -0.0025135826, -0.1468609571, -0.2758021653, 0.5551410317, -0.0036986314, -0.1532637775, 0.0037272291, -0.6090081334, 0.0012966315, -0.2384582758, -0.4606904387, -0.0007558599, 0.2077280581, -0.0278375652, 0.2431558669, 0.3530452251, -0.0322586000, 0.0010108129, 0.5160070062, 0.0977559760, 0.0000628533, -0.1821145266, 0.0025871780, 0.0011926318, 0.2966387570, -0.0520546362, 0.0002784375, -0.0001591833, -0.0054270937, 0.1005519032, -0.0058599580, 0.0507162102, -0.0030619209, 0.1397687942, 0.1046501100, 0.3852988183, -0.0010089496, 0.0060392474, -0.1482625455, 0.2521538138, 0.0417823829, 0.0024210808, -0.0050366302, 0.0001732064, -0.0186759755, -0.0524362586, 0.6033533812, -0.0012027710, 0.2576906681, 0.1742118746, 0.5064713955, 0.0083917808, 0.0004224951, -0.6137018204, -0.3500427008, -0.1087575555, 0.1649188399, 0.0164219141, 0.0012212493, -0.0273021646, -0.3554978669, -0.0068164021, -0.0460029729, 0.0009645998, -0.0060955761, -0.0013658872, 0.0085242689, -0.0753391087, -0.1890508533, 0.1281932145, 0.0010779602, -0.0007531766, 0.0318320468, -0.0001062202, -0.0000315607, -0.0169838686, 0.0043393220, -0.1881767511, -0.1782611310, -0.2212349027, 0.0444431901, -0.0712001026, -0.0751050189, 0.0058236234, 0.0002950378, -0.0089340117, 0.0917499289, -0.0437017083, 0.1770442724, 0.1362043470, -0.0230595786, 0.0001222445, -0.0122315306, -0.0057743918, -0.0037547708, -0.0702229217, -0.0055316417, -0.2174240947, 0.0012393903, -0.0953154117, -0.0006808459, -0.0072105620, -0.0013823562, -0.0056734039, -0.2402733862, 0.0108163049, -0.0095749758, -0.0550122298, -0.1882035434, 0.0002341248, -0.1816021949, -0.0011716055, 0.0029698308, -0.0055581401, -0.0022837119, 0.0011093215, 0.0768556297, 0.0440217666, -0.0002709933, -0.0017888832, -0.0102440361, 0.0079925116, -0.1849275082, -0.0471978448, 0.1902569830, -0.0604340397, -0.0020671010, -0.1530305594, -0.0132656861, -0.0025302845, -0.0011583325, -0.0950640589, -0.0156535767, 0.0043440922, -0.0351761729, 0.2050683349, -0.0003743923, -0.3145356774, -0.0082863523, -0.0017116411, 0.0036815216, -0.0869061276, 0.0012787941, 0.1978376061, 0.0902394876, 0.0014945023, -0.0027383717, 0.0455649458, 0.0384419039, -0.2627617419, -0.0155469850, -0.0175251607, -0.0038563602, 0.0857944414, -0.0043198033, 0.0001191195, 0.1484517157, 0.0002806818, 0.0289100669, 0.0067696427, 0.3048041463, 0.0036057220, 0.0015453144, -0.0099561699, -0.0013081284, 0.2993661463, -0.0313068070, -0.2787105441, 0.0965927094, 0.0033536581, -0.0052069533, -0.0521491095, -0.0107372859, -0.1506733894, 0.0060820528, -0.1892258078, -0.0022614934, 0.0061644847, -0.0043735551, -0.1115399227, 0.0531140789, -0.0273985378, -0.0935112387, -0.0106290393, -0.1814912409, -0.0923604593, 0.0039935284, -0.1083523184, 0.0169041883, -0.2428652942, 0.0173523556, 0.0000107835, -0.0071089095, 0.0342995077, -0.0369239300, -0.0107688922, 0.1342148036, 0.0050456561, 0.0340056680, -0.0855212659, 0.0042199385, -0.0004569797, 0.0014348165, -0.4762240052, 0.1865482479, 0.0708424747, 0.0577510931, 0.0461969674, -0.0327993706, -0.6593988538, 0.0018322950, 0.1985695362, 0.0003944265, -0.0082529485, -0.0410346426, -0.0607004128, 0.1399006248, 0.0052281469, -0.0574298613, -0.0001188240, 0.0478163436, -0.2716358900, -0.0050695185, -0.2221695632, -0.0075893579, 0.0585499667, -0.0005315515, 0.1474286467, -0.0012993815, -0.0165164005, -0.0015648575, 0.1299859583, -0.0025795153, 0.0745596290, 0.0141841015, 0.0024637387, -0.0594382435, -0.0230506007, -0.0555247106, -0.1190788820, 0.0443890765, -0.0028106240, -0.0039037736, -0.0350777395, 0.0008924386, 0.2619556785, 0.1616503745, -0.0432414822, -0.0102303512, 0.0079818405, -0.0668632910, 0.1024086773, -0.0071278405, 0.0049307956, -0.0020474135, -0.0041152709, -0.0715538338, -0.0025440520, 0.0750730410, 0.0719078779, -0.0123483110, 0.1215402260, -0.0018232402, -0.0687042400, -0.0762845278, -0.3634082079, -0.0968320295, -0.0017190333, 0.0036754408, -0.1440779120, 0.0012818287, -0.2587073445, -0.0021799523, 0.1013094410, 0.0135591552, -0.0600216687, 0.0001110285, 0.1408917159, 0.0943492875, -0.0174400155, -0.0985261053, -0.0707951188, 0.1315307468, 0.0000222651, -0.1297401488, 0.0392338559, 0.0110812206, 0.0067662145, 0.1687302887, -0.0016798200, 0.0414846167, -0.2236069590, -0.0012790634, 0.0520330369, -0.0310199596, 0.0042187232, 0.1721064746, 0.0251614973, -0.0052004051, 0.0155336969, -0.0107470611, -0.0030511850, 0.0060894745, -0.0181865767, 0.0129926046, 0.0650221705, -0.0458583273, 0.0027779394, 0.0019688227, -0.0006196264, -0.1852057427, -0.0752530769, -0.0020105422, 0.0172365587, 0.0073643108, -0.2941133976, 0.0061351722, -0.0075610382, 0.3094467223, -0.0003643451, -0.2001137286, 0.0010911147, 0.0452427715, -0.0702866316, 0.0249842871, -0.0006736779, 0.0025739721, 0.2240821421, 0.0056195674, 0.0004134315, 0.0007692933, -0.0013067671, 0.2662581503, 0.2512371540, 0.0005752089, 0.1093264297, 0.2669302523, -0.1918238848, -0.0513818637, -0.3870688975, -0.0012791414, 0.2753801346, -0.0048268028, 0.0145436050, -0.2001686990, 0.0339554138, -0.0110065090, 0.0001091506, -0.5076965690, -0.0003561769, -0.0953749120, 0.0021659262, -0.2472712249, -0.0547841005, -0.3712821007, -0.0930292010, -0.0003662604, 0.0080076307, 0.1969106942, -0.0646970347, -0.0447651707, 0.1616349369, 0.1988816857, -0.0353358537, 0.0844587684, -0.0008874726, -0.1943446547, -0.0027031377, 0.0367046334, 0.2943230271, -0.1642395854, 0.0000398981, -0.0175930820, 0.0978531465, 0.0302740298, -0.1720257252, -0.0696505830, 0.0134836305, -0.1006525382, 0.1594900340, 0.2143339664, -0.0061099739, -0.1660735458, -0.1224215180, 0.0047083511, 0.0024502897, -0.2739410102, -0.2906937897, 0.0889616385, -0.0012345801, 0.0023370110, -0.0699204281, -0.0116749117, 0.0012800797, -0.1278903633, 0.2239177823, -0.0002032272, 0.0008407977, -0.0131499413, -0.0022970915, 0.0079746619, -0.1229025573, 0.0004074785, 0.2308543175, -0.0014036187, -0.0990059301, -0.0066560116, 0.1935710758, -0.0168604665, 0.1103797927, -0.0753768310, 0.0001516298, -0.4054129422, 0.0018802073, 0.0961434320, 0.0915720388, -0.0012047410, 0.0130804153, 0.3176923394, -0.2110089958, -0.1102160513, 0.0037025132, -0.0010691222, -0.0140406489, -0.0203729067, -0.0397372805, -0.0388318598, 0.0048383051, -0.0011541434, -0.0925166160, 0.1687007695, -0.0004790098, 0.0972432420, -0.4681482315, -0.3660509884, 0.0660260022, -0.1927784979, -0.0035247884, 0.0008731478, -0.0163411461, 0.3498645127, -0.0004826267, 0.2019710094, -0.0066103404, -0.0065029850, -0.0063392268, -0.2149443328, -0.2956524789, 0.0189208854, 0.0011767653, 0.1900985390, 0.1532514393, -0.0032123013, -0.1887642741, 0.2084638625, 0.0007897087, 0.3140001297, 0.0863993764, 0.0727146044, 0.0582723431, 0.0079836836, -0.0340727232, -0.0430558845, 0.0734969750, 0.0993373170, 0.0998518094, 0.0220705755, -0.0013582518, -0.0017465071, -0.1650763005, -0.0082224868, -0.1133882999, 0.1100933924, 0.0175638124, 0.0234218761, -0.0000092632, -0.4496902525, 0.0021140040, 0.2197128683, 0.0007915318, 0.0044965432, 0.0397479758, -0.0770462602, -0.1514175236, -0.0883106291, 0.0060051945, -0.0442723148, -0.0402189530, -0.0009357609, -0.0000513018, 0.0195611194, -0.2159374356, -0.0820379332, 0.0020692628, 0.0034468470, 0.3108961880, -0.6039867401, -0.1117316857, -0.0606344715, -0.1244639680, -0.0043867650, -0.1974216700, 0.0006555740, 0.2960156202, -0.0275559295, 0.0008582977, 0.0024437748, 0.2062799037, -0.0027791597, -0.0013362064, 0.0043809777, 0.0858307704, 0.0018113354, -0.0000019593, 0.1252733171, -0.0459793955, -0.0896786675, -0.1304714978, 0.0076475418, 0.0395258665, -0.1965326518, 0.0001027734, -0.0054834001, -0.0002564895, -0.2254551351, -0.2414406091, 0.2430198491, -0.0124908527, 0.0181093719, -0.1450156420, -0.2047899812, -0.0266820360, -0.0009662994, 0.0711699948, -0.0435102470, 0.0100409407, -0.3825076222, 0.0007814945, -0.0032071669, -0.0000767129, 0.0004449779, 0.1194824055, 0.0002174145, 0.0078145582, 0.1258711368, -0.0510621183, -0.0003413061, -0.0167826880, -0.0043144543, 0.0990861058, -0.0018590684, 0.1822832823, -0.0016579526, 0.0006591637, -0.0000562565, 0.1475134492, -0.0042607714, 0.0533437990, 0.0519122891, -0.0034742902, 0.1070718840, -0.2025702000, -0.1540632099, 0.0117864609, -0.0020986954, -0.0386914089, -0.0026199073, 0.3465239108, -0.0019685263, -0.0030539103, 0.0179339722, -0.0167099684, 0.0024603927, -0.0614251718, 0.1247813553, 0.0003252600, 0.0288193226, -0.0017694967, 0.0988095552, -0.0053518317, -0.1082107872, 0.1277637929, 0.0181855131, -0.0004293413, 0.0056709214, 0.0036429632, 0.0025087525, -0.1978108734, 0.1791456044, 0.0711143389, -0.0004961338, -0.0363349207, -0.0788199231, 0.0004615982, 0.0632691234, 0.0007600423, -0.1765823811, 0.0790648460, -0.0049018585, 0.0084125008, 0.1452795416, 0.0036515426, -0.0048395181, 0.0002174154, -0.0812556222, -0.0170528684, 0.0004597647, -0.1059710905, -0.0046510445, 0.0006658401, -0.1679601967, 0.0528571010, -0.0032952547, -0.0124049578, 0.0634126589, -0.1078838184, -0.0045037544, 0.0037420928, 0.0212397762, 0.0002742762, -0.0855563208, -0.0019903886, 0.0055006444, 0.1687766612, 0.0100145191, 0.0714844093, -0.0002323841, -0.0029024817, 0.0031343831, -0.2006805092, -0.0734857544, -0.2524788678, 0.2588962018, 0.9897482991, 0.5402401686, 0.0049837562, -0.3560491502, -0.0011449166, 0.7865970731, -0.0626482964, -0.0019724360, -0.0014392005, 0.5236449242, 0.5014385581, -0.2299541235, 1.0098621845, -0.1338639557, 0.2746211886, 0.0596691370, -0.0064602857, -0.0049900743, 0.4259916544, -0.4015638828, 0.0477754176, -1.2291039228, 1.6660126448, 0.0005937779, 0.0526729897, -1.4289090633, -1.1786191463, -0.2380117625, 0.0279390030, 0.2078877240, -1.6315802336, -0.0005695181, -0.3175688684, 0.0925051495, -0.0000651583, 0.0648761094, 0.0589928068, -0.0044951937, 0.0066006463, 0.0763806552, -1.3701388836, -0.6398779154, -1.1615885496, 0.0004673885, 0.7405494452, 0.0436245911, 0.3684533834, -0.0017067242, 0.0017861614, 0.6048201323, -0.5053906441, 0.5802010298, 0.0007423354, -0.2644729018, 0.0015460041, -0.2921786308, 0.0611037277, -0.0153696723, -0.3898642063, -0.1068404913, 0.7424128056, -0.0019596985, 0.0012805809, -0.0569067076, -0.0955588445, 0.1502736509, -0.3358376920, -0.2743740082, -0.0005895921, 0.2620449364, 0.2162725180, 0.0080423057, 0.0764103904, -0.2237684578, 0.0700103939, 0.1899204105, -0.0254428424, -0.4617865980, 0.0009866245, 0.0021367231, -0.0022827422, -0.0000399688, -0.2911630869, -0.2137453109, -0.0171132591, -0.0388928726, -0.2810713649, 0.5314179659, -0.0039881137, 0.0086637903, 0.0732631981, 0.0019096796, 0.0083250962, -0.0494207703, -0.0426369309, -0.2029570639, -0.9052976370, 0.0786064491, -0.0001314074, 0.2703421712, -0.2905090451, 0.2976312637, 0.0055028740, 0.0009784222, 0.0137724075, -0.4536645114, -0.0608907603, -0.0028074165, -0.2162207514, -0.0009277468, 0.0541750640, -0.0017665606, -0.1191658899, 0.0188417397, 0.3046794534, 0.0004317076, 0.1041159108, 0.0076128729, 0.0108178416, 0.0016250513, -0.0205899924, -0.0006130371, -0.0010754745, -0.5068290830, 0.1484858096, -0.0001467068, -0.1929251552};
#endif

#endif
