//Numpy array shape [64, 32]
//Min -1.027497768402
//Max 0.596857070923
//Number of zeros 0

#ifndef W5_H_
#define W5_H_

#ifndef __SYNTHESIS__
model_default_t w5[2048];
#else
model_default_t w5[2048] = {0.0578234307, -0.0073910053, 0.0003117237, -0.0058838879, 0.0009669232, 0.0015588226, -0.0006641164, 0.0010086638, -0.0017899880, -0.0047941529, 0.0000130990, -0.0023406188, 0.0001172945, -0.0007068251, 0.0008912375, 0.0000716937, 0.0001019562, -0.0009149984, 0.0005274821, -0.0013274602, -0.0033036713, -0.0010541726, -0.0019059948, 0.3111960292, 0.0006830868, -0.0002755856, 0.0005090056, 0.0028643201, -0.0000569965, -0.0022523936, 0.0556426682, -0.0017576719, 0.1380334049, 0.0003928772, 0.0006889531, -0.0015127328, -0.0013415939, -0.0014778016, 0.0026729696, -0.7914060950, -0.0002252281, -0.1722407788, 0.0000708259, -0.0010166521, 0.0004434305, 0.0047322819, 0.0005457337, -0.0001240351, -0.0043964544, -0.0039991569, -0.0059792735, -0.0015748178, 0.1452351362, -0.3743405044, -0.0005189006, -0.0006551638, -0.0026283697, -0.0010075511, -0.0023401785, -0.0006190808, 0.0000613390, 0.0026237355, -0.1322085857, -0.0002644602, 0.0525328852, -0.0007830496, 0.0016314612, -0.0008304998, -0.0016091849, -0.0033382131, 0.0007574882, -0.3517285883, 0.0631005764, 0.0449781641, 0.0000511180, 0.1842801869, -0.0000317301, 0.0035180054, -0.0018491691, -0.0000858525, -0.0042019254, -0.0039063711, -0.0014115439, -0.0011766246, -0.0036203333, -0.2890115678, -0.0017112955, 0.1151550710, -0.0031161821, -0.0009720969, -0.0526434258, 0.0024768668, 0.0000233678, 0.0014791258, 0.0002605921, 0.0007438626, -0.1630140990, 0.1080236882, 0.0772932768, 0.0172368195, -0.0026602363, 0.0010220519, 0.4702005982, 0.2031721324, 0.0453175008, 0.1195008159, 0.0000554119, -0.0050237309, 0.0002053661, -0.0004803232, -0.3291947842, 0.0001800374, 0.0784302354, 0.2004282176, -0.2285561562, 0.0770005137, 0.0025671523, -0.0014935004, 0.0009998009, -0.1825063378, -0.0018171859, -0.1574290693, 0.0185837485, -0.2970902324, -0.0001274533, -0.0037166828, 0.0906262100, -0.0118120136, -0.6570720077, 0.0039061422, -0.1242845058, -0.0075878976, 0.1141631827, -0.0170230567, -0.0283478741, 0.0530461632, 0.0227549933, -1.0117093325, 0.0000875979, -0.0010856275, -0.0050952197, -0.0023636918, 0.2030111402, -0.0000872782, 0.1757333726, -0.0004952544, 0.0374905430, -0.0036001275, 0.0004476417, 0.2409796864, 0.0562353060, 0.0392038003, -0.0021254604, 0.1608624756, 0.2123274207, 0.1025020629, 0.0000764111, -0.0196159203, 0.0020195262, -0.0199811477, 0.0441341288, 0.0842442065, 0.0004444557, -0.0015765822, 0.0447820574, -0.0005797009, 0.0017389948, -0.0017017832, 0.0743494555, 0.1377430707, -0.0002745879, 0.0012623778, -0.0008221375, 0.0005358080, -0.0039058612, -0.0000881720, 0.0551021211, 0.1983669400, -0.0006033014, -0.0010179098, -0.0112407496, 0.0004324829, 0.0015087579, 0.0350299031, -0.0000532727, -0.0011398422, 0.0383226909, 0.0028928800, -0.0000278224, 0.0039262036, 0.0117786583, -0.0003502641, 0.2999867797, -0.0007147756, 0.0004594883, 0.0012396309, 0.3537992239, -0.0057539893, 0.0021974498, -0.2200912833, 0.0095714573, -0.1498952061, -0.0000776584, 0.0441409238, -0.0000208477, 0.0020239465, -0.0031941736, 0.0000205959, -0.0037011225, -0.0068885060, -0.0015381839, 0.0003156894, -0.0007189797, -0.2970291078, -0.0034041805, 0.0000216613, -0.0032855663, 0.0658949018, -0.0003032289, 0.0013192092, -0.0002568619, 0.0029400617, -0.0239320975, -0.0009488387, 0.0025417781, -0.0006786194, 0.1401892304, -0.0056561399, 0.0146579836, -0.0000011688, 0.0024531884, 0.0381461121, 0.0875595063, -0.0785968229, -0.0001680804, -0.0662082434, -0.0021626139, -0.1065266952, 0.1075962782, 0.0002955421, -0.0031662786, -0.0004229294, 0.2585156858, -0.0046276418, -0.0000849148, -0.0027512237, 0.0009154964, 0.0022810102, -0.0012129025, 0.0704090074, -0.0130344462, 0.0008374270, -0.0000712867, -0.1999117583, 0.0038497697, 0.0205351897, 0.0004857007, 0.0030583537, -0.0027485082, 0.0532550216, -0.0010186565, 0.0004493543, 0.0012236036, 0.0667740926, 0.0081648193, 0.0885923430, -0.0001433110, 0.0000824486, 0.0000512602, -0.0018013600, -0.0036948407, -0.0000868524, -0.0008610736, 0.0280477460, -0.0011373187, -0.0003970424, -0.3685734868, 0.1756148934, -0.0020094141, 0.0021539279, -0.0012525034, -0.0026765610, 0.0009131438, 0.0005751113, -0.0000056789, 0.0036713425, 0.1516577154, -0.0024248925, -0.0494796559, 0.0037796341, 0.0026726704, -0.0124301799, 0.0015997342, -0.1525983214, 0.0003384700, -0.0005328804, 0.1333327293, 0.0006227744, 0.0001931926, 0.0005909285, -0.0019836919, -0.0011132749, 0.0414130539, 0.0000550743, -0.0026998057, -0.0040746313, 0.0991603956, -0.0043983106, 0.0000363921, -0.2032026350, 0.0861744061, 0.0022988205, -0.0011645489, 0.0248908605, -0.1958398223, 0.0207174476, -0.0000431177, -0.0068593938, 0.0008312755, 0.0537460260, 0.0222205631, 0.0288551506, -0.1949514151, -0.0436456613, 0.1500636786, 0.0007858822, -0.0017983681, -0.1501124054, 0.4635877609, -0.4331180453, -0.0000189167, -0.0025930852, -0.0010695548, -0.0015526264, -0.0015453564, 0.0001773439, -0.0014535340, 0.0573162027, 0.4325753748, 0.0980667770, -0.0001270798, 0.1192468256, -0.0125271529, 0.1736386120, -0.0009737404, 0.0969401598, -0.0001110719, 0.1567341983, 0.0001125193, -0.0004798234, 0.0007989976, 0.0890812129, -0.1691851765, 0.0019628461, 0.0577693060, -0.0001712585, -0.0111060347, -0.1732820421, 0.0025066477, -0.2168730795, 0.0024416223, 0.1046187133, 0.0000824550, 0.0814768597, -0.0522532426, 0.2942241430, 0.0341659635, -0.0000300926, -0.6370821595, -0.0784293264, -0.0762753487, -0.4830659032, 0.0569759794, -0.6575737596, 0.0444669984, -0.1776691973, -0.0758941770, 0.2358240038, -0.9029008746, -0.1660512835, 0.0001361513, 0.0960004628, 0.0023233655, 0.0026377689, -0.0009782816, -0.0499557666, 0.2313212454, -0.0009556990, 0.0180081259, 0.0005150120, 0.0008876630, 0.0144624924, 0.0704529881, -0.5559945703, -0.0001730621, -0.0000597758, -0.0019952764, -0.2349402308, -0.0008508851, 0.0000116697, -0.0026617604, -0.0353646129, 0.0171837825, -0.0026143219, -0.0000948432, -0.1669316739, 0.0113496054, 0.0015351588, -0.0014176694, 0.0276264772, -0.0005433527, -0.0010998541, 0.0000545959, -0.0588950105, 0.0002311585, 0.0333791636, 0.1538272351, 0.0004986174, -0.0074856807, -0.0010187950, 0.2163132578, -0.0729412362, 0.0027434030, -0.3480857313, -0.0899371952, -0.2806596160, 0.0000134696, -0.0013407891, 0.0003454236, 0.0032514222, -0.0011390015, 0.0002757166, -0.2570164800, -0.1554771662, -0.0134321759, -0.0008482247, 0.1503914595, -0.5634096265, 0.0000762808, -0.0009677220, -0.0023975116, -0.0012059684, -0.0267994050, -0.0022434834, -0.0000013387, 0.0424713641, -0.2987115681, -0.0021273042, -0.0016697221, 0.1714669913, 0.0032368898, 0.0004173698, 0.0023216000, 0.0028593121, -0.0033775277, 0.1091002226, 0.0017444812, -0.0032625657, 0.0000835295, -0.0004277952, -0.0010544431, -0.0016082026, -0.1056614518, 0.0003077894, -0.0000092514, 0.0086367438, 0.0031459674, -0.0004193776, 0.0005028952, -0.0599843003, -0.0022472548, -0.2379107475, 0.0012010315, -0.0654358193, 0.1965354085, -0.0031559651, 0.0000193314, 0.0024294909, -0.0012980276, -0.0010623147, -0.2156440020, 0.0035344260, 0.1316657513, -0.0040897224, 0.0021271450, -0.0017699657, -0.0021855284, 0.0001388000, 0.2181229740, 0.0003586785, -0.0000002892, 0.0011356575, -0.0025908612, -0.0000554436, 0.0203404929, -0.0002019109, -0.0031834452, -0.0057511008, 0.1561306268, -0.0061048400, -0.0001227620, -0.0036343844, 0.0007818471, 0.0018977681, -0.0014219430, 0.2771673799, -0.1783645749, 0.0326034166, 0.0000517384, 0.0006506069, 0.0045845467, 0.2791833282, 0.0006867304, -0.0061126659, -0.0017351066, -0.0051152091, -0.0009205104, 0.0008099875, -0.0010075523, -0.0591114685, -0.0000729441, 0.0623861142, 0.0000555292, 0.0004441833, 0.0001046134, -0.0010766952, 0.0023499874, -0.0000354750, -0.0003965112, -0.0007348369, 0.0252869334, -0.0024359429, -0.0276432149, 0.0006207179, -0.1947051883, 0.2410243452, -0.0014510285, -0.0003922997, 0.0038552003, 0.0058922302, 0.0000537995, 0.0011790773, 0.0002745907, -0.0034932606, 0.0001173275, -0.0574201569, 0.0004122407, -0.0058183670, 0.1256382614, 0.0005401623, -0.0285386257, -0.0038421154, 0.0263625104, -0.2519753277, -0.0000892092, 0.0038782542, -0.0215084329, -0.0020410665, -0.1119353548, -0.0003527907, 0.0120763984, 0.0998257771, 0.1859052330, -0.0014434248, -0.0005607445, 0.0103915492, -0.0007240950, 0.0012869540, 0.0010026551, 0.1845065653, 0.0710653588, 0.0071519786, -0.0000015045, 0.0039406484, 0.0200645309, 0.0420491621, 0.0007060784, -0.1390843987, 0.1710745096, -0.0041900929, 0.1817998886, 0.0005453671, 0.0007152604, 0.0036629364, 0.0405162908, -0.0006106265, 0.0000175399, 0.0006351171, -0.0006374772, -0.0048215659, -0.0206589494, 0.0000086401, -0.0016676530, 0.0003607692, 0.1065729260, -0.0023784933, -0.0001618958, -0.0089115370, -0.0022428888, 0.0009790385, -0.0013386498, 0.1814898849, 0.0021081567, 0.0019630524, 0.0000152705, 0.0017027004, 0.0004773787, 0.1287617832, -0.0017112639, 0.0298472736, -0.0002733273, -0.0008465637, -0.0455796644, -0.0070079374, 0.0026547855, -0.1865108162, 0.0014187427, 0.0007668560, -0.0001125835, 0.0012707604, -0.0002832336, 0.3955558836, -0.2548181415, 0.0000875289, -0.0000254525, 0.0270093028, -0.4087309539, 0.0527750216, 0.0832058415, 0.2340176105, -0.0038670741, -0.0007194652, 0.0009741866, -0.0038412597, 0.0004728029, 0.0028735176, 0.0001395778, 0.5968570709, 0.0010694168, -0.0024792764, 0.0035402235, 0.0030919437, -0.1425293982, 0.0017546840, -0.0561572127, 0.0031720100, -0.0013021885, 0.1275584698, -0.0372192040, -0.0544964485, -0.0001047296, -0.0015297087, -0.0024510918, -0.0029376033, -0.0332949199, -0.0000639933, 0.1189995781, 0.0455204211, -0.0937084332, 0.0024207605, -0.0001148535, 0.0037064780, -0.0023237404, -0.0509789698, 0.0000715242, -0.0076208245, 0.2619760633, -0.0006808507, 0.0001877292, -0.0023506358, 0.0001864324, -0.1246100366, -0.0081279604, -0.0262974557, 0.1520886123, -0.0035017298, 0.2252658010, 0.0039623971, -0.0040290318, 0.0243986808, 0.3072256148, -0.0216346085, -0.0000806160, 0.0020823728, -0.0368677825, -0.0586887784, -0.0735450014, 0.0000916535, -0.0008643316, 0.0477110595, 0.0048067900, 0.3344750404, -0.0002057774, -0.0022977781, -0.0018561414, -0.0204683915, -0.0018386379, 0.0006364014, 0.0025376959, -0.0006882974, -0.0001393579, 0.0004943875, 0.1798547655, 0.2247453034, -0.2259564549, 0.0009583525, 0.0236978196, 0.1268433928, -0.1997883171, 0.0015057760, -0.0016510257, 0.0710264370, -0.3298873603, 0.1577680111, -0.0002503012, -0.0001820195, -0.0017979384, 0.0004154391, 0.0040655881, 0.0000750948, 0.0800480321, -0.0020187921, -0.2393509597, -0.0024820336, -0.0015399443, 0.0412247293, 0.1334691942, -0.0099282628, -0.0009488523, -0.1115672141, 0.2033261210, 0.0012025845, -0.0000988824, -0.0010633894, -0.5877549648, -0.3263242245, 0.3993150890, -0.0021050177, -0.0376338251, -0.2004930973, 0.1453605741, -0.0114004463, 0.0014090951, -0.5863363743, 0.0799579620, -0.0318577997, 0.0002769792, -0.0007798350, -0.0004092471, 0.0020142451, -0.1821133047, 0.0000168579, -0.0532138608, 0.3274844885, -0.0208400525, 0.1931548268, 0.3205228150, -0.0020164168, -0.1397014260, 0.2573653162, -0.0018040331, -0.0025037308, -0.0317454748, 0.0008667897, 0.0000140489, 0.1711415946, 0.3008827567, -0.1238345206, -0.0187307894, -0.3306382000, 0.2431458831, -0.0020975051, 0.0037665530, -0.0069080880, -0.0468698293, -0.0969252065, 0.0259500481, -0.0269613992, -0.0000143196, 0.1953708827, -0.0023090695, 0.0006528713, -0.0601627007, -0.0000173693, -0.0011264628, 0.1390210390, -0.0045819832, 0.0014920563, -0.1454553455, 0.0006632162, 0.4044213891, -0.0593481250, 0.1752219200, 0.2497136593, -0.0043992340, 0.0054817162, 0.0000610679, -0.0026150532, -0.0777707919, 0.1449838132, -0.0033445377, 0.1287821084, -0.0031334448, -0.0015567472, -0.0006142518, -0.0041275681, 0.0335101858, -0.0017992369, -0.0561795905, 0.1725405306, -0.0000020349, 0.0014689919, -0.0013603056, 0.1810221672, -0.0034916613, 0.0000777313, 0.0288972110, 0.2464408726, 0.0012162443, -0.0006212809, 0.0025236448, 0.1316713244, -0.0018740712, -0.0432155542, 0.0004566016, -0.0027582627, 0.0358544551, 0.0788151771, 0.0001377665, 0.1570390910, 0.1161267608, -0.0048123440, -0.5728986859, -0.0497930199, -0.0021161644, 0.1916901618, -0.7496480346, 0.0035222012, 0.0003332502, 0.1169401705, -0.7903749943, 0.3400921226, 0.0000039169, 0.0001414237, -0.0010523706, 0.0039003082, -0.0010802366, 0.0000283450, 0.1098757684, -0.0403042696, -0.5078858137, 0.0004771534, -0.2141560316, 0.1112407669, 0.0366482846, -0.1523918658, -0.0024073808, -0.2882804275, 0.0895655975, 0.0021462294, 0.0000242193, 0.0033029821, 0.0021915687, -0.7729544640, -0.0006414180, 0.0014677622, 0.0231871698, 0.1064509228, 0.0010533471, 0.0025647522, -0.0004220671, 0.2579258084, -0.1730128527, -0.0891089439, -0.0000459737, -0.0007243710, -0.0033678806, -0.1638176888, 0.0375810564, -0.0001492256, -0.0019774337, -0.8742181659, 0.0004244028, -0.2494011223, -0.0002389027, -0.2927241027, 0.0877864286, 0.0015641041, -0.0020236722, 0.0008860867, 0.0008823811, 0.0001399365, 0.0000724116, -0.0124495700, -0.3374128640, -0.0067317747, 0.0008054654, 0.0006732088, 0.0001891353, -0.0007688475, -0.0005659849, -0.0002477230, 0.0022039223, 0.1102395058, 0.0012379173, -0.0005497181, -0.0000472778, -0.0002354767, -0.0001427594, -0.0028556152, 0.0004433230, 0.0001221391, -0.0005232708, 0.0007299595, -0.0011297495, -0.0004816137, 0.0001015336, -0.0021951413, 0.0112764202, 0.0006142111, -0.0003309296, 0.0480241515, 0.0181004256, -0.0004511390, 0.0000205884, 0.0013143896, -0.0007649927, -0.0007062334, -0.0013557628, 0.0035573798, 0.0155479405, -0.0672632232, 0.1951032281, -0.4620049298, 0.0005197502, 0.0002686969, 0.1261715293, -0.7583501339, 0.0002742303, -0.0000390058, -0.0016843973, -0.0039163008, 0.0002113530, -0.0000578956, -0.0039970390, -0.0007537418, 0.1091000140, -0.0034874049, 0.0000156618, -0.0037417249, 0.1188267246, 0.0033094455, -0.0015018469, 0.2266358733, -0.0344609991, 0.1045815572, -0.0001005222, -0.0041065323, 0.0002892834, 0.0908905640, -0.1134907082, 0.0004452883, 0.0033715817, -0.0003099689, 0.0819760561, 0.0006876822, 0.0028949077, 0.0007720761, -0.0019866689, -0.3925053775, 0.0001756953, 0.0197978262, -0.0002793909, 0.0042588743, 0.0109491078, 0.0001259393, -0.0032154759, -0.3224552870, -0.0123093612, -0.1847754419, 0.0490399264, -0.7782750130, 0.0008813658, -0.0509228855, -0.0065678912, -0.0015165291, -0.0001736789, -0.0005516789, -0.0001225185, 0.0279885568, -0.2731886208, -0.0012756994, -0.0069954833, -0.0025549647, 0.0747321919, 0.0703898147, 0.0006610540, 0.0011177982, -0.0726596043, 0.3616411984, -0.2950108349, -0.2162837386, 0.0001289334, 0.0002858436, -0.0173268560, -0.0068514380, -0.0129465917, 0.0000249200, -0.0028428324, -0.4711939991, -0.4017214477, -0.6154832244, 0.0000241662, -0.3076639175, 0.1148407906, 0.0025275189, -0.0022145668, 0.0010585261, 0.1749265641, 0.0427356400, -0.0000472823, -0.0351069160, -0.0001413024, -0.1698582321, -0.0701071322, -0.3190123737, -0.0006135578, -0.0024974667, -0.2338588685, 0.0024874972, 0.0022838868, -0.0143293068, -0.0034391598, 0.1668678820, 0.0001538463, -0.0007628455, 0.0000213362, -0.0017447941, 0.0026486123, -0.0001578688, 0.0011667076, 0.0016543507, -0.0053597502, 0.0525652207, -0.0335308649, 0.0531944595, 0.0006357736, 0.4112423956, 0.0005549323, -0.0051470692, -0.0267646294, 0.0012512001, 0.0002318753, 0.0051709549, 0.0416391194, -0.0016568224, 0.0019092298, 0.3836204410, -0.0861818120, 0.0015239182, 0.0023457734, 0.0012430567, -0.0055263257, -0.0017357925, -0.1333512813, 0.0011726809, 0.0000946301, -0.0005921093, -0.0002266575, -0.0016332576, -0.1613984257, 0.0000609546, 0.1278929412, 0.1001723781, 0.0064700316, -0.0009045213, 0.0000332859, -0.1119354367, -0.5700816512, -0.0153582152, -0.0019234341, -0.0019645060, 0.1204659939, 0.1117010266, -0.0001350949, 0.0036564001, -0.0020902827, -0.0104754409, 0.0016957195, 0.1173884347, -0.0349734835, 0.0628250763, -0.0633369312, 0.0080185151, 0.0009615931, 0.1486767530, 0.0016348884, 0.0992640182, 0.0000495922, -0.0094265146, -0.0002484347, -0.0095378151, -0.0616252050, 0.0001024706, 0.0001012342, 0.0336652026, -0.0035218094, 0.0989755541, -0.0132641820, 0.0043497062, -0.1514153928, -0.2693794668, -0.0034540470, -0.1524231732, 0.0061364109, -0.0457396507, -0.0001221571, 0.0009431597, 0.1153996438, -0.0118104909, -0.0000655946, -0.0000441598, -0.0000651673, -0.0000588246, 0.0001645740, -0.0001289800, 0.0000536344, 0.0001116900, 0.0000376080, -0.0000013302, -0.0001757611, 0.0001082808, -0.0000935904, -0.0000153604, -0.0000472155, -0.0001254976, -0.0001657805, -0.0000608672, -0.0000606587, 0.0000881117, -0.0000204384, 0.0000598552, 0.0000203125, 0.0000431519, -0.0000734742, -0.0000316301, 0.0002117613, -0.0000804361, -0.0001895960, 0.0000143381, -0.0000188245, -0.0001224851, -0.0005341790, 0.0067063998, 0.0019940040, 0.0019321035, 0.0475030132, 0.0609742627, 0.2242121547, 0.0064549148, -0.1347233355, 0.0974918678, -0.0001134391, -0.0001478292, -0.0003575177, 0.0909507498, 0.4054075181, -0.0000168876, 0.0220739543, -0.1172583178, -0.1476678401, -0.0035662947, -0.4332403541, 0.0032168764, 0.0656871721, -0.2290872037, -0.0006694557, 0.0640558898, 0.0007639815, 0.0062718666, 0.0001167862, 0.1930069178, -0.0712342858, 0.0014450836, -0.0051702205, 0.1002630591, -0.0416452847, -0.0027744588, 0.0009009275, 0.0002352920, -0.0007749181, 0.0114273028, 0.0418567546, 0.0014524000, 0.0000456644, -0.0011375288, -0.0004563983, -0.0008957916, -0.0292905811, -0.0003601196, -0.0004498958, 0.3314444423, -0.0001771564, 0.1122768968, 0.0022105516, 0.0811575726, -0.0657314733, 0.0014610582, 0.0003799424, -0.0048909346, -0.0010342185, 0.0219489671, 0.0000547745, 0.0031526082, 0.0020042816, -0.0026595320, -0.0050273598, -0.0022314540, 0.3148348927, -0.0008493629, -0.0003714047, -0.0009046413, 0.0007851830, -0.0005949895, 0.0015965247, -0.0020832447, 0.0000662508, 0.0015479495, 0.0000948203, 0.0007721329, 0.0041868160, -0.0001508344, -0.0023386322, 0.0004734276, -0.0814067274, -0.0012308615, 0.0010121512, -0.0069426033, 0.0000534236, 0.0030032687, -0.0017192783, 0.0029421472, -0.0038838759, -0.2543479800, -0.0000220003, -0.0005947497, 0.0036861955, -0.0002708427, 0.0001137392, 0.2129424214, 0.0003494908, -0.0006087787, -0.0000468834, -0.0009365847, 0.0011638073, -0.0018938552, 0.0036473798, 0.0833753720, 0.0003251286, 0.0008768708, -0.0006020496, 0.0935045034, -0.0517087504, -0.0000649964, -0.0006716689, 0.0937968567, -0.0721607208, -0.0002444357, -0.0001928764, 0.0940981135, 0.0013744567, -0.0012483511, 0.0000156947, -0.0021942446, -0.0015525596, 0.0016834351, -0.0000828592, 0.0029137025, 0.0005164618, -0.0003958871, -0.0863120183, 0.0067016683, -0.0199499968, 0.0140455700, 0.0270125065, 0.0851606950, 0.0041166395, -0.0332112163, 0.0892928988, -0.0409103669, 0.0000524099, -0.0167625509, 0.0000786510, -0.0259423573, -0.0303248540, -0.0000085963, 0.2589400709, 0.0196278561, 0.1203048527, 0.0031329331, 0.0000376312, 0.0020366353, 0.0012565748, -0.1883714348, -0.0001563708, -0.0048783496, 0.0507840812, -0.0037973968, -0.0000896315, -0.0013386577, -0.0000352536, -0.0251713097, -0.0019274395, -0.1602363437, 0.0034998897, 0.0480720997, -0.1414196044, 0.0022787028, -0.0024297270, 0.1503001153, -0.3605869114, 0.0028690060, -0.0000204669, -0.0000325022, -0.0062071010, -0.0041390262, -0.0018445835, 0.0000620093, -0.0025160243, -1.0274977684, -0.2162039578, -0.7237095237, 0.0000358980, -0.0694185048, 0.0044647427, 0.0014195651, -0.0018754576, 0.0009045249, 0.0377701074, -0.0001040540, -0.0000405808, -0.0114613567, -0.3727957308, -0.0415211730, -0.3724181950, 0.0010080470, -0.1896927655, -0.0032207177, 0.0003840699, 0.0029044729, -0.0005954693, 0.1825871617, -0.1609784514, -0.0003176050, -0.0000446242, -0.0001317326, -0.0007822628, -0.0025717933, -0.0110778892, -0.0002990829, 0.0506076813, 0.0393762477, 0.0130852144, 0.0006650023, -0.0000209088, -0.0451770835, -0.1502211839, 0.1307104528, -0.0021943373, -0.0541924275, 0.2822697461, 0.1036814824, 0.0001478233, -0.0051277000, 0.0109205777, 0.0002263153, -0.2818667591, -0.1155418605, -0.0652015880, -0.0026458134, -0.3461080492, 0.0027674600, -0.0006693189, 0.4088438451, -0.5340449810, 0.0032429122, 0.0000778046, -0.0011030561, -0.0004671648, -0.0064807152, 0.0899451002, 0.0000517103, 0.1362016946, -0.2358181626, -0.0017383685, -0.1639462262, -0.0028578686, 0.0380160995, 0.1100006700, 0.2366058528, -0.0008752920, -0.0965675563, 0.0165562481, 0.1523495167, -0.0001098372, -0.0056708697, -0.5868281126, -0.2381958812, 0.0007008532, 0.0004183186, -0.0004483941, -0.0008333180, 0.0007970912, 0.0006907129, 0.0035943845, -0.0070921960, 0.0039794138, 0.0009463503, -0.0000636512, -0.0009213571, -0.0002097987, -0.0001729754, -0.0008379331, 0.0000295223, -0.0005557687, -0.0000939295, -0.0034850514, -0.0000688144, -0.0005666534, 0.0303253047, 0.0030424094, 0.0590396039, -0.0003443220, -0.0041388576, -0.0205483735, -0.0008312833, -0.0000277349, 0.0036522928, -0.0002182090, 0.1852943897, 0.0685215071, -0.0050794147, -0.1146837696, -0.0035765399, 0.3181605041, 0.0038823206, 0.0002742371, 0.0020255595, 0.0627572387, -0.1125838831, 0.0000884037, -0.0069314260, -0.0002226395, -0.0215962585, -0.3825919330, 0.0000908088, 0.0135748656, 0.2826861143, 0.0938517302, 0.0034024909, 0.2657545209, 0.0020725019, 0.0026099505, -0.1095904037, 0.0004452968, -0.0026649877, 0.0067760223, 0.0021224131, 0.0000242818, -0.0015826625, -0.0130568752, -0.0031630588, -0.0049229241, 0.1077368259, 0.0967723131, 0.0018898952, 0.0417857170, -0.0009354348, 0.0055641853, 0.1252383739, 0.1519000828, 0.0027482850, 0.0000541349, 0.0097314566, -0.0011765775, 0.0000822657, 0.0015483571, -0.0000705430, -0.0025695811, 0.0020836126, -0.0030042944, 0.0017533032, -0.0000680167, -0.0017808022, 0.2486104518, 0.0100282421, 0.0002430140, 0.0213476755, -0.0014069702, -0.0028254713, 0.0000755575, 0.0011928179, -0.0022233448, -0.0006569269, 0.2827825546, 0.0577534810, 0.0412179232, 0.0004099169, 0.2503485382, 0.0000717956, 0.0092549473, 0.1404411197, 0.3198250234, -0.0714454204, -0.0001781919, -0.0006864844, -0.0001833899, -0.0020119925, -0.0511493310, 0.0000285208, -0.0032161106, 0.1842101067, -0.0038744116, 0.3957808614, -0.2288825512, -0.0003272995, 0.0208468102, -0.0508394577, -0.0000434999, -0.0064962516, 0.0002136439, -0.2549593747, -0.0002488456, -0.0034561306, 0.0532876849, 0.2213284373, 0.0008973468, 0.0384240150, -0.0005204529, 0.1065914333, 0.0010613891, 0.0018619651, 0.0031084076, -0.0010467564, 0.0661285594, -0.0022025565, 0.0001840681, -0.0032099886, 0.0003072830, -0.0000840205, -0.0015038470, -0.0000623072, 0.0993751660, 0.1478224993, -0.0029554658, 0.0017619131, 0.0002643902, 0.0028528250, 0.0011266510, -0.0215749424, -0.0008907238, -0.0015768860, 0.0024627929, -0.0011723335, 0.0000150763, 0.0001567304, -0.1808519214, -0.0008589854, -0.0007257758, 0.0041202945, -0.0002530613, -0.0014770688, -0.0003697784, 0.0021521584, -0.0006873658, 0.0025047567, -0.0176532064, -0.0023361954, -0.0002758722, -0.0012042775, 0.0002111420, -0.0028753672, 0.0005187569, 0.0001145095, 0.0517555997, 0.0003415131, 0.0000529049, 0.0003890285, 0.0008951828, 0.1059021726, -0.0001436878, 0.0210972149, 0.0006546861, -0.0010237736, 0.0041890857, 0.0008620055, -0.0000043442, -0.0000263805, 0.1038754582, -0.0005285661, 0.1280752718, 0.0016010866, -0.0009942398, 0.0000492684, 0.3425188661, -0.0025628996, 0.0003414183, -0.0018787329, 0.1872362494, -0.0012130664, -0.0001027814, -0.0019650280, -0.0000273070, 0.0005485410, -0.0066175503, 0.0000560171, -0.0023330208, -0.0015365126, 0.3881415129, 0.0000536784, -0.0016041069, -0.0010333178, -0.0015381362, 0.1733064801, -0.0000003519, -0.0010731090, -0.0005992337, 0.0023531239, 0.0000329840, 0.0004809880, -0.0002005001, 0.0696966946, -0.0011203266, -0.0017217866, 0.1003108844, 0.2644692957, -0.1982364357, 0.0081171431, 0.0053335861, 0.3347891569, -0.0331400707, -0.0004008971, -0.0001096624, 0.0002711761, -0.0002373200, -0.0017278967, -0.0031172947, 0.0001458328, -0.0010062171, -0.0019466014, -0.1134986207, -0.0000498290, -0.0000634219, -0.0019425809, 0.2082049251, 0.0006076635, -0.0011507644, -0.1434371620, 0.0026696974, -0.5540009737, -0.0000507691, 0.0035837293, 0.0005856377, -0.0058092088, 0.1178088412, 0.1685806811, 0.0037785810, -0.0008234036, 0.1394897848, -0.1069205701, 0.0029288935, -0.0308409929, 0.1046027169, -0.1700474918, -0.0000848888, -0.0009461454, -0.0005658632, 0.0032711925, -0.0015215108, -0.0000928160, -0.0044719172, 0.0051382645, 0.3475036323, 0.1405299902, 0.0029176837, 0.1412317306, 0.0041582249, 0.1681136340, -0.0008899471, 0.0457070805, -0.0027012492, 0.1566303074, 0.0000986354, -0.0013725451, -0.0052481061, 0.2287471592, -0.0002177374, -0.0018384330, 0.0009895731, -0.0042886017, 0.0675696060, 0.0000218767, 0.0007605633, -0.0011624370, 0.1484871805, -0.0004564702, 0.0001264466, 0.0027157790, -0.0003466111, -0.0032195759, 0.0003606497, -0.0001062377, -0.0034743992, -0.0005442767, 0.0578010380, -0.0025162643, -0.0001491689, -0.0019230306, 0.0004237813, -0.1974461824, -0.0008651709, 0.0020711927, -0.0002862160, 0.0022785333, 0.0000621043, 0.0022876237, -0.0005915029, -0.0005807459, 0.0005379325, 0.0103473533, -0.0147204455, 0.2829363644, -0.0297475196, 0.1503131539, 0.0012968514, 0.3609741032, -0.0008985793, 0.5024822950, -0.0000271551, 0.0491901673, -0.0002770298, -0.0452896431, -0.1993849128, 0.0000348260, 0.1914104968, 0.0613464899, -0.0075656245, -0.0002590581, -0.2078612447, 0.3574814200, -0.0015146225, -0.0247317385, -0.0027062439, -0.1407147348, 0.0458474979, -0.0462022610, 0.0000859261, -0.0451028049, 0.4070279896, -0.1711279899, -0.0020235374, -0.0059575359, 0.2802759409, 0.0027415217, -0.0011826761, 0.0015258912, -0.0044664643, 0.0083674090, -0.0076129343, -0.0052611139, -0.0000104399, 0.0039386428, -0.0005125060, -0.0000531450, -0.0005623701, 0.0000580690, -0.0350623280, -0.0041900980, -0.0658884794, -0.0026232142, -0.0029238109, -0.0257462859, 0.0514112152, 0.2010464966, 0.0002624323, 0.0007179782, -0.0017253237, -0.0007523494, -0.0000680488, 0.0007695566, -0.0002263687, -0.0015406348, -0.0759871677, -0.0048848321, 0.4670461714, 0.0016114764, -0.0021858269, 0.0082951058, 0.0037211219, 0.0177800469, 0.0073899222, -0.0787569508, -0.0000756689, -0.0019657582, 0.0004268479, -0.0014570213, 0.4255197942, -0.0000512003, -0.0028539503, 0.1228937358, -0.1293602139, -0.0020605617, 0.0192988012, -0.0293978807, 0.4789056480, -0.1027206481, -0.0013320312, 0.0431532301, 0.0063549788, -0.0606941134, -0.0001527073, -0.0339674354, -0.0001091626, 0.0822560117, 0.0101120081, -0.0828887224, 0.1068722084, 0.0011469573, -0.0275612026, 0.0009895156, 0.0577337183, -0.2377694994, 0.0617052056, 0.1859031767, 0.0000652388, -0.0019337041, 0.0315837041, -0.0781355724, 0.2342906743, 0.0002525483, -0.0022369097, -0.0016522973, -0.0027331400, -0.0000744377, 0.0001528037, 0.1372889131, 0.0275612250, 0.4920804799, -0.0005191615, -0.0042639724, -0.0980674624, -0.0020823611, -0.0000390190, -0.0035603875, 0.2290249616, 0.1295020282, -0.0731947720, -0.0026338082, 0.0690371841, 0.0003026764, -0.2670569420, 0.0096511394, 0.2434441447, -0.0264470074, 0.0005344977, 0.3109570444, 0.0001764861, 0.0830407962, 0.0370986499, 0.0007835517, 0.0526741929, 0.0000701932, -0.0258981194, -0.0288929325, -0.0902431309, -0.0337129831, -0.0049048378, -0.0080973236, 0.0215010252, 0.2151467949, -0.0013651898, -0.0028974051, -0.0013788524, -0.0004184619, -0.0000654571, 0.0032003927, 0.0486358814, -0.0031468263, -0.0189195685, 0.0022995526, 0.0929970443, 0.0083417464, 0.0171072446, 0.0024878297, 0.0012867297, 0.3270052969, 0.2120641321, -0.2865423560, 0.0000106780, -0.0764593408, -0.0022975514, -0.1100560278, -0.0162877385, 0.0000868880, -0.0033535229, 0.0558191612, 0.0005615061, 0.0465253778, 0.0001293678, -0.0021723537, 0.0013373519, 0.0016096691, -0.0014560568, -0.0774933472, 0.1252236962, -0.0025860586, -0.0001607678, -0.0132536590, 0.0058538900, 0.0006790388, -0.0056257104, 0.0035280434, -0.0795749724, -0.0027252967, -0.0029294195, 0.0004656359, 0.0012609453, 0.0013083287, -0.0982833207, 0.0972576737, -0.0000271085, -0.0022431309, 0.0002472509, 0.0006333552, 0.0560813881, -0.0000518190, 0.1838529408, 0.0045548743, 0.1109018251, 0.0000050275, 0.0130552296, 0.2779233456, -0.2240503728, 0.3654209375, -0.0003912402, -0.0047956239, 0.0005947042, 0.1760177314, -0.0000659260, 0.0029938850, 0.0018752132, 0.0019038434, 0.2939940393, 0.0049179909, 0.0104083717, -0.0021600530, 0.3643028140, -0.0776422918, 0.0075390451, -0.1281946898, 0.3624005020, -0.4235856235, 0.0000372113, -0.0000833943, -0.0008433827, -0.1048624441, 0.2402469814, 0.0001406575, -0.0169209260, -0.0044253762, 0.0851494968, -0.0018261007, -0.0063674804, -0.0026323723, 0.0046376754, 0.0462514609, -0.0015298825, 0.1189130619, -0.2511845231, -0.0008557950, 0.0000908215, 0.0034331942, -0.1691999435, 0.2339303493, 0.0012241194, -0.0033536984, 0.0007435383, -0.0047652447, 0.0292995013, 0.0008187277, 0.0005126933, 0.0012757161, 0.0009870927, -0.0008207404, 0.0000471332, 0.0011333372, -0.0000196559, -0.0035452521, -0.0022330396, -0.0001689406, -0.0015923631, -0.0011643930, 0.3969678581, -0.0030825161, -0.0003303913, -0.0037238700, -0.0010845307, 0.0016925858, -0.0006807543, 0.1472330689, 0.0029698121, 0.0285858903, -0.0000084377, 0.0022193347, -0.0010823691, 0.0346147902, -0.0090164747, 0.0330196172, -0.1063062251, -0.0014944316, 0.1253679693, 0.0004208330, -0.0049655992, 0.1402436942, 0.1154475957, -0.1618678719, -0.0000653753, 0.0003024410, -0.0017872247, -0.0012559412, -0.0352490805, 0.0004111569, 0.0154487044, 0.0045938459, 0.2837219834, -0.0012688604, -0.0001455405, 0.3477663696, 0.0000671378, 0.0017918824, -0.0010761722, -0.0148953786, 0.0259840470, 0.2863301039, -0.0000154436, 0.0004847232, -0.0004318632, 0.0040669059};
#endif

#endif
